FANN_FLO_2.1
num_layers=4
learning_rate=0.700000
connection_rate=1.000000
network_type=0
learning_momentum=0.000000
training_algorithm=2
train_error_function=1
train_stop_function=0
cascade_output_change_fraction=0.010000
quickprop_decay=-0.000100
quickprop_mu=1.750000
rprop_increase_factor=1.200000
rprop_decrease_factor=0.500000
rprop_delta_min=0.000000
rprop_delta_max=50.000000
rprop_delta_zero=0.100000
cascade_output_stagnation_epochs=12
cascade_candidate_change_fraction=0.010000
cascade_candidate_stagnation_epochs=12
cascade_max_out_epochs=150
cascade_min_out_epochs=50
cascade_max_cand_epochs=150
cascade_min_cand_epochs=50
cascade_num_candidate_groups=2
bit_fail_limit=3.49999994039535522461e-01
cascade_candidate_limit=1.00000000000000000000e+03
cascade_weight_multiplier=4.00000005960464477539e-01
cascade_activation_functions_count=10
cascade_activation_functions=3 5 7 8 10 11 14 15 16 17 
cascade_activation_steepnesses_count=4
cascade_activation_steepnesses=2.50000000000000000000e-01 5.00000000000000000000e-01 7.50000000000000000000e-01 1.00000000000000000000e+00 
layer_sizes=7 9 9 2 
scale_included=0
neurons (num_inputs, activation_function, activation_steepness)=(0, 0, 0.00000000000000000000e+00) (0, 0, 0.00000000000000000000e+00) (0, 0, 0.00000000000000000000e+00) (0, 0, 0.00000000000000000000e+00) (0, 0, 0.00000000000000000000e+00) (0, 0, 0.00000000000000000000e+00) (0, 0, 0.00000000000000000000e+00) (7, 3, 5.00000000000000000000e-01) (7, 3, 5.00000000000000000000e-01) (7, 3, 5.00000000000000000000e-01) (7, 3, 5.00000000000000000000e-01) (7, 3, 5.00000000000000000000e-01) (7, 3, 5.00000000000000000000e-01) (7, 3, 5.00000000000000000000e-01) (7, 3, 5.00000000000000000000e-01) (0, 3, 0.00000000000000000000e+00) (9, 3, 5.00000000000000000000e-01) (9, 3, 5.00000000000000000000e-01) (9, 3, 5.00000000000000000000e-01) (9, 3, 5.00000000000000000000e-01) (9, 3, 5.00000000000000000000e-01) (9, 3, 5.00000000000000000000e-01) (9, 3, 5.00000000000000000000e-01) (9, 3, 5.00000000000000000000e-01) (0, 3, 0.00000000000000000000e+00) (9, 3, 5.00000000000000000000e-01) (0, 3, 0.00000000000000000000e+00) 
connections (connected_to_neuron, weight)=(0, 1.29032695293426513672e+00) (1, -2.27149128913879394531e+00) (2, -1.76433622837066650391e+00) (3, -9.16892147064208984375e+00) (4, -1.09209752082824707031e+00) (5, 2.23162293434143066406e+00) (6, 2.49729156494140625000e+00) (0, 2.17686438560485839844e+00) (1, -8.87530994415283203125e+00) (2, 6.53540229797363281250e+00) (3, -3.07333707809448242188e+00) (4, -2.40476569160819053650e-03) (5, 5.68290853500366210938e+00) (6, 2.39995494484901428223e-01) (0, -2.67650055885314941406e+00) (1, 2.93068361282348632812e+00) (2, 3.34367561340332031250e+00) (3, -3.99967288970947265625e+00) (4, -6.31599998474121093750e+00) (5, 1.71437537670135498047e+00) (6, -8.95906507968902587891e-01) (0, -7.19855976104736328125e+00) (1, -4.47966814041137695312e+00) (2, -6.50469350814819335938e+00) (3, -1.95037376880645751953e+00) (4, -1.62030375003814697266e+00) (5, 2.45225000381469726562e+00) (6, 6.75239515304565429688e+00) (0, -1.64914166927337646484e+00) (1, -8.02353477478027343750e+00) (2, -1.70953834056854248047e+00) (3, -1.89973488450050354004e-01) (4, -4.58853691816329956055e-01) (5, -5.99123179912567138672e-01) (6, 4.15091991424560546875e+00) (0, -2.63387465476989746094e+00) (1, 2.92641139030456542969e+00) (2, 1.91183280944824218750e+01) (3, 3.71593260765075683594e+00) (4, -1.68231906890869140625e+01) (5, 1.61351835727691650391e+00) (6, -6.94016396999359130859e-01) (0, 1.84977304935455322266e+00) (1, 3.72741162776947021484e-01) (2, -2.96489000320434570312e+00) (3, -4.30593347549438476562e+00) (4, -1.84691298007965087891e+00) (5, 6.42145097255706787109e-01) (6, 3.58300518989562988281e+00) (0, -1.10308074951171875000e+01) (1, 9.41078662872314453125e+00) (2, -3.71439909934997558594e+00) (3, -1.85881781578063964844e+00) (4, -7.76967763900756835938e-01) (5, -4.23224067687988281250e+00) (6, 8.81314575672149658203e-01) (7, -4.95218420028686523438e+00) (8, -7.04580974578857421875e+00) (9, 3.00000000000000000000e+01) (10, -2.93258781433105468750e+01) (11, 2.30258789062500000000e+01) (12, 2.97340822219848632812e+00) (13, 3.62100577354431152344e+00) (14, 2.99961757659912109375e+01) (15, 2.79143738746643066406e+00) (7, 9.99555662274360656738e-02) (8, 5.75225210189819335938e+00) (9, -7.34645605087280273438e+00) (10, 1.81048164367675781250e+01) (11, -3.00000000000000000000e+01) (12, 2.05417895317077636719e+00) (13, 4.91539388895034790039e-01) (14, 1.33290987014770507812e+01) (15, -4.11755132675170898438e+00) (7, -7.11523666977882385254e-02) (8, -1.22462387084960937500e+01) (9, 3.00000000000000000000e+01) (10, 6.76875019073486328125e+00) (11, 1.13471376895904541016e+00) (12, -1.31449127197265625000e+00) (13, 1.15000474452972412109e+00) (14, 8.89567756652832031250e+00) (15, -4.85889244079589843750e+00) (7, 4.00013506412506103516e-01) (8, 7.94798880815505981445e-02) (9, 1.89407405853271484375e+01) (10, 2.22905963659286499023e-01) (11, 2.24023222923278808594e-01) (12, 3.00000000000000000000e+01) (13, 5.80792903900146484375e+00) (14, 6.69435214996337890625e+00) (15, -5.04187917709350585938e+00) (7, -3.85206460952758789062e+00) (8, 1.10827398300170898438e+01) (9, -1.49938516616821289062e+01) (10, 3.53362011909484863281e+00) (11, -1.67234611511230468750e+01) (12, 1.02830278873443603516e+00) (13, -4.08836412429809570312e+00) (14, 2.97184696197509765625e+01) (15, 2.59862494468688964844e+00) (7, 6.04742431640625000000e+00) (8, -6.47820234298706054688e+00) (9, 1.35269279479980468750e+01) (10, -1.15418062210083007812e+01) (11, 2.99874668121337890625e+01) (12, -1.26165223121643066406e+00) (13, 4.15171527862548828125e+00) (14, -4.01887130737304687500e+00) (15, -4.03251171112060546875e+00) (7, 6.03103065490722656250e+00) (8, 8.00974845886230468750e+00) (9, -6.63212060928344726562e+00) (10, -1.14972858428955078125e+01) (11, 2.18146781921386718750e+01) (12, 3.61167001724243164062e+00) (13, -1.83265471458435058594e+00) (14, 1.58456745147705078125e+01) (15, -5.70589447021484375000e+00) (7, 2.10301995277404785156e+00) (8, 7.83710336685180664062e+00) (9, -4.58189201354980468750e+00) (10, -1.76268939971923828125e+01) (11, 2.49774723052978515625e+01) (12, 1.67816197872161865234e+00) (13, 4.22909593582153320312e+00) (14, -7.56523990631103515625e+00) (15, -1.72920143604278564453e+00) (16, -6.02234125137329101562e-01) (17, -2.16499662399291992188e+00) (18, -1.90634340047836303711e-01) (19, -5.79060256481170654297e-01) (20, -1.17987883090972900391e+00) (21, -9.87633228302001953125e-01) (22, -6.93870902061462402344e-01) (23, -1.25233483314514160156e+00) (24, 1.81250143051147460938e+00) 
