FANN_FLO_2.1
num_layers=4
learning_rate=0.700000
connection_rate=1.000000
network_type=0
learning_momentum=0.000000
training_algorithm=2
train_error_function=1
train_stop_function=0
cascade_output_change_fraction=0.010000
quickprop_decay=-0.000100
quickprop_mu=1.750000
rprop_increase_factor=1.200000
rprop_decrease_factor=0.500000
rprop_delta_min=0.000000
rprop_delta_max=50.000000
rprop_delta_zero=0.100000
cascade_output_stagnation_epochs=12
cascade_candidate_change_fraction=0.010000
cascade_candidate_stagnation_epochs=12
cascade_max_out_epochs=150
cascade_min_out_epochs=50
cascade_max_cand_epochs=150
cascade_min_cand_epochs=50
cascade_num_candidate_groups=2
bit_fail_limit=3.49999994039535522461e-01
cascade_candidate_limit=1.00000000000000000000e+03
cascade_weight_multiplier=4.00000005960464477539e-01
cascade_activation_functions_count=10
cascade_activation_functions=3 5 7 8 10 11 14 15 16 17 
cascade_activation_steepnesses_count=4
cascade_activation_steepnesses=2.50000000000000000000e-01 5.00000000000000000000e-01 7.50000000000000000000e-01 1.00000000000000000000e+00 
layer_sizes=19 33 9 2 
scale_included=0
neurons (num_inputs, activation_function, activation_steepness)=(0, 0, 0.00000000000000000000e+00) (0, 0, 0.00000000000000000000e+00) (0, 0, 0.00000000000000000000e+00) (0, 0, 0.00000000000000000000e+00) (0, 0, 0.00000000000000000000e+00) (0, 0, 0.00000000000000000000e+00) (0, 0, 0.00000000000000000000e+00) (0, 0, 0.00000000000000000000e+00) (0, 0, 0.00000000000000000000e+00) (0, 0, 0.00000000000000000000e+00) (0, 0, 0.00000000000000000000e+00) (0, 0, 0.00000000000000000000e+00) (0, 0, 0.00000000000000000000e+00) (0, 0, 0.00000000000000000000e+00) (0, 0, 0.00000000000000000000e+00) (0, 0, 0.00000000000000000000e+00) (0, 0, 0.00000000000000000000e+00) (0, 0, 0.00000000000000000000e+00) (0, 0, 0.00000000000000000000e+00) (19, 3, 5.00000000000000000000e-01) (19, 3, 5.00000000000000000000e-01) (19, 3, 5.00000000000000000000e-01) (19, 3, 5.00000000000000000000e-01) (19, 3, 5.00000000000000000000e-01) (19, 3, 5.00000000000000000000e-01) (19, 3, 5.00000000000000000000e-01) (19, 3, 5.00000000000000000000e-01) (19, 3, 5.00000000000000000000e-01) (19, 3, 5.00000000000000000000e-01) (19, 3, 5.00000000000000000000e-01) (19, 3, 5.00000000000000000000e-01) (19, 3, 5.00000000000000000000e-01) (19, 3, 5.00000000000000000000e-01) (19, 3, 5.00000000000000000000e-01) (19, 3, 5.00000000000000000000e-01) (19, 3, 5.00000000000000000000e-01) (19, 3, 5.00000000000000000000e-01) (19, 3, 5.00000000000000000000e-01) (19, 3, 5.00000000000000000000e-01) (19, 3, 5.00000000000000000000e-01) (19, 3, 5.00000000000000000000e-01) (19, 3, 5.00000000000000000000e-01) (19, 3, 5.00000000000000000000e-01) (19, 3, 5.00000000000000000000e-01) (19, 3, 5.00000000000000000000e-01) (19, 3, 5.00000000000000000000e-01) (19, 3, 5.00000000000000000000e-01) (19, 3, 5.00000000000000000000e-01) (19, 3, 5.00000000000000000000e-01) (19, 3, 5.00000000000000000000e-01) (19, 3, 5.00000000000000000000e-01) (0, 3, 0.00000000000000000000e+00) (33, 3, 5.00000000000000000000e-01) (33, 3, 5.00000000000000000000e-01) (33, 3, 5.00000000000000000000e-01) (33, 3, 5.00000000000000000000e-01) (33, 3, 5.00000000000000000000e-01) (33, 3, 5.00000000000000000000e-01) (33, 3, 5.00000000000000000000e-01) (33, 3, 5.00000000000000000000e-01) (0, 3, 0.00000000000000000000e+00) (9, 3, 5.00000000000000000000e-01) (0, 3, 0.00000000000000000000e+00) 
connections (connected_to_neuron, weight)=(0, -9.89662647247314453125e+00) (1, 1.91580343246459960938e+00) (2, -5.96451282501220703125e-01) (3, -3.74415469169616699219e+00) (4, -5.75418293476104736328e-01) (5, -1.80208754539489746094e+00) (6, -3.76669056713581085205e-02) (7, -4.77291107177734375000e-01) (8, -7.02394962310791015625e-01) (9, -3.78158509731292724609e-01) (10, -1.49984252452850341797e+00) (11, -1.03265247344970703125e+01) (12, -1.30135071277618408203e+00) (13, -6.29644453525543212891e-01) (14, -6.77797138690948486328e-01) (15, -1.94154691696166992188e+00) (16, -1.33559083938598632812e+00) (17, -5.10117053985595703125e-01) (18, -6.20372116565704345703e-01) (0, -1.13740706443786621094e+00) (1, 1.25130221247673034668e-01) (2, -1.92800030112266540527e-01) (3, -1.32401180267333984375e+00) (4, 8.34879353642463684082e-02) (5, -1.18360245227813720703e+00) (6, 4.42197844386100769043e-02) (7, -5.39161451160907745361e-02) (8, -9.34863090515136718750e-01) (9, 7.18882232904434204102e-02) (10, 6.97305500507354736328e-01) (11, -6.97696864604949951172e-01) (12, -8.98204147815704345703e-01) (13, 1.63796246051788330078e+00) (14, -9.82267409563064575195e-02) (15, -1.63712978363037109375e+00) (16, 8.20449769496917724609e-01) (17, 1.57197400927543640137e-01) (18, 1.17885641753673553467e-01) (0, -4.81615686416625976562e+00) (1, -2.18707814812660217285e-01) (2, -1.34036028385162353516e+00) (3, -7.06099033355712890625e+00) (4, -1.71279501914978027344e+00) (5, 2.50790405273437500000e+01) (6, -2.89672583341598510742e-01) (7, -1.67729592323303222656e+00) (8, -1.00512194633483886719e+00) (9, -1.14018416404724121094e+00) (10, -1.34118676185607910156e+00) (11, -4.66647338867187500000e+00) (12, -4.15479850769042968750e+00) (13, -1.49963533878326416016e+00) (14, -3.52344465255737304688e+00) (15, -8.29234504699707031250e+00) (16, -1.33765113353729248047e+00) (17, -1.33655965328216552734e+00) (18, -1.31721580028533935547e+00) (0, -2.54990530014038085938e+00) (1, 1.40758365392684936523e-01) (2, -1.92181974649429321289e-01) (3, -1.55366694927215576172e+00) (4, 1.52664884924888610840e-01) (5, -3.29773640632629394531e+00) (6, 1.69662699103355407715e-01) (7, -5.46996071934700012207e-02) (8, -2.04284369945526123047e-01) (9, 1.33860424160957336426e-01) (10, 4.89512411877512931824e-03) (11, -2.65090727806091308594e+00) (12, -1.58045852184295654297e+00) (13, 4.22888219356536865234e-01) (14, -4.01802599430084228516e-01) (15, -2.80314588546752929688e+00) (16, 3.93429875373840332031e-01) (17, 4.68745715916156768799e-02) (18, 1.33881628513336181641e-01) (0, -4.51200217008590698242e-01) (1, -4.04331254959106445312e+00) (2, -3.05465102195739746094e-01) (3, -4.57192957401275634766e-01) (4, -4.45250511169433593750e+00) (5, -5.74463486671447753906e-01) (6, 1.54921680688858032227e-01) (7, -4.56567716598510742188e+00) (8, -4.56566721200942993164e-01) (9, -2.53831893205642700195e-01) (10, 3.27657985687255859375e+00) (11, -2.63394981622695922852e-01) (12, -5.33349096775054931641e-01) (13, 2.94994401931762695312e+00) (14, -3.68649274110794067383e-01) (15, -5.18222570419311523438e-01) (16, 3.20501089096069335938e+00) (17, 4.07795786857604980469e-01) (18, -1.45508319139480590820e-01) (0, -4.18674421310424804688e+00) (1, 1.17031790316104888916e-01) (2, -7.71611511707305908203e-01) (3, -6.49488401412963867188e+00) (4, -1.57827830314636230469e+00) (5, 2.55810260772705078125e+01) (6, -1.17237180471420288086e-01) (7, -1.63765621185302734375e+00) (8, -1.22464656829833984375e+00) (9, -1.19279146194458007812e+00) (10, -1.34737277030944824219e+00) (11, -2.74290299415588378906e+00) (12, -3.44002413749694824219e+00) (13, -1.46320331096649169922e+00) (14, -3.24994611740112304688e+00) (15, -7.63373041152954101562e+00) (16, -1.38844120502471923828e+00) (17, -1.15442013740539550781e+00) (18, -1.36060070991516113281e+00) (0, -5.14744400978088378906e-01) (1, -1.33553457260131835938e+00) (2, -2.54053616523742675781e+00) (3, -4.53951805830001831055e-01) (4, -1.23103845119476318359e+00) (5, -2.01510548591613769531e+00) (6, -5.00879824161529541016e-01) (7, -7.62337684631347656250e-01) (8, -2.24777436256408691406e+00) (9, -3.15886825323104858398e-01) (10, 2.29864478111267089844e+00) (11, 1.31979179382324218750e+00) (12, -4.69324499368667602539e-01) (13, 1.81399154663085937500e+00) (14, 9.55016314983367919922e-01) (15, -3.81467431783676147461e-01) (16, 2.21049213409423828125e+00) (17, 1.34031605720520019531e+00) (18, -2.85976624488830566406e+00) (0, 2.16962599754333496094e+00) (1, 3.62922400236129760742e-01) (2, 7.61304795742034912109e-01) (3, 8.62069070339202880859e-01) (4, 2.74079084396362304688e-01) (5, 1.52419531345367431641e+00) (6, 2.85008525848388671875e+00) (7, 1.51984915137290954590e-01) (8, 9.74224507808685302734e-01) (9, -4.93321084976196289062e+00) (10, -7.41212785243988037109e-01) (11, -8.33675026893615722656e-01) (12, -4.22067165374755859375e+00) (13, -2.93156832456588745117e-01) (14, -2.33224287629127502441e-01) (15, -4.92967939376831054688e+00) (16, -1.73120409250259399414e-01) (17, 1.12185075879096984863e-01) (18, 9.71606597304344177246e-02) (0, 4.21419763565063476562e+00) (1, 1.44514545798301696777e-01) (2, 5.50812482833862304688e-02) (3, 3.96604585647583007812e+00) (4, 1.00444696843624114990e-01) (5, 9.22448813915252685547e-01) (6, 3.39778614044189453125e+00) (7, 9.67783108353614807129e-02) (8, 5.14282703399658203125e-01) (9, -4.63296651840209960938e+00) (10, -2.93675124645233154297e-01) (11, -6.99297726154327392578e-01) (12, -4.38916254043579101562e+00) (13, -8.28203320503234863281e-01) (14, -1.27113327383995056152e-01) (15, -6.44160413742065429688e+00) (16, -5.59676468372344970703e-01) (17, 1.11338801681995391846e-01) (18, 1.03034071624279022217e-01) (0, -5.26630640029907226562e+00) (1, 1.20573699474334716797e+00) (2, -5.21912097930908203125e-01) (3, -5.21843528747558593750e+00) (4, -5.49170076847076416016e-01) (5, -5.01949930191040039062e+00) (6, -5.32373487949371337891e-01) (7, -5.10435760021209716797e-01) (8, -5.11581480503082275391e-01) (9, -4.17548209428787231445e-01) (10, 2.25575232505798339844e+00) (11, -2.45614719390869140625e+01) (12, -6.21272504329681396484e-01) (13, 8.73307526111602783203e-01) (14, -5.60914039611816406250e-01) (15, -2.46004223823547363281e+00) (16, 3.26677918434143066406e+00) (17, -6.17880046367645263672e-01) (18, -6.01672291755676269531e-01) (0, -9.30679321289062500000e+00) (1, -6.02502003312110900879e-02) (2, -1.41668093204498291016e+00) (3, -7.33282661437988281250e+00) (4, -1.71280241012573242188e+00) (5, 2.40195655822753906250e+01) (6, -1.41183510422706604004e-01) (7, -1.75313842296600341797e+00) (8, -1.36764109134674072266e+00) (9, -1.15001988410949707031e+00) (10, -8.37997436523437500000e+00) (11, -6.87814903259277343750e+00) (12, -5.35534524917602539062e+00) (13, -5.28000307083129882812e+00) (14, -3.78617310523986816406e+00) (15, -7.88473653793334960938e+00) (16, -3.71540069580078125000e+00) (17, -1.16803610324859619141e+00) (18, -1.26149535179138183594e+00) (0, -3.11382699012756347656e+00) (1, 1.64723202586174011230e-01) (2, -2.03306391835212707520e-01) (3, -1.59283208847045898438e+00) (4, 5.93974962830543518066e-02) (5, -3.46741127967834472656e+00) (6, 1.46976545453071594238e-01) (7, -6.54595643281936645508e-02) (8, -5.63372313976287841797e-01) (9, 9.74343568086624145508e-02) (10, 2.77498930692672729492e-01) (11, -3.19468188285827636719e+00) (12, -1.52107417583465576172e+00) (13, 3.39117258787155151367e-01) (14, -5.83987355232238769531e-01) (15, -3.01366925239562988281e+00) (16, 2.62109667062759399414e-01) (17, 3.43446098268032073975e-02) (18, 4.69270572066307067871e-02) (0, 9.44939315319061279297e-01) (1, 2.47331693768501281738e-01) (2, -4.82376050949096679688e+00) (3, 7.84213542938232421875e-01) (4, 1.80073872208595275879e-01) (5, -7.33705329895019531250e+00) (6, 3.16533744335174560547e-01) (7, 2.53473728895187377930e-01) (8, -4.95696496963500976562e+00) (9, 4.55806814134120941162e-02) (10, -3.68582755327224731445e-01) (11, 1.59737575054168701172e+00) (12, 1.49699878692626953125e+00) (13, -6.13108947873115539551e-02) (14, 1.03817033767700195312e+00) (15, 1.97506055235862731934e-01) (16, 7.36347138881683349609e-02) (17, 1.29678106307983398438e+00) (18, 3.78776676952838897705e-02) (0, -5.05524575710296630859e-01) (1, 7.40318223834037780762e-02) (2, 4.03502178192138671875e+00) (3, -5.55943429470062255859e-01) (4, -3.75591635704040527344e-01) (5, 2.74080991744995117188e+00) (6, 1.13667055964469909668e-01) (7, -2.97232061624526977539e-01) (8, 3.62914252281188964844e+00) (9, 6.08916759490966796875e-01) (10, -9.13844034075736999512e-02) (11, -5.69657564163208007812e+00) (12, -3.26053768396377563477e-01) (13, 1.41602143645286560059e-01) (14, -6.29289436340332031250e+00) (15, 1.71025786548852920532e-02) (16, 6.63164183497428894043e-02) (17, -6.48917102813720703125e+00) (18, 1.65030211210250854492e-01) (0, -9.34947013854980468750e+00) (1, -1.06609672307968139648e-01) (2, -1.49465584754943847656e+00) (3, -7.52178192138671875000e+00) (4, -1.71625709533691406250e+00) (5, 2.41391983032226562500e+01) (6, -1.17265239357948303223e-01) (7, -1.70854699611663818359e+00) (8, -1.34938061237335205078e+00) (9, -1.26302838325500488281e+00) (10, -8.30226516723632812500e+00) (11, -6.77239131927490234375e+00) (12, -5.30936479568481445312e+00) (13, -5.33839273452758789062e+00) (14, -3.67403769493103027344e+00) (15, -7.77269363403320312500e+00) (16, -3.88239765167236328125e+00) (17, -1.26441872119903564453e+00) (18, -1.28452873229980468750e+00) (0, -3.24756336212158203125e+00) (1, 1.71259686350822448730e-01) (2, 5.34741254523396492004e-03) (3, -5.67281770706176757812e+00) (4, -8.92781000584363937378e-03) (5, 3.13671422004699707031e+00) (6, -3.08020591735839843750e+00) (7, 9.40612703561782836914e-03) (8, 2.44036495685577392578e-01) (9, 6.64780139923095703125e-01) (10, -4.62871827185153961182e-02) (11, -4.34490823745727539062e+00) (12, 1.33528602123260498047e+00) (13, -2.00532272458076477051e-01) (14, -1.05143213272094726562e+00) (15, -3.76785285770893096924e-02) (16, 8.32379534840583801270e-02) (17, -1.62068121135234832764e-02) (18, 1.90957877784967422485e-02) (0, -9.25344085693359375000e+00) (1, -5.84508553147315979004e-02) (2, -1.38009655475616455078e+00) (3, -7.52161788940429687500e+00) (4, -1.64526748657226562500e+00) (5, 2.40312328338623046875e+01) (6, -1.90473929047584533691e-01) (7, -1.69982230663299560547e+00) (8, -1.38450014591217041016e+00) (9, -1.24176573753356933594e+00) (10, -8.36506271362304687500e+00) (11, -6.94108963012695312500e+00) (12, -5.27607965469360351562e+00) (13, -5.34693288803100585938e+00) (14, -3.66122484207153320312e+00) (15, -7.69177484512329101562e+00) (16, -3.83498573303222656250e+00) (17, -1.27281796932220458984e+00) (18, -1.23838496208190917969e+00) (0, -5.36504888534545898438e+00) (1, -1.16249775886535644531e+00) (2, -5.18014550209045410156e-01) (3, -7.02755451202392578125e-01) (4, -6.22631490230560302734e-01) (5, -5.16923952102661132812e+00) (6, -8.29931199550628662109e-02) (7, -5.93283236026763916016e-01) (8, -6.37861073017120361328e-01) (9, -4.25215601921081542969e-01) (10, 1.52060341835021972656e+00) (11, -7.02197885513305664062e+00) (12, -7.06867754459381103516e-01) (13, 2.01470780372619628906e+00) (14, -5.31605780124664306641e-01) (15, -6.89167261123657226562e-01) (16, 2.03932285308837890625e+00) (17, -5.02222955226898193359e-01) (18, -5.30722856521606445312e-01) (0, -2.55460238456726074219e+00) (1, 3.53700488805770874023e-01) (2, -1.83693623542785644531e+00) (3, -3.09982347488403320312e+00) (4, 1.26478120684623718262e-01) (5, -1.96123385429382324219e+00) (6, -1.33466184139251708984e+00) (7, 1.80364586412906646729e-02) (8, -2.38673448562622070312e+00) (9, 1.93094575405120849609e+00) (10, 1.22348919510841369629e-01) (11, 3.95207583904266357422e-01) (12, 1.02730238437652587891e+00) (13, 7.01669827103614807129e-02) (14, 2.22410231828689575195e-01) (15, 2.34428811073303222656e+00) (16, 4.11404073238372802734e-02) (17, 1.02468156814575195312e+00) (18, 1.89116045832633972168e-01) (0, -3.53149175643920898438e+00) (1, -1.55966088175773620605e-01) (2, -1.23976838588714599609e+00) (3, -6.25728178024291992188e+00) (4, -1.73535656929016113281e+00) (5, 2.41393508911132812500e+01) (6, -1.09208285808563232422e-01) (7, -1.60850977897644042969e+00) (8, -1.18391299247741699219e+00) (9, -1.14222395420074462891e+00) (10, -1.44481039047241210938e+00) (11, -1.35864758491516113281e+00) (12, -2.61618685722351074219e+00) (13, -1.62148320674896240234e+00) (14, -2.46976852416992187500e+00) (15, -6.75241279602050781250e+00) (16, -1.23849606513977050781e+00) (17, -1.33033239841461181641e+00) (18, -1.23984432220458984375e+00) (0, -9.32852745056152343750e+00) (1, -2.08082407712936401367e-01) (2, -1.45614635944366455078e+00) (3, -7.52054214477539062500e+00) (4, -1.81624054908752441406e+00) (5, 2.41017818450927734375e+01) (6, -1.28985777497291564941e-01) (7, -1.73971164226531982422e+00) (8, -1.35643494129180908203e+00) (9, -1.27571249008178710938e+00) (10, -8.32426071166992187500e+00) (11, -6.81455421447753906250e+00) (12, -5.37937974929809570312e+00) (13, -5.26760149002075195312e+00) (14, -3.76868653297424316406e+00) (15, -7.73678112030029296875e+00) (16, -3.72714042663574218750e+00) (17, -1.17557156085968017578e+00) (18, -1.17762875556945800781e+00) (0, -2.57961797714233398438e+00) (1, 1.88732996582984924316e-01) (2, -3.79653349518775939941e-02) (3, -1.76141870021820068359e+00) (4, 1.45928174257278442383e-01) (5, 1.47156938910484313965e-01) (6, 8.52946713566780090332e-02) (7, 1.18154883384704589844e-02) (8, 2.90066935122013092041e-02) (9, 8.49700868129730224609e-02) (10, -8.07133674621582031250e+00) (11, -4.25327396392822265625e+00) (12, -1.52712154388427734375e+00) (13, -2.27892756462097167969e+00) (14, -9.18675899505615234375e-01) (15, -3.16126441955566406250e+00) (16, -3.46331238746643066406e+00) (17, -1.09996204264461994171e-03) (18, -1.00757695734500885010e-01) (0, -6.76238894462585449219e-01) (1, 5.14327362179756164551e-03) (2, -9.17147457599639892578e-01) (3, -5.71869909763336181641e-01) (4, 1.11275039613246917725e-01) (5, -2.06233930587768554688e+00) (6, 1.32869139313697814941e-01) (7, -1.32820248603820800781e-01) (8, -1.10982966423034667969e+00) (9, -1.40882566571235656738e-01) (10, -3.58549714088439941406e-01) (11, -4.99295145273208618164e-01) (12, -1.46328020095825195312e+00) (13, -2.65727508813142776489e-02) (14, -1.79860217031091451645e-04) (15, -3.33549094200134277344e+00) (16, -8.12261924147605895996e-03) (17, 8.70030596852302551270e-02) (18, 1.23914100229740142822e-01) (0, -4.71585845947265625000e+00) (1, 2.90100157260894775391e-01) (2, -8.13246592879295349121e-02) (3, -4.34838247299194335938e+00) (4, 1.06386847794055938721e-01) (5, 1.30692183971405029297e+00) (6, -4.73340702056884765625e+00) (7, -2.66200816258788108826e-03) (8, -1.08933568000793457031e-01) (9, 3.43663907051086425781e+00) (10, -1.67787656188011169434e-01) (11, -4.58926558494567871094e-01) (12, 1.78108859062194824219e+00) (13, -1.32484570145606994629e-01) (14, -1.35150393471121788025e-02) (15, 2.70617699623107910156e+00) (16, -1.87177304178476333618e-02) (17, 1.88374832272529602051e-01) (18, 2.27475520223379135132e-02) (0, -1.46916255354881286621e-01) (1, 2.33079671859741210938e-01) (2, -5.31916284561157226562e+00) (3, -3.24208557605743408203e-01) (4, 2.48772010207176208496e-01) (5, -4.90197944641113281250e+00) (6, 3.81236702203750610352e-01) (7, 1.01418122649192810059e-01) (8, -4.95323133468627929688e+00) (9, 3.09868752956390380859e-02) (10, 1.04996666312217712402e-01) (11, 4.08297300338745117188e+00) (12, -1.93799510598182678223e-01) (13, -1.92476004362106323242e-01) (14, 1.88737261295318603516e+00) (15, -2.95171380043029785156e-01) (16, -2.96680986881256103516e-01) (17, 2.91254901885986328125e+00) (18, 1.21997915208339691162e-01) (0, -4.16858494281768798828e-01) (1, -4.20989036560058593750e+00) (2, -5.15245914459228515625e-01) (3, -5.13695895671844482422e-01) (4, -3.15928411483764648438e+00) (5, -5.01060724258422851562e-01) (6, -3.35265398025512695312e-02) (7, -3.85023927688598632812e+00) (8, -5.78008532524108886719e-01) (9, -1.54849812388420104980e-01) (10, 3.42315673828125000000e+00) (11, -4.68866974115371704102e-01) (12, -4.87737625837326049805e-01) (13, 2.57020807266235351562e+00) (14, -4.43759918212890625000e-01) (15, -4.11972790956497192383e-01) (16, 3.31618785858154296875e+00) (17, -3.07135492563247680664e-01) (18, -4.10290420055389404297e-01) (0, -3.50629162788391113281e+00) (1, 2.13868945837020874023e-01) (2, 2.85461127758026123047e-01) (3, -3.21951079368591308594e+00) (4, 5.89591860771179199219e-01) (5, -2.37179785966873168945e-01) (6, -3.86940479278564453125e+00) (7, 1.49366724491119384766e+00) (8, -1.27101987600326538086e-01) (9, 1.09983038902282714844e+00) (10, 2.60957404971122741699e-02) (11, -1.15332849323749542236e-01) (12, 1.92142593860626220703e+00) (13, -1.01993136107921600342e-01) (14, 1.46293297410011291504e-01) (15, 7.04446494579315185547e-01) (16, 2.29182280600070953369e-02) (17, 2.17321172356605529785e-01) (18, 1.86818733811378479004e-01) (0, -9.19760513305664062500e+00) (1, -1.51127904653549194336e-01) (2, -1.48887276649475097656e+00) (3, -7.42503356933593750000e+00) (4, -1.65767121315002441406e+00) (5, 2.41406593322753906250e+01) (6, -1.86528816819190979004e-01) (7, -1.72747433185577392578e+00) (8, -1.43170082569122314453e+00) (9, -1.24170517921447753906e+00) (10, -8.33283615112304687500e+00) (11, -6.95817756652832031250e+00) (12, -5.32847642898559570312e+00) (13, -5.30902814865112304688e+00) (14, -3.65175580978393554688e+00) (15, -7.87511205673217773438e+00) (16, -3.73210000991821289062e+00) (17, -1.17941796779632568359e+00) (18, -1.25895619392395019531e+00) (0, -1.95735323429107666016e+00) (1, 1.08004608154296875000e+01) (2, -4.98427718877792358398e-01) (3, -1.22287976741790771484e+00) (4, -4.96191918849945068359e-01) (5, 6.16002500057220458984e-01) (6, 2.46179774403572082520e-01) (7, -4.82964694499969482422e-01) (8, -5.84918856620788574219e-01) (9, -4.45494979619979858398e-01) (10, -1.64082775115966796875e+01) (11, -1.91556608676910400391e+00) (12, -9.45589303970336914062e-01) (13, -2.76362848281860351562e+00) (14, -7.89581716060638427734e-01) (15, -6.17940306663513183594e-01) (16, -8.97242927551269531250e+00) (17, -5.69716989994049072266e-01) (18, -5.66009283065795898438e-01) (0, -2.56983232498168945312e+00) (1, 1.82435169816017150879e-01) (2, -1.44737824797630310059e-01) (3, -2.60218691825866699219e+00) (4, 5.93823306262493133545e-02) (5, -3.17996525764465332031e+00) (6, 3.16500738263130187988e-02) (7, -4.91217523813247680664e-02) (8, -1.74979612231254577637e-01) (9, -2.35874764621257781982e-02) (10, -1.69690176844596862793e-01) (11, -2.29831337928771972656e+00) (12, -1.17741012573242187500e+00) (13, 1.61972939968109130859e-01) (14, -2.66105532646179199219e-01) (15, -1.57451117038726806641e+00) (16, 7.51853287220001220703e-01) (17, -2.00802870094776153564e-02) (18, 6.83357566595077514648e-02) (0, -4.68714046478271484375e+00) (1, 3.72450768947601318359e-01) (2, -7.82904475927352905273e-02) (3, -4.27430248260498046875e+00) (4, 1.25531509518623352051e-01) (5, -4.66866493225097656250e-01) (6, -1.50990355014801025391e+00) (7, -6.20211660861968994141e-02) (8, -1.08749985694885253906e-01) (9, 3.20413231849670410156e+00) (10, -1.56337380409240722656e+00) (11, -1.30308270454406738281e-01) (12, 2.93685293197631835938e+00) (13, -6.30331993103027343750e-01) (14, 4.12155061960220336914e-01) (15, 2.91989517211914062500e+00) (16, -1.31403529644012451172e+00) (17, 6.67792484164237976074e-02) (18, 1.87737382948398590088e-02) (0, 1.47347676753997802734e+00) (1, 1.83215633034706115723e-01) (2, 1.66159197688102722168e-01) (3, 2.29018282890319824219e+00) (4, 1.32863953709602355957e-01) (5, 4.32359576225280761719e-02) (6, 4.48135519027709960938e+00) (7, 6.08916766941547393799e-02) (8, 8.52910697460174560547e-01) (9, -3.05933451652526855469e+00) (10, 1.19007907807826995850e-01) (11, -3.10974985361099243164e-01) (12, -7.47697639465332031250e+00) (13, 7.74777084589004516602e-02) (14, 2.90337860584259033203e-01) (15, -7.19366741180419921875e+00) (16, 7.24041387438774108887e-02) (17, 4.64718528091907501221e-02) (18, 6.37372508645057678223e-02) (19, 3.00000000000000000000e+01) (20, -2.08233761787414550781e+00) (21, 3.00000000000000000000e+01) (22, 3.49982380867004394531e-01) (23, 1.41404128074645996094e+00) (24, 3.00000000000000000000e+01) (25, 4.46939420700073242188e+00) (26, 1.02305531501770019531e+00) (27, 1.66293871402740478516e+00) (28, 9.95031929016113281250e+00) (29, 2.60856590270996093750e+01) (30, 6.12667560577392578125e-01) (31, 5.79047977924346923828e-01) (32, 3.29558324813842773438e+00) (33, 2.60856590270996093750e+01) (34, 1.30980625748634338379e-01) (35, 2.60856590270996093750e+01) (36, -7.71571278572082519531e-01) (37, 1.20591139793395996094e+00) (38, 3.00000000000000000000e+01) (39, 2.60856590270996093750e+01) (40, 7.60436505079269409180e-02) (41, 1.19929574429988861084e-02) (42, 2.39126026630401611328e-01) (43, 1.63623523712158203125e+00) (44, 6.95151150226593017578e-01) (45, 2.60602712631225585938e-01) (46, 2.60856590270996093750e+01) (47, 3.00000000000000000000e+01) (48, 5.36618351936340332031e-01) (49, 8.48350226879119873047e-01) (50, 4.04278182983398437500e+00) (51, 9.82357487082481384277e-02) (19, -3.00000000000000000000e+01) (20, 6.07182836532592773438e+00) (21, -1.04657948017120361328e+00) (22, -3.23558598756790161133e-01) (23, -3.42385244369506835938e+00) (24, -4.49412703514099121094e-01) (25, -5.24910688400268554688e-01) (26, -1.24753201007843017578e+00) (27, -1.24427914619445800781e+00) (28, -1.63061256408691406250e+01) (29, 2.86553144454956054688e-01) (30, -1.46034443378448486328e+00) (31, -1.39389920234680175781e+00) (32, -3.35819554328918457031e+00) (33, 2.86553144454956054688e-01) (34, -1.19846308231353759766e+00) (35, 2.86553144454956054688e-01) (36, 1.91825127601623535156e+00) (37, -1.31770932674407958984e+00) (38, 1.73242509365081787109e+00) (39, 2.86553144454956054688e-01) (40, -1.04932248592376708984e+00) (41, 2.10007500648498535156e+00) (42, -1.22356474399566650391e+00) (43, -1.67498493194580078125e+00) (44, -7.33789563179016113281e-01) (45, -1.23417305946350097656e+00) (46, 2.86553144454956054688e-01) (47, -5.47057151794433593750e+00) (48, 4.43329662084579467773e-01) (49, -1.28017139434814453125e+00) (50, -1.33992183208465576172e+00) (51, 1.09550940990447998047e+00) (19, 3.00000000000000000000e+01) (20, -2.23651981353759765625e+00) (21, 3.00000000000000000000e+01) (22, 1.27883508801460266113e-01) (23, 1.40978968143463134766e+00) (24, 3.00000000000000000000e+01) (25, 4.55575418472290039062e+00) (26, 9.78955626487731933594e-01) (27, 1.77590930461883544922e+00) (28, 9.95031929016113281250e+00) (29, 2.60856590270996093750e+01) (30, -8.91028642654418945312e-02) (31, 7.92897760868072509766e-01) (32, 2.64768648147583007812e+00) (33, 2.60856590270996093750e+01) (34, 2.37982496619224548340e-01) (35, 2.60856590270996093750e+01) (36, 1.95264667272567749023e-01) (37, 8.12099397182464599609e-01) (38, 3.00000000000000000000e+01) (39, 2.60856590270996093750e+01) (40, 1.53758019208908081055e-01) (41, 6.85565322637557983398e-02) (42, 5.26140868663787841797e-01) (43, 1.57725656032562255859e+00) (44, 7.11071431636810302734e-01) (45, 3.20566177368164062500e-01) (46, 2.60856590270996093750e+01) (47, -1.49593687057495117188e+00) (48, -2.33256369829177856445e-01) (49, 8.61580789089202880859e-01) (50, 2.21651148796081542969e+00) (51, 1.08166590332984924316e-01) (19, 3.00000000000000000000e+01) (20, -2.16700839996337890625e+00) (21, 3.00000000000000000000e+01) (22, -3.10927033424377441406e-01) (23, 1.45951700210571289062e+00) (24, 3.00000000000000000000e+01) (25, 4.62324047088623046875e+00) (26, 1.13672840595245361328e+00) (27, 1.63975322246551513672e+00) (28, 9.95031929016113281250e+00) (29, 2.60856590270996093750e+01) (30, 1.38523685932159423828e+00) (31, 4.65105861425399780273e-01) (32, 2.67890882492065429688e+00) (33, 2.60856590270996093750e+01) (34, 1.28339603543281555176e-01) (35, 2.60856590270996093750e+01) (36, -8.24122548103332519531e-01) (37, 8.84971797466278076172e-01) (38, 3.00000000000000000000e+01) (39, 2.60856590270996093750e+01) (40, 1.42043635249137878418e-01) (41, 7.33716189861297607422e-02) (42, 3.25759857892990112305e-01) (43, 1.59853136539459228516e+00) (44, 7.88270294666290283203e-01) (45, 2.35760480165481567383e-01) (46, 2.60856590270996093750e+01) (47, -1.49593687057495117188e+00) (48, -1.94008097052574157715e-01) (49, 8.89319837093353271484e-01) (50, 2.15406036376953125000e+00) (51, 5.15068620443344116211e-02) (19, 3.00000000000000000000e+01) (20, -2.11260247230529785156e+00) (21, 3.00000000000000000000e+01) (22, -9.44162085652351379395e-02) (23, 1.35765993595123291016e+00) (24, 3.00000000000000000000e+01) (25, 4.40517950057983398438e+00) (26, 9.84209120273590087891e-01) (27, 1.81430327892303466797e+00) (28, 9.95031929016113281250e+00) (29, 2.60856590270996093750e+01) (30, -9.04360488057136535645e-02) (31, 7.98390209674835205078e-01) (32, 2.73499536514282226562e+00) (33, 2.60856590270996093750e+01) (34, 1.74808099865913391113e-01) (35, 2.60856590270996093750e+01) (36, -8.50806355476379394531e-01) (37, 8.31639528274536132812e-01) (38, 3.00000000000000000000e+01) (39, 2.60856590270996093750e+01) (40, 6.44403323531150817871e-02) (41, 8.60520452260971069336e-02) (42, 7.45283901691436767578e-01) (43, 1.62545895576477050781e+00) (44, 6.56017184257507324219e-01) (45, 2.81928062438964843750e-01) (46, 2.60856590270996093750e+01) (47, -1.49593687057495117188e+00) (48, -2.72109419107437133789e-01) (49, 7.41469085216522216797e-01) (50, 2.22723865509033203125e+00) (51, 8.61244127154350280762e-02) (19, 3.00000000000000000000e+01) (20, -2.09957981109619140625e+00) (21, 3.00000000000000000000e+01) (22, -2.41385847330093383789e-02) (23, 1.47444438934326171875e+00) (24, 3.00000000000000000000e+01) (25, 4.85534763336181640625e+00) (26, 9.63549315929412841797e-01) (27, 1.42544567584991455078e+00) (28, 9.95031929016113281250e+00) (29, 2.60856590270996093750e+01) (30, -2.43497118353843688965e-01) (31, 8.70398283004760742188e-01) (32, 2.65036988258361816406e+00) (33, 2.60856590270996093750e+01) (34, 2.20134213566780090332e-01) (35, 2.60856590270996093750e+01) (36, 2.44542926549911499023e-01) (37, 8.86288642883300781250e-01) (38, 3.00000000000000000000e+01) (39, 2.60856590270996093750e+01) (40, 1.55407041311264038086e-01) (41, -1.85195103287696838379e-01) (42, 2.17345386743545532227e-01) (43, 1.57274305820465087891e+00) (44, 4.84259814023971557617e-01) (45, 3.03420692682266235352e-01) (46, 2.60856590270996093750e+01) (47, -1.49593687057495117188e+00) (48, -3.16850155591964721680e-01) (49, 8.37602198123931884766e-01) (50, 2.29616761207580566406e+00) (51, -7.68690975382924079895e-03) (19, 3.00000000000000000000e+01) (20, -2.22346115112304687500e+00) (21, 3.00000000000000000000e+01) (22, -2.79971212148666381836e-01) (23, 1.13313066959381103516e+00) (24, 3.00000000000000000000e+01) (25, 4.70234441757202148438e+00) (26, 1.45834553241729736328e+00) (27, 1.75777184963226318359e+00) (28, 3.00000000000000000000e+01) (29, 2.60856590270996093750e+01) (30, 7.30512559413909912109e-01) (31, 5.61661779880523681641e-01) (32, 3.27317905426025390625e+00) (33, 2.60856590270996093750e+01) (34, 7.41749852895736694336e-02) (35, 2.60856590270996093750e+01) (36, -2.86161231994628906250e+00) (37, 1.39612543582916259766e+00) (38, 3.00000000000000000000e+01) (39, 2.60856590270996093750e+01) (40, -2.03652074560523033142e-03) (41, -5.44813908636569976807e-02) (42, 3.83401304483413696289e-01) (43, 1.45136690139770507812e+00) (44, 8.51129770278930664062e-01) (45, 1.41744360327720642090e-01) (46, 2.60856590270996093750e+01) (47, -5.00000000000000000000e+00) (48, -2.35884368419647216797e-01) (49, 7.65726149082183837891e-01) (50, 4.37041711807250976562e+00) (51, 4.13338467478752136230e-02) (19, -3.00000000000000000000e+01) (20, 5.15811729431152343750e+00) (21, 2.72467565536499023438e+00) (22, 6.82920551300048828125e+00) (23, -4.17546367645263671875e+00) (24, -5.27872228622436523438e+00) (25, 4.91896629333496093750e-01) (26, -1.16263437271118164062e+00) (27, -1.29790425300598144531e+00) (28, -2.71520347595214843750e+01) (29, -3.99590194225311279297e-01) (30, 2.10032320022583007812e+00) (31, -1.50534904003143310547e+00) (32, -3.78356909751892089844e+00) (33, -3.99590194225311279297e-01) (34, -1.11579716205596923828e+00) (35, -3.99590194225311279297e-01) (36, -4.81581020355224609375e+00) (37, -1.16835570335388183594e+00) (38, 5.31792879104614257812e+00) (39, -3.99590194225311279297e-01) (40, 4.26018476486206054688e-01) (41, 4.70936298370361328125e+00) (42, -1.23260629177093505859e+00) (43, -1.85380375385284423828e+00) (44, -3.30320239067077636719e-01) (45, -1.35735201835632324219e+00) (46, -3.99590194225311279297e-01) (47, -2.21189804077148437500e+01) (48, 6.90070438385009765625e+00) (49, -1.18791377544403076172e+00) (50, -1.52120482921600341797e+00) (51, 1.12384545803070068359e+00) (52, 2.02367186546325683594e-01) (53, -1.35168302059173583984e+00) (54, 2.32784867286682128906e-01) (55, 2.31152489781379699707e-01) (56, 2.79809057712554931641e-01) (57, 2.86425203084945678711e-01) (58, 2.71596819162368774414e-01) (59, -1.23946785926818847656e+00) (60, 1.49249345064163208008e-01) 
