FANN_FLO_2.1
num_layers=3
learning_rate=0.700000
connection_rate=1.000000
network_type=0
learning_momentum=0.000000
training_algorithm=2
train_error_function=1
train_stop_function=0
cascade_output_change_fraction=0.010000
quickprop_decay=-0.000100
quickprop_mu=1.750000
rprop_increase_factor=1.200000
rprop_decrease_factor=0.500000
rprop_delta_min=0.000000
rprop_delta_max=50.000000
rprop_delta_zero=0.100000
cascade_output_stagnation_epochs=12
cascade_candidate_change_fraction=0.010000
cascade_candidate_stagnation_epochs=12
cascade_max_out_epochs=150
cascade_min_out_epochs=50
cascade_max_cand_epochs=150
cascade_min_cand_epochs=50
cascade_num_candidate_groups=2
bit_fail_limit=3.49999994039535522461e-01
cascade_candidate_limit=1.00000000000000000000e+03
cascade_weight_multiplier=4.00000005960464477539e-01
cascade_activation_functions_count=10
cascade_activation_functions=3 5 7 8 10 11 14 15 16 17 
cascade_activation_steepnesses_count=4
cascade_activation_steepnesses=2.50000000000000000000e-01 5.00000000000000000000e-01 7.50000000000000000000e-01 1.00000000000000000000e+00 
layer_sizes=19 17 3 
scale_included=0
neurons (num_inputs, activation_function, activation_steepness)=(0, 0, 0.00000000000000000000e+00) (0, 0, 0.00000000000000000000e+00) (0, 0, 0.00000000000000000000e+00) (0, 0, 0.00000000000000000000e+00) (0, 0, 0.00000000000000000000e+00) (0, 0, 0.00000000000000000000e+00) (0, 0, 0.00000000000000000000e+00) (0, 0, 0.00000000000000000000e+00) (0, 0, 0.00000000000000000000e+00) (0, 0, 0.00000000000000000000e+00) (0, 0, 0.00000000000000000000e+00) (0, 0, 0.00000000000000000000e+00) (0, 0, 0.00000000000000000000e+00) (0, 0, 0.00000000000000000000e+00) (0, 0, 0.00000000000000000000e+00) (0, 0, 0.00000000000000000000e+00) (0, 0, 0.00000000000000000000e+00) (0, 0, 0.00000000000000000000e+00) (0, 0, 0.00000000000000000000e+00) (19, 5, 5.00000000000000000000e-01) (19, 5, 5.00000000000000000000e-01) (19, 5, 5.00000000000000000000e-01) (19, 5, 5.00000000000000000000e-01) (19, 5, 5.00000000000000000000e-01) (19, 5, 5.00000000000000000000e-01) (19, 5, 5.00000000000000000000e-01) (19, 5, 5.00000000000000000000e-01) (19, 5, 5.00000000000000000000e-01) (19, 5, 5.00000000000000000000e-01) (19, 5, 5.00000000000000000000e-01) (19, 5, 5.00000000000000000000e-01) (19, 5, 5.00000000000000000000e-01) (19, 5, 5.00000000000000000000e-01) (19, 5, 5.00000000000000000000e-01) (19, 5, 5.00000000000000000000e-01) (0, 5, 0.00000000000000000000e+00) (17, 3, 5.00000000000000000000e-01) (17, 3, 5.00000000000000000000e-01) (0, 3, 0.00000000000000000000e+00) 
connections (connected_to_neuron, weight)=(0, 1.74512863159179687500e+00) (1, 3.12656015157699584961e-01) (2, 2.67157942056655883789e-01) (3, -3.44083690643310546875e+00) (4, 1.49997502565383911133e-01) (5, -6.02474808692932128906e-01) (6, 5.06166756153106689453e-01) (7, -5.36097824573516845703e-01) (8, 4.39808189868927001953e-01) (9, -8.74920189380645751953e-01) (10, -8.86849403381347656250e-01) (11, 5.72326540946960449219e-01) (12, 6.81333839893341064453e-01) (13, -7.45862483978271484375e-01) (14, -4.40526127815246582031e-01) (15, -5.49375832080841064453e-01) (16, 6.62899196147918701172e-01) (17, -5.84489107131958007812e-01) (18, -1.60298928618431091309e-01) (0, 1.38876605033874511719e+00) (1, -1.19509243965148925781e+00) (2, 2.55485105514526367188e+00) (3, 1.20167446136474609375e+00) (4, -1.45151841640472412109e+00) (5, 2.59843134880065917969e+00) (6, 1.30052411556243896484e+00) (7, -1.57444441318511962891e+00) (8, 2.53857970237731933594e+00) (9, -1.11659538745880126953e+00) (10, 1.44646036624908447266e+00) (11, -2.54900097846984863281e+00) (12, -1.15518808364868164062e+00) (13, 1.68275296688079833984e+00) (14, -2.64978480339050292969e+00) (15, -1.08409082889556884766e+00) (16, 1.58653759956359863281e+00) (17, -2.47475910186767578125e+00) (18, 1.73735690116882324219e+00) (0, 3.01092100143432617188e+00) (1, -2.81062483787536621094e-01) (2, 2.04192906618118286133e-01) (3, -1.51106905937194824219e+00) (4, -5.28924345970153808594e-01) (5, 6.84265255928039550781e-01) (6, 8.34168493747711181641e-02) (7, 1.17405271530151367188e+00) (8, -5.07544875144958496094e-01) (9, 3.56515431404113769531e+00) (10, 1.11346495151519775391e+00) (11, 1.78265586495399475098e-01) (12, 1.16164016723632812500e+00) (13, 7.32891678810119628906e-01) (14, -4.64065641164779663086e-01) (15, -4.31077909469604492188e+00) (16, -1.17921280860900878906e+00) (17, 8.57260346412658691406e-01) (18, 6.36343210935592651367e-02) (0, -3.48913121223449707031e+00) (1, 1.23661887645721435547e+00) (2, 2.80584275722503662109e-01) (3, -2.15830016136169433594e+00) (4, 6.19422972202301025391e-01) (5, 5.78718364238739013672e-01) (6, 6.06138038635253906250e+00) (7, -8.81093144416809082031e-01) (8, 2.19086334109306335449e-01) (9, 2.17242980003356933594e+00) (10, 5.53845614194869995117e-02) (11, -8.57950672507286071777e-02) (12, -1.11838579177856445312e+00) (13, -1.38141542673110961914e-01) (14, 3.86384367942810058594e-01) (15, -2.82299458980560302734e-01) (16, -2.43404328823089599609e-01) (17, 2.00988188385963439941e-01) (18, 7.38422214984893798828e-01) (0, -1.13433563709259033203e+00) (1, -4.08633279800415039062e+00) (2, -9.24169063568115234375e-01) (3, -3.94223809242248535156e-01) (4, 5.26306927204132080078e-01) (5, -1.03907607495784759521e-01) (6, 6.90396189689636230469e-01) (7, 3.00252079963684082031e+00) (8, 3.26057523488998413086e-02) (9, 2.82452195882797241211e-01) (10, -1.19900429248809814453e+00) (11, 1.06222756206989288330e-01) (12, -2.45411410927772521973e-01) (13, -1.19928233325481414795e-01) (14, 1.01535238325595855713e-01) (15, 4.82798404991626739502e-02) (16, 5.74640691280364990234e-01) (17, -1.03929355740547180176e-01) (18, -3.38950932025909423828e-01) (0, 3.85393738746643066406e-01) (1, 1.96630969643592834473e-01) (2, 3.55856060981750488281e+00) (3, 1.30199575424194335938e+00) (4, 3.32233756780624389648e-01) (5, -7.94609785079956054688e+00) (6, 1.27915725111961364746e-01) (7, 2.43805661797523498535e-01) (8, 4.76683092117309570312e+00) (9, 6.12974107265472412109e-01) (10, 4.71282631158828735352e-01) (11, -3.73389035463333129883e-01) (12, 3.56979787349700927734e-01) (13, 4.54056322574615478516e-01) (14, 1.53484702110290527344e+00) (15, -9.08956587314605712891e-01) (16, 5.98319590091705322266e-01) (17, -1.19439065456390380859e+00) (18, 8.98105859756469726562e-01) (0, 2.18331336975097656250e+00) (1, -6.94774389266967773438e-01) (2, 4.74845409393310546875e-01) (3, -1.09848427772521972656e+00) (4, 4.11644250154495239258e-01) (5, -4.79136228561401367188e-01) (6, 1.30603283643722534180e-01) (7, 3.64343345165252685547e-01) (8, -4.79177534580230712891e-02) (9, -8.42427730560302734375e-01) (10, 8.06948065757751464844e-01) (11, -2.48466804623603820801e-01) (12, -1.54853630065917968750e+00) (13, 2.46894434094429016113e-01) (14, -6.56081736087799072266e-01) (15, 2.87737727165222167969e+00) (16, -1.14764176309108734131e-01) (17, 1.44748616218566894531e+00) (18, 1.17026314139366149902e-01) (0, 6.65812134742736816406e-01) (1, 5.72393238544464111328e-01) (2, 8.29099059104919433594e-01) (3, 7.05993235111236572266e-01) (4, -3.40040624141693115234e-01) (5, 3.23169022798538208008e-01) (6, 2.80814915895462036133e-01) (7, 8.56387972831726074219e-01) (8, -1.90758332610130310059e-01) (9, 4.37985360622406005859e-01) (10, 8.69810059666633605957e-02) (11, 3.31284713745117187500e+00) (12, -5.08531093597412109375e-01) (13, 4.47765678167343139648e-01) (14, -1.45919173955917358398e-01) (15, 3.63660693168640136719e-01) (16, -4.15920391678810119629e-02) (17, -3.15157341957092285156e+00) (18, 5.10918319225311279297e-01) (0, 1.24595260620117187500e+00) (1, 3.25104308128356933594e+00) (2, 7.48995125293731689453e-01) (3, 1.21873044967651367188e+00) (4, 2.91729450225830078125e+00) (5, 6.38169705867767333984e-01) (6, 1.42705607414245605469e+00) (7, 2.85368180274963378906e+00) (8, 7.81054496765136718750e-01) (9, -1.05088508129119873047e+00) (10, -3.10172724723815917969e+00) (11, -5.64586102962493896484e-01) (12, -1.11226701736450195312e+00) (13, -2.85866761207580566406e+00) (14, -6.48027241230010986328e-01) (15, -1.09439229965209960938e+00) (16, -2.83292770385742187500e+00) (17, -6.69009804725646972656e-01) (18, 1.71863687038421630859e+00) (0, 5.55052697658538818359e-01) (1, 1.12213325500488281250e+00) (2, 6.13253235816955566406e-01) (3, 1.36637330055236816406e-01) (4, -1.25119721889495849609e+00) (5, 3.62229108810424804688e-01) (6, 7.49223828315734863281e-02) (7, 5.84190428256988525391e-01) (8, 4.50515121221542358398e-01) (9, -2.95139253139495849609e-01) (10, -4.16314554214477539062e+00) (11, -4.89263266324996948242e-01) (12, 1.44668146967887878418e-01) (13, 3.20323371887207031250e+00) (14, -2.05051209777593612671e-02) (15, 1.24412819743156433105e-01) (16, 1.74979388713836669922e+00) (17, 2.92425364255905151367e-01) (18, 4.60463792085647583008e-01) (0, 5.59018135070800781250e-01) (1, -1.07696819305419921875e+00) (2, 3.95275622606277465820e-01) (3, 3.96059542894363403320e-01) (4, 2.63905167579650878906e+00) (5, 2.96009272336959838867e-01) (6, -2.23444908857345581055e-01) (7, -1.61819624900817871094e+00) (8, -3.04578300565481185913e-02) (9, 1.55134961009025573730e-01) (10, -3.52470695972442626953e-01) (11, 9.89326909184455871582e-02) (12, 4.50821280479431152344e-01) (13, 2.26523339748382568359e-01) (14, 4.99999791383743286133e-01) (15, 4.66663166880607604980e-02) (16, 2.19684138894081115723e-01) (17, -3.22190225124359130859e-01) (18, 1.99984240531921386719e+00) (0, 6.07277989387512207031e-01) (1, 5.75093865394592285156e-01) (2, -4.02520000934600830078e-01) (3, 9.44627761840820312500e-01) (4, -6.98125422000885009766e-01) (5, 2.90884315967559814453e-01) (6, 1.30598619580268859863e-01) (7, 3.54714274406433105469e-01) (8, -2.19763800501823425293e-01) (9, 1.33602604269981384277e-01) (10, -1.80582523345947265625e-01) (11, 1.53330907225608825684e-01) (12, 3.75545769929885864258e-01) (13, -3.58996367454528808594e+00) (14, 6.45223081111907958984e-01) (15, -3.33068668842315673828e-01) (16, 3.64852046966552734375e+00) (17, 5.07463552057743072510e-02) (18, 6.43020153045654296875e-01) (0, 1.16944909095764160156e+00) (1, 4.39643442630767822266e-01) (2, -5.56942939758300781250e+00) (3, -4.91732209920883178711e-02) (4, 6.54089525341987609863e-02) (5, 5.81690609455108642578e-01) (6, 1.78769081830978393555e-01) (7, -7.16822087764739990234e-01) (8, 4.70298671722412109375e+00) (9, 5.34418635070323944092e-02) (10, 9.31695699691772460938e-01) (11, 6.38905882835388183594e-01) (12, 3.09087753295898437500e-01) (13, 6.97635650634765625000e-01) (14, 3.64053666591644287109e-01) (15, 1.82105988264083862305e-01) (16, -1.34275003802031278610e-03) (17, -4.46129262447357177734e-01) (18, 8.16174030303955078125e-01) (0, -1.23559319972991943359e+00) (1, -1.28851473331451416016e-01) (2, 6.10968470573425292969e-01) (3, 2.12198138236999511719e-01) (4, -2.33998090028762817383e-01) (5, 3.02605718374252319336e-01) (6, 1.72656536102294921875e+00) (7, 1.10027658939361572266e+00) (8, -6.61558091640472412109e-01) (9, -4.92164230346679687500e+00) (10, 5.18267631530761718750e-01) (11, 1.76858913898468017578e+00) (12, 5.47179412841796875000e+00) (13, 5.82167983055114746094e-01) (14, -9.58595633506774902344e-01) (15, -3.13451021909713745117e-01) (16, -7.99137413501739501953e-01) (17, 6.94190502166748046875e-01) (18, 5.06250560283660888672e-01) (0, 2.44602298736572265625e+00) (1, -7.35761344432830810547e-01) (2, -2.01250362396240234375e+00) (3, 2.43791460990905761719e+00) (4, -9.14426505565643310547e-01) (5, -2.15589213371276855469e+00) (6, 2.29324078559875488281e+00) (7, -9.39219772815704345703e-01) (8, -1.93688476085662841797e+00) (9, -2.27021861076354980469e+00) (10, 1.01695597171783447266e+00) (11, 2.21363973617553710938e+00) (12, -2.28108668327331542969e+00) (13, 8.32041263580322265625e-01) (14, 2.21277976036071777344e+00) (15, -2.22724413871765136719e+00) (16, 9.82492148876190185547e-01) (17, 2.05407524108886718750e+00) (18, 1.79908978939056396484e+00) (0, 8.13068628311157226562e-01) (1, -9.73954647779464721680e-02) (2, 2.18493342399597167969e-01) (3, 8.97357583045959472656e-01) (4, 8.84368494153022766113e-02) (5, 3.02056580781936645508e-01) (6, 8.94950211048126220703e-01) (7, 2.02715396881103515625e-01) (8, 5.87173849344253540039e-02) (9, -1.19177174568176269531e+00) (10, -1.70072600245475769043e-01) (11, -4.00019407272338867188e-01) (12, -1.25069165229797363281e+00) (13, -2.30561047792434692383e-01) (14, -3.32358211278915405273e-01) (15, -1.01470255851745605469e+00) (16, -2.96020358800888061523e-01) (17, -3.23052436113357543945e-01) (18, 3.23592722415924072266e-02) (19, -9.56929922103881835938e-01) (20, -3.45306277275085449219e+00) (21, 8.53801608085632324219e-01) (22, 6.94763243198394775391e-01) (23, -1.01152002811431884766e+00) (24, 6.44594550132751464844e-01) (25, 1.00524330139160156250e+00) (26, 9.56576943397521972656e-01) (27, -3.33479070663452148438e+00) (28, 9.51799511909484863281e-01) (29, 2.46654176712036132812e+00) (30, 1.08968985080718994141e+00) (31, 7.55058884620666503906e-01) (32, 6.53994619846343994141e-01) (33, -3.43145632743835449219e+00) (34, 7.47466659545898437500e+00) (35, 2.05702066421508789062e+00) (19, 9.63633358478546142578e-01) (20, 3.44503808021545410156e+00) (21, -8.57215940952301025391e-01) (22, -6.94119811058044433594e-01) (23, 1.01466965675354003906e+00) (24, -6.40942335128784179688e-01) (25, -9.97842431068420410156e-01) (26, -9.45925354957580566406e-01) (27, 3.32475543022155761719e+00) (28, -9.55153226852416992188e-01) (29, -2.45705819129943847656e+00) (30, -1.08572721481323242188e+00) (31, -7.54260897636413574219e-01) (32, -6.60814583301544189453e-01) (33, 3.42311286926269531250e+00) (34, -7.45157098770141601562e+00) (35, -2.04218244552612304688e+00) 
