FANN_FLO_2.1
num_layers=4
learning_rate=0.700000
connection_rate=1.000000
network_type=0
learning_momentum=0.000000
training_algorithm=2
train_error_function=1
train_stop_function=0
cascade_output_change_fraction=0.010000
quickprop_decay=-0.000100
quickprop_mu=1.750000
rprop_increase_factor=1.200000
rprop_decrease_factor=0.500000
rprop_delta_min=0.000000
rprop_delta_max=50.000000
rprop_delta_zero=0.100000
cascade_output_stagnation_epochs=12
cascade_candidate_change_fraction=0.010000
cascade_candidate_stagnation_epochs=12
cascade_max_out_epochs=150
cascade_min_out_epochs=50
cascade_max_cand_epochs=150
cascade_min_cand_epochs=50
cascade_num_candidate_groups=2
bit_fail_limit=3.49999994039535522461e-01
cascade_candidate_limit=1.00000000000000000000e+03
cascade_weight_multiplier=4.00000005960464477539e-01
cascade_activation_functions_count=10
cascade_activation_functions=3 5 7 8 10 11 14 15 16 17 
cascade_activation_steepnesses_count=4
cascade_activation_steepnesses=2.50000000000000000000e-01 5.00000000000000000000e-01 7.50000000000000000000e-01 1.00000000000000000000e+00 
layer_sizes=2 5 5 3 
scale_included=0
neurons (num_inputs, activation_function, activation_steepness)=(0, 0, 0.00000000000000000000e+00) (0, 0, 0.00000000000000000000e+00) (2, 5, 5.00000000000000000000e-01) (2, 5, 5.00000000000000000000e-01) (2, 5, 5.00000000000000000000e-01) (2, 5, 5.00000000000000000000e-01) (0, 5, 0.00000000000000000000e+00) (5, 5, 5.00000000000000000000e-01) (5, 5, 5.00000000000000000000e-01) (5, 5, 5.00000000000000000000e-01) (5, 5, 5.00000000000000000000e-01) (0, 5, 0.00000000000000000000e+00) (5, 0, 5.00000000000000000000e-01) (5, 0, 5.00000000000000000000e-01) (0, 0, 0.00000000000000000000e+00) 
connections (connected_to_neuron, weight)=(0, -5.25688123703002929688e+00) (1, 1.26973330974578857422e+00) (0, 1.93156471252441406250e+01) (1, -8.94270598888397216797e-01) (0, -6.23507976531982421875e+00) (1, 1.52560532093048095703e+00) (0, 3.00000000000000000000e+01) (1, 1.39539408683776855469e+00) (2, 1.89505457878112792969e+00) (3, 3.45290690660476684570e-01) (4, 3.59918761253356933594e+00) (5, 4.21329557895660400391e-01) (6, 1.24514114856719970703e+00) (2, 1.01410448551177978516e+00) (3, -5.38444578647613525391e-01) (4, 2.02550125122070312500e+00) (5, -1.06071102619171142578e+00) (6, -2.55231499671936035156e-01) (2, 5.08202505111694335938e+00) (3, 2.33086967468261718750e+00) (4, 6.07971715927124023438e+00) (5, 1.41126751899719238281e+00) (6, 3.26980376243591308594e+00) (2, 1.29965901374816894531e+00) (3, -9.52190756797790527344e-01) (4, 2.12680315971374511719e+00) (5, -4.52364295721054077148e-01) (6, 1.27574837207794189453e+00) (7, -1.16347563266754150391e+00) (8, 1.65319716930389404297e+00) (9, -8.80139648914337158203e-01) (10, 1.74876943230628967285e-01) (11, 9.68667864799499511719e-01) (7, 5.30208885669708251953e-01) (8, -1.74024701118469238281e-01) (9, -1.78615197539329528809e-01) (10, 2.05377912521362304688e+00) (11, -1.80571213364601135254e-01) 
