FANN_FLO_2.1
num_layers=4
learning_rate=0.700000
connection_rate=1.000000
network_type=0
learning_momentum=0.000000
training_algorithm=2
train_error_function=1
train_stop_function=0
cascade_output_change_fraction=0.010000
quickprop_decay=-0.000100
quickprop_mu=1.750000
rprop_increase_factor=1.200000
rprop_decrease_factor=0.500000
rprop_delta_min=0.000000
rprop_delta_max=50.000000
rprop_delta_zero=0.100000
cascade_output_stagnation_epochs=12
cascade_candidate_change_fraction=0.010000
cascade_candidate_stagnation_epochs=12
cascade_max_out_epochs=150
cascade_min_out_epochs=50
cascade_max_cand_epochs=150
cascade_min_cand_epochs=50
cascade_num_candidate_groups=2
bit_fail_limit=3.49999994039535522461e-01
cascade_candidate_limit=1.00000000000000000000e+03
cascade_weight_multiplier=4.00000005960464477539e-01
cascade_activation_functions_count=10
cascade_activation_functions=3 5 7 8 10 11 14 15 16 17 
cascade_activation_steepnesses_count=4
cascade_activation_steepnesses=2.50000000000000000000e-01 5.00000000000000000000e-01 7.50000000000000000000e-01 1.00000000000000000000e+00 
layer_sizes=2 5 5 3 
scale_included=0
neurons (num_inputs, activation_function, activation_steepness)=(0, 0, 0.00000000000000000000e+00) (0, 0, 0.00000000000000000000e+00) (2, 5, 5.00000000000000000000e-01) (2, 5, 5.00000000000000000000e-01) (2, 5, 5.00000000000000000000e-01) (2, 5, 5.00000000000000000000e-01) (0, 5, 0.00000000000000000000e+00) (5, 5, 5.00000000000000000000e-01) (5, 5, 5.00000000000000000000e-01) (5, 5, 5.00000000000000000000e-01) (5, 5, 5.00000000000000000000e-01) (0, 5, 0.00000000000000000000e+00) (5, 0, 5.00000000000000000000e-01) (5, 0, 5.00000000000000000000e-01) (0, 0, 0.00000000000000000000e+00) 
connections (connected_to_neuron, weight)=(0, -7.40967154502868652344e-01) (1, 6.48020625114440917969e-01) (0, -1.22267484664916992188e+01) (1, 1.06093831360340118408e-01) (0, 3.17242431640625000000e+00) (1, -6.39642000198364257812e-01) (0, 2.25611186027526855469e+00) (1, -6.39200747013092041016e-01) (2, -1.15844285488128662109e+00) (3, -1.22508144378662109375e+00) (4, 6.19427502155303955078e-01) (5, 9.74056339263916015625e+00) (6, 3.76059472560882568359e-01) (2, 7.89681732654571533203e-01) (3, 1.87268093228340148926e-01) (4, -4.59175157546997070312e+00) (5, -1.24792718887329101562e+01) (6, 1.20488262176513671875e+00) (2, 3.04583144187927246094e+00) (3, -1.88991591334342956543e-01) (4, -1.49459195137023925781e+00) (5, -1.30789918899536132812e+01) (6, 2.38146638870239257812e+00) (2, 3.88818949460983276367e-01) (3, -2.65312719345092773438e+00) (4, -2.53258204460144042969e+00) (5, 8.34760284423828125000e+00) (6, 8.91147673130035400391e-01) (7, -5.36301255226135253906e-01) (8, -3.55827957391738891602e-01) (9, -1.34491097927093505859e+00) (10, -1.12820732593536376953e+00) (11, 7.10551559925079345703e-01) (7, -1.33659422397613525391e+00) (8, 6.45772635936737060547e-01) (9, 2.67149001359939575195e-01) (10, 6.26831874251365661621e-02) (11, -1.17832906544208526611e-01) 
