FANN_FLO_2.1
num_layers=3
learning_rate=0.700000
connection_rate=1.000000
network_type=0
learning_momentum=0.000000
training_algorithm=2
train_error_function=1
train_stop_function=0
cascade_output_change_fraction=0.010000
quickprop_decay=-0.000100
quickprop_mu=1.750000
rprop_increase_factor=1.200000
rprop_decrease_factor=0.500000
rprop_delta_min=0.000000
rprop_delta_max=50.000000
rprop_delta_zero=0.100000
cascade_output_stagnation_epochs=12
cascade_candidate_change_fraction=0.010000
cascade_candidate_stagnation_epochs=12
cascade_max_out_epochs=150
cascade_min_out_epochs=50
cascade_max_cand_epochs=150
cascade_min_cand_epochs=50
cascade_num_candidate_groups=2
bit_fail_limit=3.49999994039535522461e-01
cascade_candidate_limit=1.00000000000000000000e+03
cascade_weight_multiplier=4.00000005960464477539e-01
cascade_activation_functions_count=10
cascade_activation_functions=3 5 7 8 10 11 14 15 16 17 
cascade_activation_steepnesses_count=4
cascade_activation_steepnesses=2.50000000000000000000e-01 5.00000000000000000000e-01 7.50000000000000000000e-01 1.00000000000000000000e+00 
layer_sizes=3 9 3 
scale_included=0
neurons (num_inputs, activation_function, activation_steepness)=(0, 0, 0.00000000000000000000e+00) (0, 0, 0.00000000000000000000e+00) (0, 0, 0.00000000000000000000e+00) (3, 3, 5.00000000000000000000e-01) (3, 3, 5.00000000000000000000e-01) (3, 3, 5.00000000000000000000e-01) (3, 3, 5.00000000000000000000e-01) (3, 3, 5.00000000000000000000e-01) (3, 3, 5.00000000000000000000e-01) (3, 3, 5.00000000000000000000e-01) (3, 3, 5.00000000000000000000e-01) (0, 3, 0.00000000000000000000e+00) (9, 0, 5.00000000000000000000e-01) (9, 0, 5.00000000000000000000e-01) (0, 0, 0.00000000000000000000e+00) 
connections (connected_to_neuron, weight)=(0, 8.34475457668304443359e-02) (1, 2.49023818969726562500e+00) (2, -1.00377678871154785156e+00) (0, -2.67866587638854980469e+00) (1, 3.64679741859436035156e+00) (2, 7.54029452800750732422e-01) (0, -3.26565480232238769531e+00) (1, 1.60879805684089660645e-01) (2, 4.62036848068237304688e-01) (0, 1.88982710242271423340e-02) (1, 3.94826626777648925781e+00) (2, -4.32118272781372070312e+00) (0, -6.65522575378417968750e+00) (1, 5.53762578964233398438e+00) (2, -2.05936980247497558594e+00) (0, -7.81079673767089843750e+00) (1, -3.00557661056518554688e+00) (2, 8.67812442779541015625e+00) (0, -2.65536379814147949219e+00) (1, -4.25759935379028320312e+00) (2, 2.83151888847351074219e+00) (0, -4.42824268341064453125e+00) (1, -2.89787507057189941406e+00) (2, -1.06413888931274414062e+00) (3, 2.51208114624023437500e+00) (4, 1.27214002609252929688e+00) (5, -3.08993250131607055664e-01) (6, 9.62571811676025390625e+00) (7, -3.13378274440765380859e-01) (8, -4.66227436065673828125e+00) (9, 4.39561271667480468750e+00) (10, 2.36698698997497558594e+00) (11, -6.69748038053512573242e-02) (3, -6.04077637195587158203e-01) (4, 2.55623281002044677734e-01) (5, 3.58694529533386230469e+00) (6, -1.92913341522216796875e+01) (7, 1.23762464523315429688e+00) (8, 8.18358898162841796875e+00) (9, -6.08724117279052734375e+00) (10, -9.56755757331848144531e-01) (11, -1.93506038188934326172e+00) 
