FANN_FLO_2.1
num_layers=3
learning_rate=0.700000
connection_rate=1.000000
network_type=0
learning_momentum=0.000000
training_algorithm=2
train_error_function=1
train_stop_function=0
cascade_output_change_fraction=0.010000
quickprop_decay=-0.000100
quickprop_mu=1.750000
rprop_increase_factor=1.200000
rprop_decrease_factor=0.500000
rprop_delta_min=0.000000
rprop_delta_max=50.000000
rprop_delta_zero=0.100000
cascade_output_stagnation_epochs=12
cascade_candidate_change_fraction=0.010000
cascade_candidate_stagnation_epochs=12
cascade_max_out_epochs=150
cascade_min_out_epochs=50
cascade_max_cand_epochs=150
cascade_min_cand_epochs=50
cascade_num_candidate_groups=2
bit_fail_limit=3.49999994039535522461e-01
cascade_candidate_limit=1.00000000000000000000e+03
cascade_weight_multiplier=4.00000005960464477539e-01
cascade_activation_functions_count=10
cascade_activation_functions=3 5 7 8 10 11 14 15 16 17 
cascade_activation_steepnesses_count=4
cascade_activation_steepnesses=2.50000000000000000000e-01 5.00000000000000000000e-01 7.50000000000000000000e-01 1.00000000000000000000e+00 
layer_sizes=65 17 65 
scale_included=0
neurons (num_inputs, activation_function, activation_steepness)=(0, 0, 0.00000000000000000000e+00) (0, 0, 0.00000000000000000000e+00) (0, 0, 0.00000000000000000000e+00) (0, 0, 0.00000000000000000000e+00) (0, 0, 0.00000000000000000000e+00) (0, 0, 0.00000000000000000000e+00) (0, 0, 0.00000000000000000000e+00) (0, 0, 0.00000000000000000000e+00) (0, 0, 0.00000000000000000000e+00) (0, 0, 0.00000000000000000000e+00) (0, 0, 0.00000000000000000000e+00) (0, 0, 0.00000000000000000000e+00) (0, 0, 0.00000000000000000000e+00) (0, 0, 0.00000000000000000000e+00) (0, 0, 0.00000000000000000000e+00) (0, 0, 0.00000000000000000000e+00) (0, 0, 0.00000000000000000000e+00) (0, 0, 0.00000000000000000000e+00) (0, 0, 0.00000000000000000000e+00) (0, 0, 0.00000000000000000000e+00) (0, 0, 0.00000000000000000000e+00) (0, 0, 0.00000000000000000000e+00) (0, 0, 0.00000000000000000000e+00) (0, 0, 0.00000000000000000000e+00) (0, 0, 0.00000000000000000000e+00) (0, 0, 0.00000000000000000000e+00) (0, 0, 0.00000000000000000000e+00) (0, 0, 0.00000000000000000000e+00) (0, 0, 0.00000000000000000000e+00) (0, 0, 0.00000000000000000000e+00) (0, 0, 0.00000000000000000000e+00) (0, 0, 0.00000000000000000000e+00) (0, 0, 0.00000000000000000000e+00) (0, 0, 0.00000000000000000000e+00) (0, 0, 0.00000000000000000000e+00) (0, 0, 0.00000000000000000000e+00) (0, 0, 0.00000000000000000000e+00) (0, 0, 0.00000000000000000000e+00) (0, 0, 0.00000000000000000000e+00) (0, 0, 0.00000000000000000000e+00) (0, 0, 0.00000000000000000000e+00) (0, 0, 0.00000000000000000000e+00) (0, 0, 0.00000000000000000000e+00) (0, 0, 0.00000000000000000000e+00) (0, 0, 0.00000000000000000000e+00) (0, 0, 0.00000000000000000000e+00) (0, 0, 0.00000000000000000000e+00) (0, 0, 0.00000000000000000000e+00) (0, 0, 0.00000000000000000000e+00) (0, 0, 0.00000000000000000000e+00) (0, 0, 0.00000000000000000000e+00) (0, 0, 0.00000000000000000000e+00) (0, 0, 0.00000000000000000000e+00) (0, 0, 0.00000000000000000000e+00) (0, 0, 0.00000000000000000000e+00) (0, 0, 0.00000000000000000000e+00) (0, 0, 0.00000000000000000000e+00) (0, 0, 0.00000000000000000000e+00) (0, 0, 0.00000000000000000000e+00) (0, 0, 0.00000000000000000000e+00) (0, 0, 0.00000000000000000000e+00) (0, 0, 0.00000000000000000000e+00) (0, 0, 0.00000000000000000000e+00) (0, 0, 0.00000000000000000000e+00) (0, 0, 0.00000000000000000000e+00) (65, 5, 5.00000000000000000000e-01) (65, 5, 5.00000000000000000000e-01) (65, 5, 5.00000000000000000000e-01) (65, 5, 5.00000000000000000000e-01) (65, 5, 5.00000000000000000000e-01) (65, 5, 5.00000000000000000000e-01) (65, 5, 5.00000000000000000000e-01) (65, 5, 5.00000000000000000000e-01) (65, 5, 5.00000000000000000000e-01) (65, 5, 5.00000000000000000000e-01) (65, 5, 5.00000000000000000000e-01) (65, 5, 5.00000000000000000000e-01) (65, 5, 5.00000000000000000000e-01) (65, 5, 5.00000000000000000000e-01) (65, 5, 5.00000000000000000000e-01) (65, 5, 5.00000000000000000000e-01) (0, 5, 0.00000000000000000000e+00) (17, 5, 5.00000000000000000000e-01) (17, 5, 5.00000000000000000000e-01) (17, 5, 5.00000000000000000000e-01) (17, 5, 5.00000000000000000000e-01) (17, 5, 5.00000000000000000000e-01) (17, 5, 5.00000000000000000000e-01) (17, 5, 5.00000000000000000000e-01) (17, 5, 5.00000000000000000000e-01) (17, 5, 5.00000000000000000000e-01) (17, 5, 5.00000000000000000000e-01) (17, 5, 5.00000000000000000000e-01) (17, 5, 5.00000000000000000000e-01) (17, 5, 5.00000000000000000000e-01) (17, 5, 5.00000000000000000000e-01) (17, 5, 5.00000000000000000000e-01) (17, 5, 5.00000000000000000000e-01) (17, 5, 5.00000000000000000000e-01) (17, 5, 5.00000000000000000000e-01) (17, 5, 5.00000000000000000000e-01) (17, 5, 5.00000000000000000000e-01) (17, 5, 5.00000000000000000000e-01) (17, 5, 5.00000000000000000000e-01) (17, 5, 5.00000000000000000000e-01) (17, 5, 5.00000000000000000000e-01) (17, 5, 5.00000000000000000000e-01) (17, 5, 5.00000000000000000000e-01) (17, 5, 5.00000000000000000000e-01) (17, 5, 5.00000000000000000000e-01) (17, 5, 5.00000000000000000000e-01) (17, 5, 5.00000000000000000000e-01) (17, 5, 5.00000000000000000000e-01) (17, 5, 5.00000000000000000000e-01) (17, 5, 5.00000000000000000000e-01) (17, 5, 5.00000000000000000000e-01) (17, 5, 5.00000000000000000000e-01) (17, 5, 5.00000000000000000000e-01) (17, 5, 5.00000000000000000000e-01) (17, 5, 5.00000000000000000000e-01) (17, 5, 5.00000000000000000000e-01) (17, 5, 5.00000000000000000000e-01) (17, 5, 5.00000000000000000000e-01) (17, 5, 5.00000000000000000000e-01) (17, 5, 5.00000000000000000000e-01) (17, 5, 5.00000000000000000000e-01) (17, 5, 5.00000000000000000000e-01) (17, 5, 5.00000000000000000000e-01) (17, 5, 5.00000000000000000000e-01) (17, 5, 5.00000000000000000000e-01) (17, 5, 5.00000000000000000000e-01) (17, 5, 5.00000000000000000000e-01) (17, 5, 5.00000000000000000000e-01) (17, 5, 5.00000000000000000000e-01) (17, 5, 5.00000000000000000000e-01) (17, 5, 5.00000000000000000000e-01) (17, 5, 5.00000000000000000000e-01) (17, 5, 5.00000000000000000000e-01) (17, 5, 5.00000000000000000000e-01) (17, 5, 5.00000000000000000000e-01) (17, 5, 5.00000000000000000000e-01) (17, 5, 5.00000000000000000000e-01) (17, 5, 5.00000000000000000000e-01) (17, 5, 5.00000000000000000000e-01) (17, 5, 5.00000000000000000000e-01) (17, 5, 5.00000000000000000000e-01) (0, 5, 0.00000000000000000000e+00) 
connections (connected_to_neuron, weight)=(0, 6.82212933897972106934e-02) (1, 1.26923754811286926270e-01) (2, 1.41308933496475219727e-01) (3, 1.20047591626644134521e-01) (4, 9.50708612799644470215e-02) (5, 9.65776368975639343262e-02) (6, 8.57132002711296081543e-02) (7, 5.52867054939270019531e-02) (8, 9.83847975730895996094e-02) (9, 1.31802856922149658203e-01) (10, 1.68361723423004150391e-01) (11, 1.53946056962013244629e-01) (12, 1.53228268027305603027e-01) (13, 1.68687775731086730957e-01) (14, 1.38274520635604858398e-01) (15, 1.01936750113964080811e-01) (16, 7.76984468102455139160e-02) (17, 9.97195541858673095703e-02) (18, 1.34925663471221923828e-01) (19, 1.56723514199256896973e-01) (20, 2.06627279520034790039e-01) (21, 2.17743217945098876953e-01) (22, 1.43929883837699890137e-01) (23, 9.42376852035522460938e-02) (24, 5.65226748585700988770e-02) (25, 5.09584210813045501709e-02) (26, 7.56713747978210449219e-02) (27, 1.29319548606872558594e-01) (28, 1.93011105060577392578e-01) (29, 1.77270278334617614746e-01) (30, 1.07841461896896362305e-01) (31, 3.42982783913612365723e-02) (32, 1.21224574744701385498e-01) (33, 1.04765817523002624512e-01) (34, 8.86241123080253601074e-02) (35, 1.18448585271835327148e-01) (36, 1.53978809714317321777e-01) (37, 1.41727164387702941895e-01) (38, 7.36610963940620422363e-02) (39, 1.32291605696082115173e-02) (40, 2.57051676511764526367e-01) (41, 2.16912999749183654785e-01) (42, 1.51258975267410278320e-01) (43, 1.36931762099266052246e-01) (44, 1.47139325737953186035e-01) (45, 1.35301634669303894043e-01) (46, 1.05733744800090789795e-01) (47, 8.39886739850044250488e-02) (48, 2.49577507376670837402e-01) (49, 1.80686518549919128418e-01) (50, 1.00916080176830291748e-01) (51, 7.77723714709281921387e-02) (52, 7.35028386116027832031e-02) (53, 1.11070588231086730957e-01) (54, 1.50293767452239990234e-01) (55, 1.67190387845039367676e-01) (56, 8.89545530080795288086e-02) (57, 3.28921042382717132568e-02) (58, -5.09966798126697540283e-02) (59, -6.52005150914192199707e-02) (60, -4.28213141858577728271e-02) (61, 3.65056172013282775879e-02) (62, 1.36399179697036743164e-01) (63, 1.98263302445411682129e-01) (64, 1.54174357652664184570e-01) (0, 7.85628259181976318359e-02) (1, 8.43242853879928588867e-02) (2, 7.37409964203834533691e-02) (3, 3.60962711274623870850e-02) (4, -1.11862514168024063110e-02) (5, -2.06228774040937423706e-02) (6, 2.92198471724987030029e-02) (7, 8.05060043931007385254e-02) (8, 1.79285690188407897949e-01) (9, 1.74789860844612121582e-01) (10, 1.63904845714569091797e-01) (11, 1.12464763224124908447e-01) (12, 5.22317886352539062500e-02) (13, 1.77080444991588592529e-02) (14, 3.26354391872882843018e-02) (15, 5.64300678670406341553e-02) (16, 2.10446968674659729004e-01) (17, 2.02586859464645385742e-01) (18, 1.90099209547042846680e-01) (19, 1.51775702834129333496e-01) (20, 1.01612500846385955811e-01) (21, 4.47228327393531799316e-02) (22, 1.18436058983206748962e-02) (23, 5.63132110983133316040e-03) (24, 1.03060409426689147949e-01) (25, 8.73670727014541625977e-02) (26, 8.68151858448982238770e-02) (27, 8.99179354310035705566e-02) (28, 7.84495100378990173340e-02) (29, 3.37111428380012512207e-02) (30, -1.07650738209486007690e-02) (31, -3.80805768072605133057e-02) (32, -3.78152690827846527100e-02) (33, -6.00251108407974243164e-02) (34, -5.69351203739643096924e-02) (35, -2.03787144273519515991e-02) (36, 2.31601074337959289551e-02) (37, 2.84893065690994262695e-02) (38, -5.09970914572477340698e-03) (39, -2.85688564181327819824e-02) (40, -2.31823734939098358154e-02) (41, -6.75957575440406799316e-02) (42, -1.02391116321086883545e-01) (43, -7.28812366724014282227e-02) (44, -6.84005615767091512680e-04) (45, 3.73660810291767120361e-02) (46, 4.04898002743721008301e-02) (47, 2.76798792183399200439e-02) (48, 1.54405146837234497070e-01) (49, 6.21986091136932373047e-02) (50, -3.28538790345191955566e-02) (51, -4.72130402922630310059e-02) (52, -2.88853375241160392761e-03) (53, 4.99900989234447479248e-02) (54, 7.39548057317733764648e-02) (55, 6.56619966030120849609e-02) (56, 3.12407910823822021484e-01) (57, 1.95251971483230590820e-01) (58, 4.51740659773349761963e-02) (59, -1.52503661811351776123e-02) (60, 3.08507774025201797485e-03) (61, 4.75289449095726013184e-02) (62, 7.14874044060707092285e-02) (63, 7.01061189174652099609e-02) (64, -3.91369372606277465820e-01) (0, -1.95149034261703491211e-02) (1, -7.71941244602203369141e-02) (2, -1.07503302395343780518e-01) (3, -5.20972982048988342285e-02) (4, 5.80102987587451934814e-02) (5, 1.40086904168128967285e-01) (6, 1.52889117598533630371e-01) (7, 1.18091471493244171143e-01) (8, -5.33704413101077079773e-03) (9, -6.93063139915466308594e-02) (10, -1.07083752751350402832e-01) (11, -8.44555273652076721191e-02) (12, -5.81972161307930946350e-03) (13, 5.04038259387016296387e-02) (14, 3.95460873842239379883e-02) (15, -8.97182151675224304199e-04) (16, 7.95150473713874816895e-02) (17, 1.26915574073791503906e-02) (18, -4.40430641174316406250e-02) (19, -4.07148823142051696777e-02) (20, 1.53535492718219757080e-02) (21, 4.57505993545055389404e-02) (22, 6.56592380255460739136e-03) (23, -2.95101087540388107300e-02) (24, 1.80250391364097595215e-01) (25, 1.20329067111015319824e-01) (26, 6.46045207977294921875e-02) (27, 7.11850896477699279785e-02) (28, 1.19744949042797088623e-01) (29, 1.41333609819412231445e-01) (30, 1.30294442176818847656e-01) (31, 1.07679016888141632080e-01) (32, 1.78163170814514160156e-01) (33, 1.46193414926528930664e-01) (34, 1.13110542297363281250e-01) (35, 1.19562447071075439453e-01) (36, 1.60205870866775512695e-01) (37, 1.98143318295478820801e-01) (38, 2.12325289845466613770e-01) (39, 2.13181659579277038574e-01) (40, 1.05204060673713684082e-01) (41, 1.04454495012760162354e-01) (42, 9.55588147044181823730e-02) (43, 1.03885471820831298828e-01) (44, 1.25267595052719116211e-01) (45, 1.40058785676956176758e-01) (46, 1.65499746799468994141e-01) (47, 1.82407587766647338867e-01) (48, 3.84100116789340972900e-02) (49, 5.70966936647891998291e-02) (50, 8.49160104990005493164e-02) (51, 1.03195056319236755371e-01) (52, 8.16157087683677673340e-02) (53, 8.12043100595474243164e-02) (54, 9.70015972852706909180e-02) (55, 1.09029255807399749756e-01) (56, -6.67391344904899597168e-03) (57, 4.24280762672424316406e-02) (58, 8.98929014801979064941e-02) (59, 1.12701855599880218506e-01) (60, 8.06074514985084533691e-02) (61, 5.86127378046512603760e-02) (62, 6.36592507362365722656e-02) (63, 7.98647552728652954102e-02) (64, -2.10775539278984069824e-01) (0, 1.43049031496047973633e-01) (1, 2.48464763164520263672e-01) (2, 2.75092840194702148438e-01) (3, 2.21754893660545349121e-01) (4, 1.61687821149826049805e-01) (5, 2.00906023383140563965e-01) (6, 2.76929527521133422852e-01) (7, 3.31933200359344482422e-01) (8, 9.54946950078010559082e-02) (9, 1.46223023533821105957e-01) (10, 1.81797429919242858887e-01) (11, 1.17529638111591339111e-01) (12, 6.87135308980941772461e-02) (13, 1.10505819320678710938e-01) (14, 1.51203066110610961914e-01) (15, 1.87371090054512023926e-01) (16, 6.00974410772323608398e-02) (17, 8.25609564781188964844e-02) (18, 1.00395984947681427002e-01) (19, 6.48274049162864685059e-02) (20, 7.13660120964050292969e-02) (21, 9.35488194227218627930e-02) (22, 7.24634528160095214844e-02) (23, 7.91005492210388183594e-02) (24, 9.54964533448219299316e-02) (25, 8.96966233849525451660e-02) (26, 1.00940577685832977295e-01) (27, 1.06527045369148254395e-01) (28, 1.42870664596557617188e-01) (29, 1.35667517781257629395e-01) (30, 1.11898787319660186768e-01) (31, 8.30185040831565856934e-02) (32, 1.49139836430549621582e-01) (33, 1.48061946034431457520e-01) (34, 1.24315291643142700195e-01) (35, 1.24156042933464050293e-01) (36, 1.31287366151809692383e-01) (37, 1.23929098248481750488e-01) (38, 9.28311944007873535156e-02) (39, 5.99349141120910644531e-02) (40, 2.23081246018409729004e-01) (41, 2.04897165298461914062e-01) (42, 1.44373953342437744141e-01) (43, 1.07178054749965667725e-01) (44, 8.82529839873313903809e-02) (45, 5.76319508254528045654e-02) (46, 2.57941186428070068359e-02) (47, 1.16248019039630889893e-02) (48, 2.35739931464195251465e-01) (49, 1.93427681922912597656e-01) (50, 1.38922110199928283691e-01) (51, 1.14723645150661468506e-01) (52, 7.57452473044395446777e-02) (53, 6.89855515956878662109e-02) (54, 5.83458207547664642334e-02) (55, 4.00190502405166625977e-02) (56, 1.58831909298896789551e-01) (57, 1.39546260237693786621e-01) (58, 9.77966412901878356934e-02) (59, 1.04249224066734313965e-01) (60, 9.32222083210945129395e-02) (61, 1.12241975963115692139e-01) (62, 1.28838017582893371582e-01) (63, 1.35321021080017089844e-01) (64, -1.12651124596595764160e-01) (0, 5.35652413964271545410e-02) (1, 7.34833031892776489258e-02) (2, 1.01035349071025848389e-01) (3, 8.25361013412475585938e-02) (4, 3.83793376386165618896e-02) (5, 1.88731718808412551880e-02) (6, 8.47545266151428222656e-02) (7, 1.55984371900558471680e-01) (8, 1.07817389070987701416e-01) (9, 1.28674283623695373535e-01) (10, 1.42748326063156127930e-01) (11, 1.19975693523883819580e-01) (12, 8.04408490657806396484e-02) (13, 6.37539923191070556641e-02) (14, 1.21436357498168945312e-01) (15, 1.83632463216781616211e-01) (16, 7.65877217054367065430e-02) (17, 8.26183557510375976562e-02) (18, 8.06130990386009216309e-02) (19, 5.50398789346218109131e-02) (20, 2.01597698032855987549e-02) (21, 6.64299214258790016174e-03) (22, 3.38043235242366790771e-02) (23, 7.29201212525367736816e-02) (24, -2.34217792749404907227e-02) (25, -4.72496002912521362305e-02) (26, -6.92054852843284606934e-02) (27, -7.61085450649261474609e-02) (28, -9.26198512315750122070e-02) (29, -1.13568611443042755127e-01) (30, -1.29479929804801940918e-01) (31, -1.27894669771194458008e-01) (32, -5.24187125265598297119e-02) (33, -9.71269235014915466309e-02) (34, -1.18674725294113159180e-01) (35, -9.52641144394874572754e-02) (36, -6.68091177940368652344e-02) (37, -8.33622664213180541992e-02) (38, -1.44914761185646057129e-01) (39, -1.82923406362533569336e-01) (40, 1.11619839444756507874e-02) (41, -4.40511740744113922119e-02) (42, -6.41243681311607360840e-02) (43, -2.39416933618485927582e-03) (44, 8.20438712835311889648e-02) (45, 8.40555354952812194824e-02) (46, 2.28421632200479507446e-02) (47, -4.14502657949924468994e-02) (48, 4.49418798089027404785e-02) (49, -2.16764751821756362915e-02) (50, -4.11114133894443511963e-02) (51, 4.38026152551174163818e-02) (52, 1.60235583782196044922e-01) (53, 1.94543838500976562500e-01) (54, 1.49252131581306457520e-01) (55, 8.70376825332641601562e-02) (56, 2.52996254712343215942e-02) (57, -4.24060150980949401855e-02) (58, -7.58742094039916992188e-02) (59, 1.32021903991699218750e-02) (60, 1.42949610948562622070e-01) (61, 2.01439529657363891602e-01) (62, 1.70524761080741882324e-01) (63, 1.15232273936271667480e-01) (64, 6.28377795219421386719e-02) (0, 2.06861451268196105957e-01) (1, 1.32592141628265380859e-01) (2, 4.08220142126083374023e-02) (3, -1.00785745307803153992e-02) (4, -3.61292585730552673340e-02) (5, -8.75813663005828857422e-02) (6, -1.83339461684226989746e-01) (7, -2.66610175371170043945e-01) (8, 1.44117876887321472168e-01) (9, 7.17253834009170532227e-02) (10, -3.08147491887211799622e-03) (11, -2.57846917957067489624e-02) (12, -1.13562615588307380676e-02) (13, -2.03499402850866317749e-02) (14, -8.41207355260848999023e-02) (15, -1.45986825227737426758e-01) (16, 2.26429421454668045044e-02) (17, -4.66075204312801361084e-02) (18, -9.98483523726463317871e-02) (19, -7.49764740467071533203e-02) (20, 1.27436202019453048706e-02) (21, 6.86224028468132019043e-02) (22, 5.52939921617507934570e-02) (23, 2.03314311802387237549e-02) (24, -5.70719130337238311768e-02) (25, -1.25148624181747436523e-01) (26, -1.65659993886947631836e-01) (27, -1.00877203047275543213e-01) (28, 4.01985011994838714600e-02) (29, 1.52190923690795898438e-01) (30, 1.80193290114402770996e-01) (31, 1.57833233475685119629e-01) (32, -1.70691683888435363770e-02) (33, -8.60550403594970703125e-02) (34, -1.28527224063873291016e-01) (35, -5.63289485871791839600e-02) (36, 9.95201244950294494629e-02) (37, 2.26412937045097351074e-01) (38, 2.52392053604125976562e-01) (39, 2.20457300543785095215e-01) (40, 4.69441376626491546631e-02) (41, -2.38117147237062454224e-02) (42, -7.02448114752769470215e-02) (43, -2.93510057963430881500e-03) (44, 1.38024136424064636230e-01) (45, 2.34642818570137023926e-01) (46, 2.18655899167060852051e-01) (47, 1.57803252339363098145e-01) (48, -3.15360701642930507660e-03) (49, -6.99156746268272399902e-02) (50, -1.11160278320312500000e-01) (51, -3.93299646675586700439e-02) (52, 8.28362628817558288574e-02) (53, 1.38423204421997070312e-01) (54, 6.59139528870582580566e-02) (55, -2.85786222666501998901e-02) (56, -1.21862985193729400635e-01) (57, -1.81483492255210876465e-01) (58, -2.02736258506774902344e-01) (59, -1.25670999288558959961e-01) (60, -5.61983231455087661743e-03) (61, 1.89197827130556106567e-02) (62, -8.36890339851379394531e-02) (63, -2.05775991082191467285e-01) (64, -2.57461834698915481567e-02) (0, 1.08754739165306091309e-01) (1, 9.69430878758430480957e-02) (2, 7.07902833819389343262e-02) (3, 1.15336284041404724121e-01) (4, 2.00652077794075012207e-01) (5, 2.51190364360809326172e-01) (6, 1.78599521517753601074e-01) (7, 6.64214491844177246094e-02) (8, 1.39779001474380493164e-01) (9, 8.37378650903701782227e-02) (10, 5.27676567435264587402e-02) (11, 7.06163570284843444824e-02) (12, 1.54275462031364440918e-01) (13, 2.06899613142013549805e-01) (14, 1.15857355296611785889e-01) (15, -1.29616970662027597427e-03) (16, 1.55626758933067321777e-01) (17, 8.18456336855888366699e-02) (18, 2.85857561975717544556e-02) (19, 5.71436807513236999512e-02) (20, 1.74021303653717041016e-01) (21, 2.16491892933845520020e-01) (22, 8.38318988680839538574e-02) (23, -3.52479405701160430908e-02) (24, 1.60460025072097778320e-01) (25, 8.10063257813453674316e-02) (26, 3.55313345789909362793e-02) (27, 9.92644429206848144531e-02) (28, 2.31768801808357238770e-01) (29, 2.50352531671524047852e-01) (30, 1.43790438771247863770e-01) (31, 1.46721377968788146973e-02) (32, 1.52655810117721557617e-01) (33, 1.05763435363769531250e-01) (34, 7.51240402460098266602e-02) (35, 1.42379179596900939941e-01) (36, 2.42791071534156799316e-01) (37, 2.53980726003646850586e-01) (38, 1.48967996239662170410e-01) (39, 2.93079838156700134277e-02) (40, 1.60683676600456237793e-01) (41, 1.46531268954277038574e-01) (42, 1.34343132376670837402e-01) (43, 1.85912728309631347656e-01) (44, 2.43506923317909240723e-01) (45, 2.04788446426391601562e-01) (46, 8.40155184268951416016e-02) (47, -2.09884643554687500000e-02) (48, 1.08560651540756225586e-01) (49, 1.13491974771022796631e-01) (50, 1.47547706961631774902e-01) (51, 2.23655819892883300781e-01) (52, 2.29294776916503906250e-01) (53, 1.74224004149436950684e-01) (54, 4.96486276388168334961e-02) (55, -6.31434544920921325684e-02) (56, -1.58523786813020706177e-02) (57, 3.47848981618881225586e-02) (58, 1.05051860213279724121e-01) (59, 2.04251274466514587402e-01) (60, 2.14726254343986511230e-01) (61, 1.53334230184555053711e-01) (62, 3.46364937722682952881e-02) (63, -6.31417855620384216309e-02) (64, 4.60386760532855987549e-02) (0, 1.22150510549545288086e-01) (1, 1.87474325299263000488e-01) (2, 1.92740410566329956055e-01) (3, 1.13083817064762115479e-01) (4, 3.48064973950386047363e-02) (5, 6.20683096349239349365e-02) (6, 1.72420904040336608887e-01) (7, 2.58291959762573242188e-01) (8, 1.06513231992721557617e-01) (9, 1.50397107005119323730e-01) (10, 1.57893478870391845703e-01) (11, 6.83326497673988342285e-02) (12, -3.20619670674204826355e-03) (13, 2.54439506679773330688e-02) (14, 1.21682383120059967041e-01) (15, 2.09272399544715881348e-01) (16, 7.33697786927223205566e-02) (17, 1.09412536025047302246e-01) (18, 1.11049048602581024170e-01) (19, 4.05305810272693634033e-02) (20, -1.32581610232591629028e-02) (21, 4.40665381029248237610e-03) (22, 6.98030441999435424805e-02) (23, 1.50669485330581665039e-01) (24, 4.28672581911087036133e-02) (25, 8.25258493423461914062e-02) (26, 1.05407305061817169189e-01) (27, 7.11802840232849121094e-02) (28, 2.56703235208988189697e-02) (29, 1.26891601830720901489e-02) (30, 6.72019496560096740723e-02) (31, 1.30426868796348571777e-01) (32, 3.65473236888647079468e-03) (33, 7.55260810256004333496e-02) (34, 1.28384277224540710449e-01) (35, 1.24902412295341491699e-01) (36, 6.55055791139602661133e-02) (37, 3.26262190937995910645e-02) (38, 6.08140416443347930908e-02) (39, 1.14140972495079040527e-01) (40, -4.57922965288162231445e-02) (41, 5.10738901793956756592e-02) (42, 1.38543143868446350098e-01) (43, 1.52544409036636352539e-01) (44, 8.67451876401901245117e-02) (45, 2.63464543968439102173e-02) (46, 4.76784184575080871582e-02) (47, 1.08372166752815246582e-01) (48, -1.54936835169792175293e-01) (49, -4.39068190753459930420e-02) (50, 8.54271352291107177734e-02) (51, 1.29259854555130004883e-01) (52, 5.83104304969310760498e-02) (53, 1.02365314960479736328e-02) (54, 5.62850534915924072266e-02) (55, 1.26451253890991210938e-01) (56, -2.89612472057342529297e-01) (57, -1.50396406650543212891e-01) (58, -2.17529037036001682281e-03) (59, 6.44611790776252746582e-02) (60, 8.29872488975524902344e-03) (61, -1.41238719224929809570e-02) (62, 6.25485852360725402832e-02) (63, 1.62546887993812561035e-01) (64, 1.78775370121002197266e-01) (0, -3.01491409540176391602e-01) (1, -2.09812119603157043457e-01) (2, -1.17393648251891136169e-02) (3, 1.11075371503829956055e-01) (4, 7.75214657187461853027e-02) (5, -9.14443284273147583008e-02) (6, -2.00722262263298034668e-01) (7, -2.29556128382682800293e-01) (8, -2.70622670650482177734e-01) (9, -1.34927421808242797852e-01) (10, 5.53402565419673919678e-02) (11, 1.98167875409126281738e-01) (12, 1.82539910078048706055e-01) (13, 4.76126447319984436035e-02) (14, -1.87531709671020507812e-02) (15, -3.38565297424793243408e-02) (16, -2.19957619905471801758e-01) (17, -1.04642912745475769043e-01) (18, 6.05008676648139953613e-02) (19, 1.71754837036132812500e-01) (20, 1.52991518378257751465e-01) (21, 8.06378573179244995117e-02) (22, 8.09697955846786499023e-02) (23, 9.70594435930252075195e-02) (24, -1.61379992961883544922e-01) (25, -1.03281944990158081055e-01) (26, -2.96088177710771560669e-02) (27, 1.59812103956937789917e-02) (28, -2.88231275044381618500e-03) (29, -1.71057321131229400635e-02) (30, 9.48799570323899388313e-05) (31, 3.10339462012052536011e-02) (32, -3.47737669944763183594e-02) (33, -6.50330930948257446289e-02) (34, -7.85155668854713439941e-02) (35, -8.48041102290153503418e-02) (36, -6.67968168854713439941e-02) (37, -5.31174652278423309326e-02) (38, -5.14273867011070251465e-02) (39, -4.40261363983154296875e-02) (40, 5.64162209630012512207e-02) (41, -2.74339299649000167847e-02) (42, -8.56470614671707153320e-02) (43, -8.40184390544891357422e-02) (44, -2.92984116822481155396e-02) (45, 3.54463746771216392517e-03) (46, -2.66022440046072006226e-02) (47, -8.30143913626670837402e-02) (48, 7.02458024024963378906e-02) (49, -2.19063982367515563965e-02) (50, -1.05209589004516601562e-01) (51, -9.95341911911964416504e-02) (52, -1.07944766059517860413e-02) (53, -5.73496613651514053345e-03) (54, -1.05393864214420318604e-01) (55, -2.17851266264915466309e-01) (56, 7.07639679312705993652e-02) (57, -3.77991572022438049316e-02) (58, -1.25006198883056640625e-01) (59, -1.15788884460926055908e-01) (60, -2.88724750280380249023e-02) (61, -6.15423582494258880615e-02) (62, -2.27045118808746337891e-01) (63, -3.95561069250106811523e-01) (64, -3.29368859529495239258e-02) (0, 9.81293320655822753906e-02) (1, -1.44015364348888397217e-02) (2, -1.30668252706527709961e-01) (3, -6.87426403164863586426e-02) (4, 1.31723046302795410156e-01) (5, 2.87627905607223510742e-01) (6, 2.45404183864593505859e-01) (7, 1.16536580026149749756e-01) (8, 1.30618780851364135742e-01) (9, -9.91427525877952575684e-03) (10, -1.27519860863685607910e-01) (11, -9.80347394943237304688e-02) (12, 6.63513094186782836914e-02) (13, 1.85281202197074890137e-01) (14, 1.06661275029182434082e-01) (15, -3.47553044557571411133e-02) (16, 1.76584810018539428711e-01) (17, 4.55310717225074768066e-02) (18, -6.91874027252197265625e-02) (19, -4.66871783137321472168e-02) (20, 9.31752398610115051270e-02) (21, 1.49446904659271240234e-01) (22, 1.22206164523959159851e-02) (23, -1.40909925103187561035e-01) (24, 2.12402090430259704590e-01) (25, 1.10748253762722015381e-01) (26, 3.44780497252941131592e-02) (27, 7.45267570018768310547e-02) (28, 1.83915197849273681641e-01) (29, 1.90013244748115539551e-01) (30, 6.03136420249938964844e-02) (31, -8.97332206368446350098e-02) (32, 1.78977429866790771484e-01) (33, 1.26489982008934020996e-01) (34, 8.50212350487709045410e-02) (35, 1.24936811625957489014e-01) (36, 1.89851805567741394043e-01) (37, 1.86593875288963317871e-01) (38, 9.51370373368263244629e-02) (39, -7.12475087493658065796e-03) (40, 1.38581812381744384766e-01) (41, 1.15422509610652923584e-01) (42, 8.04829150438308715820e-02) (43, 8.27756151556968688965e-02) (44, 9.84476804733276367188e-02) (45, 8.82036611437797546387e-02) (46, 5.82175068557262420654e-02) (47, 3.23140583932399749756e-02) (48, 1.07606709003448486328e-01) (49, 8.58031213283538818359e-02) (50, 5.06599992513656616211e-02) (51, 2.19421032816171646118e-02) (52, -1.88950002193450927734e-02) (53, -3.67500400170683860779e-03) (54, 4.56256680190563201904e-02) (55, 8.77186059951782226562e-02) (56, 6.77100569009780883789e-02) (57, 5.66154867410659790039e-02) (58, 1.22694866731762886047e-02) (59, -3.71121875941753387451e-02) (60, -9.14855003356933593750e-02) (61, -5.76815009117126464844e-02) (62, 4.72668521106243133545e-02) (63, 1.45709544420242309570e-01) (64, 1.80711463093757629395e-01) (0, -8.61570425331592559814e-03) (1, -5.27246855199337005615e-02) (2, -8.65765586495399475098e-02) (3, -7.41963386535644531250e-02) (4, -5.00528179109096527100e-02) (5, -5.82861267030239105225e-02) (6, -1.13369919359683990479e-01) (7, -1.51402801275253295898e-01) (8, 1.60922501236200332642e-02) (9, -3.35179977118968963623e-02) (10, -8.07045549154281616211e-02) (11, -6.97544738650321960449e-02) (12, -4.99840714037418365479e-02) (13, -5.03029637038707733154e-02) (14, -8.99693220853805541992e-02) (15, -1.22246399521827697754e-01) (16, 5.00914752483367919922e-02) (17, -7.44583224877715110779e-03) (18, -6.57610371708869934082e-02) (19, -8.01432803273200988770e-02) (20, -6.77807852625846862793e-02) (21, -5.84017001092433929443e-02) (22, -6.61336109042167663574e-02) (23, -8.58232304453849792480e-02) (24, 7.80989378690719604492e-02) (25, 1.90419126302003860474e-02) (26, -5.59199750423431396484e-02) (27, -9.89444777369499206543e-02) (28, -9.77783352136611938477e-02) (29, -7.23611861467361450195e-02) (30, -6.16384744644165039062e-02) (31, -6.64234235882759094238e-02) (32, 1.05565167963504791260e-01) (33, 4.44943644106388092041e-02) (34, -3.77337411046028137207e-02) (35, -9.57423150539398193359e-02) (36, -1.00934177637100219727e-01) (37, -7.50674083828926086426e-02) (38, -5.03124669194221496582e-02) (39, -5.18973730504512786865e-02) (40, 1.00270122289657592773e-01) (41, 4.91416640579700469971e-02) (42, -2.15440467000007629395e-02) (43, -7.53943100571632385254e-02) (44, -8.29852297902107238770e-02) (45, -5.95275349915027618408e-02) (46, -6.11342862248420715332e-02) (47, -7.68423303961753845215e-02) (48, 7.70637094974517822266e-02) (49, 4.37031984329223632812e-02) (50, -1.12801305949687957764e-02) (51, -5.42704276740550994873e-02) (52, -5.57764582335948944092e-02) (53, -6.16077519953250885010e-02) (54, -1.08122237026691436768e-01) (55, -1.52269795536994934082e-01) (56, 6.72080069780349731445e-02) (57, 3.51403914391994476318e-02) (58, 7.28217710275202989578e-04) (59, -3.24069224298000335693e-02) (60, -3.57622839510440826416e-02) (61, -6.91446661949157714844e-02) (62, -1.51566818356513977051e-01) (63, -2.27440595626831054688e-01) (64, 4.69283089041709899902e-02) (0, 1.60243526101112365723e-01) (1, 1.55054911971092224121e-01) (2, 1.08685769140720367432e-01) (3, 5.15265166759490966797e-02) (4, 4.34477403759956359863e-02) (5, 1.17735527455806732178e-01) (6, 2.06958755850791931152e-01) (7, 2.57771492004394531250e-01) (8, 6.40805736184120178223e-02) (9, 5.97814805805683135986e-02) (10, 2.62126494199037551880e-02) (11, -4.15164008736610412598e-02) (12, -7.02696815133094787598e-02) (13, -2.92327720671892166138e-02) (14, 3.05908396840095520020e-02) (15, 7.23549425601959228516e-02) (16, -2.85943467170000076294e-02) (17, -1.31399487145245075226e-03) (18, -2.62787356041371822357e-03) (19, -5.29856458306312561035e-02) (20, -1.08794935047626495361e-01) (21, -1.16755500435829162598e-01) (22, -1.05139486491680145264e-01) (23, -7.84475058317184448242e-02) (24, -8.47753062844276428223e-02) (25, -3.72625538147985935211e-03) (26, 6.71054795384407043457e-02) (27, 5.23879975080490112305e-02) (28, -1.93930659443140029907e-02) (29, -8.08861404657363891602e-02) (30, -8.45006704330444335938e-02) (31, -5.69764897227287292480e-02) (32, -1.54848501086235046387e-01) (33, -7.51469610258936882019e-03) (34, 1.30831122398376464844e-01) (35, 1.53184235095977783203e-01) (36, 4.74431328475475311279e-02) (37, -4.10439074039459228516e-02) (38, -3.18643264472484588623e-02) (39, 1.98430512100458145142e-02) (40, -1.91409617662429809570e-01) (41, -8.78480821847915649414e-03) (42, 1.66333839297294616699e-01) (43, 1.76976367831230163574e-01) (44, 3.76745238900184631348e-02) (45, -6.54701516032218933105e-02) (46, -1.94754507392644882202e-02) (47, 8.62224102020263671875e-02) (48, -1.76220729947090148926e-01) (49, 1.02144684642553329468e-02) (50, 1.90981581807136535645e-01) (51, 1.76520079374313354492e-01) (52, -7.26471625966951251030e-05) (53, -9.06929075717926025391e-02) (54, 1.81686691939830780029e-02) (55, 1.74742445349693298340e-01) (56, -1.52075886726379394531e-01) (57, 3.94244641065597534180e-02) (58, 2.03097015619277954102e-01) (59, 1.69144645333290100098e-01) (60, -2.59368903934955596924e-02) (61, -9.41825211048126220703e-02) (62, 6.09608888626098632812e-02) (63, 2.67700940370559692383e-01) (64, -1.85242891311645507812e-01) (0, 3.31719033420085906982e-02) (1, 6.07544369995594024658e-03) (2, -2.09329538047313690186e-02) (3, -4.87696677446365356445e-02) (4, -4.43523079156875610352e-02) (5, 3.25298197567462921143e-02) (6, 1.96115463972091674805e-01) (7, 3.17737787961959838867e-01) (8, 8.32663923501968383789e-02) (9, 6.39107525348663330078e-02) (10, 4.90583591163158416748e-02) (11, 2.27812415687367320061e-04) (12, -2.66687143594026565552e-02) (13, 2.65856715850532054901e-03) (14, 1.04108728468418121338e-01) (15, 1.92428663372993469238e-01) (16, 1.07996225357055664062e-01) (17, 1.04501202702522277832e-01) (18, 1.03041306138038635254e-01) (19, 7.44641199707984924316e-02) (20, 3.99319902062416076660e-02) (21, 1.66806820780038833618e-02) (22, 2.14301552623510360718e-02) (23, 6.35878592729568481445e-02) (24, 6.19202665984630584717e-02) (25, 7.33605921268463134766e-02) (26, 1.10309399664402008057e-01) (27, 1.47308081388473510742e-01) (28, 1.45021229982376098633e-01) (29, 9.48055833578109741211e-02) (30, 6.13439045846462249756e-02) (31, 6.03838823735713958740e-02) (32, -2.74635702371597290039e-02) (33, 1.05416914448142051697e-02) (34, 9.14214849472045898438e-02) (35, 1.83621510863304138184e-01) (36, 2.24836334586143493652e-01) (37, 1.97411656379699707031e-01) (38, 1.39520660042762756348e-01) (39, 1.14625006914138793945e-01) (40, -3.63458395004272460938e-02) (41, 1.01466663181781768799e-02) (42, 9.19689387083053588867e-02) (43, 1.95626884698867797852e-01) (44, 2.53637492656707763672e-01) (45, 2.14840650558471679688e-01) (46, 1.60740926861763000488e-01) (47, 1.29598319530487060547e-01) (48, 3.99921871721744537354e-02) (49, 5.50883933901786804199e-02) (50, 1.13216862082481384277e-01) (51, 1.91478505730628967285e-01) (52, 1.96407839655876159668e-01) (53, 1.55648902058601379395e-01) (54, 1.05124071240425109863e-01) (55, 6.40700906515121459961e-02) (56, 9.39225330948829650879e-02) (57, 1.07424251735210418701e-01) (58, 1.23635537922382354736e-01) (59, 1.62297278642654418945e-01) (60, 1.36994183063507080078e-01) (61, 7.99270272254943847656e-02) (62, 2.65145897865295410156e-02) (63, -2.81336600892245769501e-04) (64, 1.06809422373771667480e-01) (0, 3.64558845758438110352e-02) (1, 1.05251282453536987305e-01) (2, 1.44578590989112854004e-01) (3, 1.02477364242076873779e-01) (4, 4.58982996642589569092e-02) (5, 2.54924949258565902710e-02) (6, 7.37063139677047729492e-02) (7, 1.05251841247081756592e-01) (8, 6.65908446535468101501e-03) (9, 6.76584169268608093262e-02) (10, 1.11238181591033935547e-01) (11, 8.31121504306793212891e-02) (12, 5.85675388574600219727e-02) (13, 6.56872615218162536621e-02) (14, 1.26909390091896057129e-01) (15, 1.66777387261390686035e-01) (16, -4.31840158998966217041e-02) (17, -1.13668956328183412552e-03) (18, 3.51067557930946350098e-02) (19, 3.85659597814083099365e-02) (20, 5.28423041105270385742e-02) (21, 8.92842262983322143555e-02) (22, 1.30966290831565856934e-01) (23, 1.67705595493316650391e-01) (24, -2.55594551563262939453e-02) (25, -1.63909979164600372314e-02) (26, -1.77400640677660703659e-03) (27, 2.57451813668012619019e-02) (28, 5.60881793498992919922e-02) (29, 6.91645964980125427246e-02) (30, 6.58426806330680847168e-02) (31, 6.41400665044784545898e-02) (32, 7.96260833740234375000e-02) (33, 6.05748668313026428223e-02) (34, 5.12441694736480712891e-02) (35, 7.72942528128623962402e-02) (36, 9.93952080607414245605e-02) (37, 7.09111541509628295898e-02) (38, -1.93767976015806198120e-02) (39, -7.69643262028694152832e-02) (40, 1.65626198053359985352e-01) (41, 1.24570526182651519775e-01) (42, 1.00742399692535400391e-01) (43, 1.32764950394630432129e-01) (44, 1.58944383263587951660e-01) (45, 8.52611586451530456543e-02) (46, -3.80740612745285034180e-02) (47, -1.36267408728599548340e-01) (48, 1.16006776690483093262e-01) (49, 6.62120431661605834961e-02) (50, 4.93867769837379455566e-02) (51, 1.06930240988731384277e-01) (52, 1.44774273037910461426e-01) (53, 9.44366976618766784668e-02) (54, -1.20892487466335296631e-02) (55, -1.06452628970146179199e-01) (56, -1.55327422544360160828e-03) (57, -3.72519232332706451416e-02) (58, -5.03622069954872131348e-02) (59, 3.05182468146085739136e-02) (60, 1.01148881018161773682e-01) (61, 8.89470949769020080566e-02) (62, 1.41726732254028320312e-02) (63, -5.53894601762294769287e-02) (64, -3.66350680589675903320e-01) (0, 4.99839447438716888428e-02) (1, -3.33902463316917419434e-02) (2, -1.03384129703044891357e-01) (3, -1.17699109017848968506e-01) (4, -1.03082343935966491699e-01) (5, -1.29768162965774536133e-01) (6, -2.09692239761352539062e-01) (7, -2.74881482124328613281e-01) (8, -3.17974239587783813477e-02) (9, -6.13484978675842285156e-02) (10, -8.49597528576850891113e-02) (11, -4.37581874430179595947e-02) (12, 1.58901407849043607712e-03) (13, -2.35266028903424739838e-03) (14, -5.77907189726829528809e-02) (15, -1.15243107080459594727e-01) (16, -7.00646117329597473145e-02) (17, -6.27171471714973449707e-02) (18, -3.52233499288558959961e-02) (19, 2.65484191477298736572e-02) (20, 7.09806159138679504395e-02) (21, 8.27159509062767028809e-02) (22, 7.54124373197555541992e-02) (23, 3.08212246745824813843e-02) (24, -5.81615269184112548828e-02) (25, -3.97509150207042694092e-02) (26, -2.48607415705919265747e-02) (27, -1.31946867331862449646e-02) (28, -8.49526375532150268555e-03) (29, 1.13959629088640213013e-02) (30, 1.25045012682676315308e-02) (31, -5.84106333553791046143e-03) (32, -5.05762025713920593262e-02) (33, -6.86483979225158691406e-02) (34, -1.03148810565471649170e-01) (35, -1.57225087285041809082e-01) (36, -1.81375011801719665527e-01) (37, -1.63332059979438781738e-01) (38, -1.32819667458534240723e-01) (39, -1.24318443238735198975e-01) (40, -1.02409258484840393066e-01) (41, -1.46657034754753112793e-01) (42, -2.10712194442749023438e-01) (43, -2.78811067342758178711e-01) (44, -2.93594151735305786133e-01) (45, -2.20976844429969787598e-01) (46, -1.49331480264663696289e-01) (47, -1.20081789791584014893e-01) (48, -1.44525393843650817871e-01) (49, -1.78750365972518920898e-01) (50, -2.38313555717468261719e-01) (51, -2.84720212221145629883e-01) (52, -2.13625237345695495605e-01) (53, -8.83947536349296569824e-02) (54, 2.25790478289127349854e-02) (55, 8.39642882347106933594e-02) (56, -1.27331987023353576660e-01) (57, -1.65885150432586669922e-01) (58, -1.98033645749092102051e-01) (59, -2.04215377569198608398e-01) (60, -8.51548910140991210938e-02) (61, 8.96573811769485473633e-02) (62, 2.31643706560134887695e-01) (63, 2.91353285312652587891e-01) (64, -5.89073151350021362305e-02) (0, -7.04141780734062194824e-02) (1, 2.32898890972137451172e-02) (2, 1.26662909984588623047e-01) (3, 1.12370863556861877441e-01) (4, 2.18676850199699401855e-02) (5, -3.60520854592323303223e-02) (6, 3.29333469271659851074e-02) (7, 1.11819766461849212646e-01) (8, -1.10983423888683319092e-01) (9, 1.44820110872387886047e-02) (10, 1.36722192168235778809e-01) (11, 1.22160360217094421387e-01) (12, 1.76614616066217422485e-02) (13, -7.68371671438217163086e-02) (14, -4.88684996962547302246e-02) (15, 7.58021138608455657959e-03) (16, -1.23275764286518096924e-01) (17, 2.38356925547122955322e-02) (18, 1.71092212200164794922e-01) (19, 1.82627618312835693359e-01) (20, 5.90208210051059722900e-02) (21, -7.13900253176689147949e-02) (22, -1.06624633073806762695e-01) (23, -8.29966664314270019531e-02) (24, -1.25204190611839294434e-01) (25, 3.56118083000183105469e-02) (26, 2.12874263525009155273e-01) (27, 2.64485538005828857422e-01) (28, 1.60569518804550170898e-01) (29, 8.15954152494668960571e-03) (30, -7.12081193923950195312e-02) (31, -7.55745247006416320801e-02) (32, -1.66882202029228210449e-01) (33, -1.08291329815983772278e-02) (34, 1.87377750873565673828e-01) (35, 2.79238283634185791016e-01) (36, 2.16815799474716186523e-01) (37, 8.47264304757118225098e-02) (38, -1.21678654104471206665e-02) (39, -2.57427599281072616577e-02) (40, -1.99156045913696289062e-01) (41, -6.87121897935867309570e-02) (42, 1.06921970844268798828e-01) (43, 2.05987215042114257812e-01) (44, 1.75805822014808654785e-01) (45, 7.63740539550781250000e-02) (46, 2.99342703074216842651e-02) (47, 3.21324132382869720459e-02) (48, -1.49986729025840759277e-01) (49, -6.46129623055458068848e-02) (50, 5.43167293071746826172e-02) (51, 1.14410273730754852295e-01) (52, 8.20780992507934570312e-02) (53, 2.97794137150049209595e-02) (54, 5.29241040349006652832e-02) (55, 9.68009158968925476074e-02) (56, -6.92261010408401489258e-02) (57, -1.16973053663969039917e-02) (58, 4.47671897709369659424e-02) (59, 6.47624507546424865723e-02) (60, 2.12299339473247528076e-02) (61, 7.60284950956702232361e-04) (62, 6.80123269557952880859e-02) (63, 1.55083730816841125488e-01) (64, 9.59864780306816101074e-02) (65, 4.98864836990833282471e-02) (66, 2.49638974666595458984e-01) (67, 3.46505373716354370117e-01) (68, -1.99847426265478134155e-02) (69, 2.58501712232828140259e-02) (70, 2.81673632562160491943e-02) (71, 3.90787534415721893311e-02) (72, 2.19423305243253707886e-02) (73, 1.29244446754455566406e-01) (74, -8.73879194259643554688e-02) (75, 1.36588901281356811523e-01) (76, 2.50054985284805297852e-01) (77, -5.12778870761394500732e-02) (78, 1.91653683781623840332e-01) (79, 9.97931212186813354492e-02) (80, -3.39755974709987640381e-02) (81, 1.46423622965812683105e-01) (65, 7.42485150694847106934e-02) (66, 3.78735691308975219727e-01) (67, 2.13386461138725280762e-01) (68, -5.43908029794692993164e-02) (69, -5.13284793123602867126e-03) (70, 2.87669934332370758057e-02) (71, 5.05705624818801879883e-02) (72, 4.87647801637649536133e-02) (73, 1.49636631831526756287e-02) (74, -7.70961046218872070312e-02) (75, 9.98104393482208251953e-01) (76, 3.05789798498153686523e-01) (77, -1.69614464044570922852e-01) (78, 3.35440129041671752930e-01) (79, 1.16752207279205322266e-01) (80, 2.32417657971382141113e-01) (81, 1.53229042887687683105e-01) (65, -3.75049293041229248047e-01) (66, 1.72768428921699523926e-01) (67, -2.91885614395141601562e-01) (68, 2.19433441758155822754e-01) (69, 1.89406778663396835327e-02) (70, 1.26876264810562133789e-01) (71, -3.12183238565921783447e-02) (72, 5.00203669071197509766e-01) (73, 3.95022183656692504883e-01) (74, 4.62464213371276855469e-01) (75, 1.31740793585777282715e-01) (76, 8.37896019220352172852e-02) (77, 4.35023941099643707275e-02) (78, -3.35940495133399963379e-02) (79, 1.39399379491806030273e-01) (80, -4.41610552370548248291e-02) (81, -3.18076200783252716064e-02) (65, -1.00179351866245269775e-01) (66, 5.79110309481620788574e-02) (67, 5.64221590757369995117e-02) (68, 1.59518465399742126465e-01) (69, 2.46963724493980407715e-01) (70, 4.20891530811786651611e-02) (71, 5.38048930466175079346e-02) (72, -2.73868381977081298828e-01) (73, 8.35757851600646972656e-02) (74, -7.02239871025085449219e-02) (75, -1.10816605389118194580e-01) (76, 3.63583922386169433594e-01) (77, -1.12043090164661407471e-01) (78, -4.95672633405774831772e-04) (79, 1.60781107842922210693e-02) (80, -1.22759602963924407959e-01) (81, 1.03870958089828491211e-01) (65, 1.46659081801772117615e-02) (66, 1.79673627018928527832e-01) (67, 2.53199458122253417969e-01) (68, -7.73809924721717834473e-02) (69, 1.96281328797340393066e-01) (70, 2.07385003566741943359e-01) (71, 8.00013989210128784180e-02) (72, 1.36488243937492370605e-01) (73, -1.51216834783554077148e-01) (74, -1.40081509947776794434e-01) (75, 2.89588719606399536133e-01) (76, 1.19060222059488296509e-02) (77, -2.80496060848236083984e-01) (78, -7.09787905216217041016e-02) (79, 1.09318636357784271240e-01) (80, 3.01373571157455444336e-01) (81, 3.26754860579967498779e-02) (65, 3.58246415853500366211e-02) (66, 2.21437931060791015625e-01) (67, 3.25897574424743652344e-01) (68, 7.43246600031852722168e-02) (69, 1.28018734976649284363e-02) (70, 8.00943970680236816406e-02) (71, -4.91688430309295654297e-01) (72, 9.77028757333755493164e-02) (73, -4.63638789951801300049e-02) (74, 6.98937326669692993164e-02) (75, 1.41514450311660766602e-01) (76, 8.77271592617034912109e-02) (77, 4.34123910963535308838e-02) (78, 2.18964353203773498535e-01) (79, 4.69331294298171997070e-02) (80, -2.85415709018707275391e-01) (81, 1.29205524921417236328e-01) (65, -1.65785968303680419922e-01) (66, -9.75851342082023620605e-03) (67, -2.77311522513628005981e-02) (68, 5.21209947764873504639e-02) (69, 1.50743871927261352539e-01) (70, 1.18691891431808471680e-01) (71, 7.31951668858528137207e-02) (72, -1.25382632017135620117e-01) (73, 1.88407264649868011475e-02) (74, 2.42288947105407714844e-01) (75, 5.66384457051753997803e-02) (76, -5.29202222824096679688e-02) (77, 2.17290781438350677490e-02) (78, 6.64057210087776184082e-02) (79, 8.02473202347755432129e-02) (80, 1.95896793156862258911e-02) (81, 1.35290180332958698273e-03) (65, -1.41814425587654113770e-01) (66, -1.47561967372894287109e-01) (67, -2.43478491902351379395e-01) (68, -5.28320074081420898438e-02) (69, -2.94749680906534194946e-02) (70, -2.60011572390794754028e-03) (71, 1.35775730013847351074e-01) (72, 1.34373784065246582031e-01) (73, -6.44052624702453613281e-02) (74, -3.10820844024419784546e-02) (75, 3.09342086315155029297e-01) (76, 5.03922179341316223145e-02) (77, 5.13861894607543945312e-01) (78, 1.21047459542751312256e-01) (79, 1.79194599390029907227e-01) (80, -1.09741628170013427734e-01) (81, -5.54072633385658264160e-02) (65, 1.45849194377660751343e-02) (66, 3.54409247636795043945e-01) (67, 6.47998228669166564941e-03) (68, -6.55082985758781433105e-02) (69, -3.10241609811782836914e-01) (70, 2.40923166275024414062e-01) (71, 3.17799113690853118896e-02) (72, -2.70778208971023559570e-01) (73, 1.20734088122844696045e-01) (74, -1.93982347846031188965e-01) (75, -2.18227311968803405762e-01) (76, 4.53686505556106567383e-01) (77, 7.12031964212656021118e-03) (78, 2.79783248901367187500e-01) (79, -2.52474169246852397919e-03) (80, -2.43759155273437500000e-01) (81, 2.25883305072784423828e-01) (65, -6.56831115484237670898e-02) (66, -2.73597896099090576172e-01) (67, 1.07752054929733276367e-01) (68, 3.45769762992858886719e-01) (69, 2.91211187839508056641e-01) (70, 2.97543197870254516602e-01) (71, -3.19417446851730346680e-01) (72, 1.83478370308876037598e-02) (73, 1.86924681067466735840e-01) (74, 2.90785402059555053711e-01) (75, 4.23645943403244018555e-01) (76, 1.83823853731155395508e-01) (77, -3.72507013380527496338e-02) (78, -7.79527127742767333984e-02) (79, -5.33706024289131164551e-02) (80, 2.16399475932121276855e-01) (81, -5.69410882890224456787e-02) (65, -4.57145243883132934570e-01) (66, 1.94845750927925109863e-01) (67, 2.82101988792419433594e-01) (68, 2.93017029762268066406e-01) (69, -9.24417898058891296387e-02) (70, 7.06768482923507690430e-02) (71, -4.35381904244422912598e-02) (72, -8.03247690200805664062e-02) (73, -1.52602903544902801514e-02) (74, 6.81790634989738464355e-02) (75, -7.68473222851753234863e-02) (76, 1.05340508744120597839e-02) (77, -2.36320152878761291504e-01) (78, 2.44379580020904541016e-01) (79, 1.01968809962272644043e-01) (80, 1.70054078102111816406e-01) (81, 1.76026627421379089355e-01) (65, 1.38256907463073730469e-01) (66, -7.16952905058860778809e-02) (67, 1.30610525608062744141e-01) (68, -9.10375174134969711304e-03) (69, -5.49068860709667205811e-02) (70, 3.46559174358844757080e-02) (71, -1.32645224221050739288e-03) (72, -1.04588858783245086670e-01) (73, 8.97287018597126007080e-03) (74, -1.32277816534042358398e-01) (75, 2.00868561863899230957e-01) (76, 2.48254179954528808594e-01) (77, -1.06350320857018232346e-03) (78, 4.18979287147521972656e-01) (79, 2.65150904655456542969e-01) (80, -3.69610600173473358154e-02) (81, 1.14323154091835021973e-01) (65, 1.04537509381771087646e-01) (66, -2.06642210483551025391e-01) (67, -4.22636806964874267578e-01) (68, 1.82326912879943847656e-01) (69, -2.10284832864999771118e-02) (70, 9.96026843786239624023e-02) (71, -2.15941160917282104492e-01) (72, -1.83805629611015319824e-01) (73, 2.86506563425064086914e-02) (74, 2.84871011972427368164e-01) (75, 2.30376169085502624512e-01) (76, 1.14306323230266571045e-01) (77, 5.54448664188385009766e-01) (78, -1.57707016915082931519e-02) (79, 2.39882037043571472168e-01) (80, 1.18234157562255859375e-01) (81, -1.08602851629257202148e-01) (65, 1.12122274935245513916e-01) (66, 2.24830359220504760742e-01) (67, 2.27718234062194824219e-01) (68, -3.11943560838699340820e-01) (69, -7.40540921688079833984e-02) (70, -5.05842501297593116760e-04) (71, 1.50037050247192382812e-01) (72, -9.13849286735057830811e-03) (73, 1.91526085138320922852e-01) (74, 2.01715379953384399414e-02) (75, 1.12139657139778137207e-01) (76, 5.55976986885070800781e-01) (77, -7.76940360665321350098e-02) (78, 1.49857655167579650879e-01) (79, 1.32991522550582885742e-01) (80, -2.07929253578186035156e-01) (81, 1.34321376681327819824e-01) (65, -8.68465304374694824219e-02) (66, 2.28309527039527893066e-01) (67, 3.56011748313903808594e-01) (68, -6.75664693117141723633e-02) (69, 1.13632246851921081543e-01) (70, 9.28186848759651184082e-02) (71, -1.16789147257804870605e-01) (72, 3.13989631831645965576e-03) (73, 2.29380905628204345703e-01) (74, 5.94863630831241607666e-02) (75, 2.65298336744308471680e-01) (76, 3.33831667900085449219e-01) (77, -1.91763713955879211426e-02) (78, 2.89520263671875000000e-01) (79, 1.35944709181785583496e-01) (80, 1.83231029659509658813e-02) (81, 1.61461070179939270020e-01) (65, -1.39308590441942214966e-02) (66, 2.26967874914407730103e-02) (67, 6.92833662033081054688e-02) (68, 2.89783589541912078857e-02) (69, 3.81604619324207305908e-02) (70, 3.76328192651271820068e-02) (71, -1.56434290111064910889e-02) (72, 3.14631825312972068787e-03) (73, 9.54627022147178649902e-02) (74, 1.47717678919434547424e-02) (75, 1.38308882713317871094e-01) (76, 1.24721020460128784180e-01) (77, 6.20444416999816894531e-02) (78, 2.11118441075086593628e-02) (79, 8.90668854117393493652e-02) (80, -1.81453197728842496872e-03) (81, 2.50560361891984939575e-02) (65, 1.54348732903599739075e-02) (66, -1.28402605652809143066e-01) (67, 2.28740889579057693481e-02) (68, 1.99288010597229003906e-01) (69, 1.25604510307312011719e-01) (70, 7.04655125737190246582e-02) (71, -8.23110633064061403275e-04) (72, 1.78573429584503173828e-02) (73, 2.26599380373954772949e-01) (74, 9.97104099951684474945e-04) (75, 4.36894029378890991211e-01) (76, 1.99656426906585693359e-01) (77, 3.28740119934082031250e-01) (78, -2.05326423048973083496e-01) (79, 2.57719755172729492188e-01) (80, 1.05888936668634414673e-02) (81, -5.27262315154075622559e-02) (65, -5.91126643121242523193e-02) (66, 5.45432120561599731445e-02) (67, 2.65343725681304931641e-01) (68, 1.51071965694427490234e-01) (69, 1.44460484385490417480e-01) (70, 1.28680750727653503418e-01) (71, -8.25925767421722412109e-02) (72, 3.54786380194127559662e-03) (73, 3.29123020172119140625e-01) (74, 2.66087204217910766602e-02) (75, 5.43213129043579101562e-01) (76, 3.99470031261444091797e-01) (77, 2.31460779905319213867e-01) (78, 7.69526511430740356445e-02) (79, 3.31304341554641723633e-01) (80, 3.25054153800010681152e-02) (81, 8.63643214106559753418e-02) (65, 6.46123886108398437500e-02) (66, -3.47339659929275512695e-01) (67, -3.81589010357856750488e-02) (68, 5.01881897449493408203e-01) (69, 2.20430329442024230957e-01) (70, 1.50371223688125610352e-01) (71, 3.62918861210346221924e-02) (72, 4.73740659654140472412e-02) (73, 4.49651628732681274414e-01) (74, -1.78085602819919586182e-02) (75, 8.94197225570678710938e-01) (76, 3.82339566946029663086e-01) (77, 6.93598449230194091797e-01) (78, -5.19516706466674804688e-01) (79, 5.56282937526702880859e-01) (80, 1.16617064923048019409e-02) (81, -1.49357005953788757324e-01) (65, -4.20205965638160705566e-02) (66, 1.87772676348686218262e-01) (67, 3.26464027166366577148e-01) (68, -5.36812059581279754639e-02) (69, 1.27218544483184814453e-01) (70, 6.88373669981956481934e-02) (71, -9.19668525457382202148e-02) (72, 2.08835639059543609619e-02) (73, 2.63831108808517456055e-01) (74, 4.86474819481372833252e-02) (75, 3.39349716901779174805e-01) (76, 3.46547186374664306641e-01) (77, 2.76767797768115997314e-02) (78, 2.16355517506599426270e-01) (79, 1.82655841112136840820e-01) (80, 1.31550775840878486633e-02) (81, 1.32545068860054016113e-01) (65, 5.79601824283599853516e-02) (66, -1.07986122369766235352e-01) (67, -1.06695987284183502197e-01) (68, 6.95457607507705688477e-02) (69, -2.67963903024792671204e-03) (70, -3.61617188900709152222e-03) (71, 3.19926105439662933350e-02) (72, -1.10248418059200048447e-03) (73, -2.62935599312186241150e-03) (74, -1.56262554228305816650e-02) (75, 4.32241074740886688232e-02) (76, -2.39579360932111740112e-02) (77, 9.82278138399124145508e-02) (78, -1.52260556817054748535e-01) (79, 3.09223216027021408081e-02) (80, -6.51716580614447593689e-03) (81, -6.63542225956916809082e-02) (65, -2.42817867547273635864e-02) (66, 3.81428077816963195801e-02) (67, 8.70052874088287353516e-02) (68, 2.06550639122724533081e-02) (69, 4.01796028017997741699e-02) (70, 3.31857278943061828613e-02) (71, -2.14956905692815780640e-02) (72, -4.47007099865004420280e-04) (73, 8.39212164282798767090e-02) (74, 1.13806426525115966797e-02) (75, 1.20666407048702239990e-01) (76, 1.12649597227573394775e-01) (77, 2.30708792805671691895e-02) (78, 5.19843436777591705322e-02) (79, 6.78664445877075195312e-02) (80, 5.07882097736001014709e-03) (81, 3.69375422596931457520e-02) (65, 3.63442339003086090088e-02) (66, -9.67292785644531250000e-02) (67, -8.24711024761199951172e-02) (68, 6.24333918094635009766e-02) (69, 1.34978983551263809204e-02) (70, -3.34651675075292587280e-03) (71, 2.11356300860643386841e-02) (72, 8.86677205562591552734e-03) (73, 6.86624925583600997925e-03) (74, -6.61254767328500747681e-03) (75, 6.48367926478385925293e-02) (76, -2.01526191085577011108e-02) (77, 9.87061187624931335449e-02) (78, -1.22394837439060211182e-01) (79, 3.57690118253231048584e-02) (80, 3.19719081744551658630e-03) (81, -5.67980185151100158691e-02) (65, -6.14107102155685424805e-02) (66, 2.07606092095375061035e-01) (67, 2.99462258815765380859e-01) (68, -8.99195671081542968750e-02) (69, 4.91306968033313751221e-02) (70, 5.57464957237243652344e-02) (71, -6.55758306384086608887e-02) (72, -1.02795683778822422028e-03) (73, 1.34738117456436157227e-01) (74, 1.62623915821313858032e-02) (75, 1.68425291776657104492e-01) (76, 2.49223172664642333984e-01) (77, -7.96073004603385925293e-02) (78, 2.83770143985748291016e-01) (79, 9.36999693512916564941e-02) (80, 1.25332912430167198181e-02) (81, 1.47518232464790344238e-01) (65, -1.00090891122817993164e-01) (66, 3.13435077667236328125e-01) (67, 3.99697124958038330078e-01) (68, -1.42694056034088134766e-01) (69, 5.53687624633312225342e-02) (70, 7.74518847465515136719e-02) (71, -1.06633506715297698975e-01) (72, -1.50990113615989685059e-02) (73, 1.65006265044212341309e-01) (74, 4.52396385371685028076e-02) (75, 1.49844139814376831055e-01) (76, 3.12115252017974853516e-01) (77, -1.59341916441917419434e-01) (78, 4.29590076208114624023e-01) (79, 8.59255120158195495605e-02) (80, 1.71158928424119949341e-02) (81, 2.13980898261070251465e-01) (65, -4.50341477990150451660e-02) (66, 1.01416714489459991455e-01) (67, 1.75243154168128967285e-01) (68, -7.02591240406036376953e-03) (69, 5.40814734995365142822e-02) (70, 4.97039705514907836914e-02) (71, -3.80203984677791595459e-02) (72, -3.35475080646574497223e-04) (73, 1.17012761533260345459e-01) (74, 1.91746484488248825073e-02) (75, 1.54735371470451354980e-01) (76, 1.76397085189819335938e-01) (77, -1.68775394558906555176e-02) (78, 1.29630967974662780762e-01) (79, 8.62682908773422241211e-02) (80, 1.43760340288281440735e-02) (81, 7.84950330853462219238e-02) (65, -2.69575491547584533691e-02) (66, 8.57376083731651306152e-02) (67, 1.35603904724121093750e-01) (68, -1.39768673107028007507e-02) (69, 3.43378558754920959473e-02) (70, 3.60473617911338806152e-02) (71, -3.30738201737403869629e-02) (72, -3.49255744367837905884e-03) (73, 8.53124707937240600586e-02) (74, 9.00872703641653060913e-03) (75, 1.22562982141971588135e-01) (76, 1.38923108577728271484e-01) (77, -6.21353136375546455383e-03) (78, 1.08765162527561187744e-01) (79, 6.76725953817367553711e-02) (80, 5.83272753283381462097e-03) (81, 6.35671168565750122070e-02) (65, 3.50654311478137969971e-02) (66, -1.51812076568603515625e-01) (67, -1.58025786280632019043e-01) (68, 9.21977311372756958008e-02) (69, 5.22811803966760635376e-03) (70, -1.45182516425848007202e-02) (71, 3.06707918643951416016e-02) (72, 8.04979447275400161743e-03) (73, -3.13208661973476409912e-02) (74, -7.59578496217727661133e-03) (75, 4.84200194478034973145e-03) (76, -9.88565906882286071777e-02) (77, 1.20519220829010009766e-01) (78, -1.92678928375244140625e-01) (79, 6.74887048080563545227e-03) (80, 1.69655517674982547760e-03) (81, -9.44148376584053039551e-02) (65, -6.81717619299888610840e-02) (66, 1.99349507689476013184e-01) (67, 2.60590046644210815430e-01) (68, -6.55401870608329772949e-02) (69, 3.56156639754772186279e-02) (70, 5.34774027764797210693e-02) (71, -6.58840909600257873535e-02) (72, -9.27516352385282516479e-03) (73, 1.18376716971397399902e-01) (74, 2.51832641661167144775e-02) (75, 1.17246799170970916748e-01) (76, 2.13011011481285095215e-01) (77, -9.40095111727714538574e-02) (78, 2.58464515209197998047e-01) (79, 6.90477490425109863281e-02) (80, 9.89534240216016769409e-03) (81, 1.37434482574462890625e-01) (65, 4.04261425137519836426e-02) (66, -1.37302368879318237305e-01) (67, -1.58608898520469665527e-01) (68, 7.58786126971244812012e-02) (69, -5.03306090831756591797e-03) (70, -1.71851571649312973022e-02) (71, 3.25819030404090881348e-02) (72, 8.04501492530107498169e-03) (73, -4.12580780684947967529e-02) (74, -8.54922179132699966431e-03) (75, -1.50982793420553207397e-02) (76, -1.03798933327198028564e-01) (77, 9.28458720445632934570e-02) (78, -1.80878609418869018555e-01) (79, -1.28574762493371963501e-02) (80, 2.37827328965067863464e-03) (81, -8.99460390210151672363e-02) (65, -2.10353862494230270386e-02) (66, 5.96937984228134155273e-02) (67, 9.76062715053558349609e-02) (68, -1.40104591846466064453e-02) (69, 2.43787802755832672119e-02) (70, 2.56100948899984359741e-02) (71, -1.81373562663793563843e-02) (72, 1.10971770482137799263e-04) (73, 5.84518685936927795410e-02) (74, 5.74693223461508750916e-03) (75, 7.87736549973487854004e-02) (76, 9.82885584235191345215e-02) (77, -1.19917392730712890625e-02) (78, 7.99401029944419860840e-02) (79, 4.41187918186187744141e-02) (80, 2.97077884897589683533e-03) (81, 4.56727445125579833984e-02) (65, -3.45835611224174499512e-02) (66, 1.34141206741333007812e-01) (67, 1.72377511858940124512e-01) (68, -6.42254650592803955078e-02) (69, 2.51135230064392089844e-02) (70, 2.95265633612871170044e-02) (71, -3.39298769831657409668e-02) (72, -7.93303176760673522949e-03) (73, 7.56772980093955993652e-02) (74, 1.14198541268706321716e-02) (75, 7.14443996548652648926e-02) (76, 1.47093802690505981445e-01) (77, -6.54585063457489013672e-02) (78, 1.75119876861572265625e-01) (79, 4.41995300352573394775e-02) (80, 1.50796328671276569366e-03) (81, 9.16729569435119628906e-02) (65, -9.08211711794137954712e-03) (66, 3.98369096219539642334e-02) (67, 6.11039474606513977051e-02) (68, -1.15990387275815010071e-02) (69, 9.95752122253179550171e-03) (70, 1.66041627526283264160e-02) (71, -1.76048707216978073120e-02) (72, -5.21114375442266464233e-03) (73, 3.13599929213523864746e-02) (74, 2.63378652743995189667e-03) (75, 3.98822091519832611084e-02) (76, 5.70466630160808563232e-02) (77, -7.76426726952195167542e-03) (78, 5.51758594810962677002e-02) (79, 2.29857340455055236816e-02) (80, 2.08829136681742966175e-04) (81, 3.01471799612045288086e-02) (65, -4.73764277994632720947e-02) (66, 1.53818055987358093262e-01) (67, 2.09949642419815063477e-01) (68, -5.02288155257701873779e-02) (69, 3.55823151767253875732e-02) (70, 4.57643307745456695557e-02) (71, -4.96938750147819519043e-02) (72, -9.57391504198312759399e-03) (73, 1.02055482566356658936e-01) (74, 1.24364448711276054382e-02) (75, 1.11971847712993621826e-01) (76, 1.82963266968727111816e-01) (77, -6.56631961464881896973e-02) (78, 1.92478805780410766602e-01) (79, 6.18873350322246551514e-02) (80, 6.43214397132396697998e-03) (81, 1.07068777084350585938e-01) (65, -6.37333886697888374329e-03) (66, -1.15023888647556304932e-02) (67, 1.54749378561973571777e-02) (68, 2.25732401013374328613e-02) (69, 1.89549606293439865112e-02) (70, 7.19956634566187858582e-03) (71, -9.55634051933884620667e-04) (72, -1.26559182535856962204e-03) (73, 2.44768261909484863281e-02) (74, 3.15098999999463558197e-03) (75, 4.31837104260921478271e-02) (76, 2.12450027465820312500e-02) (77, 2.14036107063293457031e-02) (78, -1.81302987039089202881e-02) (79, 2.42162477225065231323e-02) (80, 6.68466836214065551758e-03) (81, -2.10565025918185710907e-03) (65, 3.24709080159664154053e-02) (66, -7.76397362351417541504e-02) (67, -8.92740786075592041016e-02) (68, 3.23982648551464080811e-02) (69, -8.48686136305332183838e-03) (70, -1.53489895164966583252e-02) (71, 2.22074259072542190552e-02) (72, 5.31475152820348739624e-03) (73, -2.31092162430286407471e-02) (74, -8.07708781212568283081e-03) (75, -6.75411662086844444275e-03) (76, -5.50571307539939880371e-02) (77, 5.63527159392833709717e-02) (78, -9.88046899437904357910e-02) (79, -4.61610686033964157104e-03) (80, -4.95204888284206390381e-03) (81, -5.07125668227672576904e-02) (65, -9.60383005440235137939e-03) (66, 7.32750399038195610046e-03) (67, 4.12592403590679168701e-02) (68, 2.24997904151678085327e-02) (69, 2.50317044556140899658e-02) (70, 2.08050403743982315063e-02) (71, -1.11317550763487815857e-02) (72, 1.93811720237135887146e-03) (73, 4.96330782771110534668e-02) (74, 7.54530914127826690674e-03) (75, 8.75715389847755432129e-02) (76, 6.34191557765007019043e-02) (77, 3.27074378728866577148e-02) (78, 1.22661190107464790344e-02) (79, 4.89724837243556976318e-02) (80, 5.88702503591775894165e-03) (81, 1.28342630341649055481e-02) (65, -2.08578864112496376038e-03) (66, -1.21010355651378631592e-02) (67, 8.53570550680160522461e-03) (68, 3.40673401951789855957e-02) (69, 1.80375725030899047852e-02) (70, 1.52212278917431831360e-02) (71, -4.34895744547247886658e-03) (72, 5.25551894679665565491e-03) (73, 3.94356474280357360840e-02) (74, 4.96704550459980964661e-03) (75, 6.92439675331115722656e-02) (76, 3.82577329874038696289e-02) (77, 4.32585552334785461426e-02) (78, -2.19101402908563613892e-02) (79, 4.10924442112445831299e-02) (80, 4.07949415966868400574e-03) (81, -3.27425263822078704834e-03) (65, 2.75764483958482742310e-02) (66, -1.26593530178070068359e-01) (67, -1.33435934782028198242e-01) (68, 8.03815424442291259766e-02) (69, 3.65868350490927696228e-03) (70, -8.62491317093372344971e-03) (71, 2.26469822227954864502e-02) (72, 4.69653308391571044922e-03) (73, -2.18283310532569885254e-02) (74, -1.56136578880250453949e-03) (75, 6.46149693056941032410e-03) (76, -7.49856680631637573242e-02) (77, 1.01717382669448852539e-01) (78, -1.58788457512855529785e-01) (79, 6.56859856098890304565e-03) (80, 7.89664103649556636810e-04) (81, -7.79825001955032348633e-02) (65, -1.69508461840450763702e-03) (66, -1.64036150090396404266e-03) (67, 3.28991822898387908936e-02) (68, 2.86807380616664886475e-02) (69, 2.71112397313117980957e-02) (70, 2.13078055530786514282e-02) (71, -1.11921187490224838257e-02) (72, -8.87442729435861110687e-04) (73, 5.36660887300968170166e-02) (74, 5.28265768662095069885e-03) (75, 8.88109430670738220215e-02) (76, 6.24410323798656463623e-02) (77, 4.26925756037235260010e-02) (78, -4.09283768385648727417e-03) (79, 5.00399321317672729492e-02) (80, 5.29273459687829017639e-03) (81, 6.80729513987898826599e-03) (65, -2.89819389581680297852e-02) (66, 1.02974973618984222412e-01) (67, 1.30825877189636230469e-01) (68, -4.51831780374050140381e-02) (69, 1.58919803798198699951e-02) (70, 2.51770764589309692383e-02) (71, -2.66466215252876281738e-02) (72, -7.50658893957734107971e-03) (73, 5.11596426367759704590e-02) (74, 6.59225182607769966125e-03) (75, 4.87076491117477416992e-02) (76, 1.06017470359802246094e-01) (77, -5.54601810872554779053e-02) (78, 1.32425770163536071777e-01) (79, 2.81887408345937728882e-02) (80, 1.04939995799213647842e-03) (81, 6.98971599340438842773e-02) (65, 2.95055173337459564209e-02) (66, -1.15700319409370422363e-01) (67, -1.15032479166984558105e-01) (68, 7.41237550973892211914e-02) (69, 8.91541410237550735474e-03) (70, -6.58177863806486129761e-03) (71, 2.54697185009717941284e-02) (72, 8.67728237062692642212e-03) (73, -8.13610479235649108887e-03) (74, -2.68666702322661876678e-03) (75, 2.17244699597358703613e-02) (76, -5.80342710018157958984e-02) (77, 9.53918918967247009277e-02) (78, -1.54460474848747253418e-01) (79, 1.33779766038060188293e-02) (80, 2.10309110116213560104e-04) (81, -7.17264264822006225586e-02) (65, -2.93948724865913391113e-02) (66, 9.62859317660331726074e-02) (67, 1.22576728463172912598e-01) (68, -3.32529805600643157959e-02) (69, 1.70435160398483276367e-02) (70, 2.91045978665351867676e-02) (71, -3.37586887180805206299e-02) (72, -5.83844073116779327393e-03) (73, 6.03511482477188110352e-02) (74, 1.31376078352332115173e-02) (75, 6.01382292807102203369e-02) (76, 1.11055880784988403320e-01) (77, -3.70938330888748168945e-02) (78, 1.28514841198921203613e-01) (79, 3.94294522702693939209e-02) (80, 1.02944264654070138931e-03) (81, 6.67433813214302062988e-02) (65, -5.76253421604633331299e-02) (66, 2.03821256756782531738e-01) (67, 2.77145087718963623047e-01) (68, -8.25407505035400390625e-02) (69, 3.96743975579738616943e-02) (70, 5.77035211026668548584e-02) (71, -6.62601664662361145020e-02) (72, -1.58661603927612304688e-02) (73, 1.21877238154411315918e-01) (74, 1.61702595651149749756e-02) (75, 1.35110735893249511719e-01) (76, 2.42480188608169555664e-01) (77, -9.33423116803169250488e-02) (78, 2.82622724771499633789e-01) (79, 7.98298716545104980469e-02) (80, 5.26854302734136581421e-03) (81, 1.46718531847000122070e-01) (65, -5.04252947866916656494e-02) (66, 1.84636533260345458984e-01) (67, 2.33647495508193969727e-01) (68, -7.91046395897865295410e-02) (69, 2.26731207221746444702e-02) (70, 4.04145270586013793945e-02) (71, -5.09027764201164245605e-02) (72, -1.10304951667785644531e-02) (73, 8.29137563705444335938e-02) (74, 8.76361690461635589600e-03) (75, 8.25107768177986145020e-02) (76, 1.74425601959228515625e-01) (77, -1.03303648531436920166e-01) (78, 2.33939006924629211426e-01) (79, 4.63551692664623260498e-02) (80, 8.43696109950542449951e-03) (81, 1.23734802007675170898e-01) (65, 3.42814847826957702637e-02) (66, -1.18996508419513702393e-01) (67, -1.38707518577575683594e-01) (68, 5.90748749673366546631e-02) (69, -7.51495221629738807678e-03) (70, -2.02448014169931411743e-02) (71, 2.95204352587461471558e-02) (72, 7.57799902930855751038e-03) (73, -4.19709160923957824707e-02) (74, -6.74366531893610954285e-03) (75, -2.84999031573534011841e-02) (76, -9.90052521228790283203e-02) (77, 7.64058977365493774414e-02) (78, -1.55989944934844970703e-01) (79, -1.65122300386428833008e-02) (80, -2.69556161947548389435e-03) (81, -7.83889368176460266113e-02) (65, -3.25102219358086585999e-03) (66, -1.31954962853342294693e-03) (67, 2.84764487296342849731e-02) (68, 2.71897763013839721680e-02) (69, 2.42161508649587631226e-02) (70, 2.16443836688995361328e-02) (71, -1.23776076361536979675e-02) (72, -3.01239732652902603149e-03) (73, 4.61362935602664947510e-02) (74, 6.91552227362990379333e-03) (75, 8.39595124125480651855e-02) (76, 5.97132928669452667236e-02) (77, 4.39552962779998779297e-02) (78, 3.18576511926949024200e-03) (79, 5.10715842247009277344e-02) (80, 4.68568503856658935547e-03) (81, 7.57621601223945617676e-03) (65, -2.94951871037483215332e-02) (66, 9.64163616299629211426e-02) (67, 1.14885643124580383301e-01) (68, -4.49880510568618774414e-02) (69, 7.10138725116848945618e-03) (70, 1.78096201270818710327e-02) (71, -2.27911192923784255981e-02) (72, -6.09124638140201568604e-03) (73, 3.79328764975070953369e-02) (74, 6.78530056029558181763e-03) (75, 2.76792794466018676758e-02) (76, 8.51686969399452209473e-02) (77, -5.97435310482978820801e-02) (78, 1.23835578560829162598e-01) (79, 1.59764084964990615845e-02) (80, -1.25127116916701197624e-05) (81, 6.39039278030395507812e-02) (65, -5.07523864507675170898e-03) (66, 2.82939849421381950378e-03) (67, 3.32024283707141876221e-02) (68, 2.20743399113416671753e-02) (69, 2.24020406603813171387e-02) (70, 2.09683813154697418213e-02) (71, -6.15974934771656990051e-03) (72, 2.60018906556069850922e-03) (73, 5.09282797574996948242e-02) (74, 3.46613582223653793335e-03) (75, 8.54671448469161987305e-02) (76, 6.41484111547470092773e-02) (77, 3.92443165183067321777e-02) (78, 2.22777551971375942230e-03) (79, 5.06099723279476165771e-02) (80, 1.83257611934095621109e-03) (81, 8.94847977906465530396e-03) (65, -1.26730203628540039062e-02) (66, 2.49678529798984527588e-02) (67, 5.22121191024780273438e-02) (68, 1.22905131429433822632e-02) (69, 1.91566478461027145386e-02) (70, 2.19546053558588027954e-02) (71, -1.42859118059277534485e-02) (72, 4.07263316446915268898e-04) (73, 4.96101677417755126953e-02) (74, 6.80701062083244323730e-03) (75, 7.80038014054298400879e-02) (76, 7.25197568535804748535e-02) (77, 2.11059320718050003052e-02) (78, 3.19562889635562896729e-02) (79, 4.77214790880680084229e-02) (80, 2.06191046163439750671e-03) (81, 2.25137900561094284058e-02) (65, -5.76356612145900726318e-03) (66, 1.36971725150942802429e-02) (67, 3.09083964675664901733e-02) (68, 1.12980725243687629700e-02) (69, 1.12675372511148452759e-02) (70, 1.41271036118268966675e-02) (71, -5.00555941835045814514e-03) (72, -3.26212757499888539314e-04) (73, 3.29758785665035247803e-02) (74, 1.20028026867657899857e-03) (75, 4.99167926609516143799e-02) (76, 4.54267524182796478271e-02) (77, 1.44787272438406944275e-02) (78, 1.23295970261096954346e-02) (79, 3.09844966977834701538e-02) (80, 2.32139858417212963104e-03) (81, 1.25361029058694839478e-02) (65, -5.20321652293205261230e-02) (66, 1.70389682054519653320e-01) (67, 2.36830919981002807617e-01) (68, -5.93216568231582641602e-02) (69, 3.58911752700805664062e-02) (70, 5.11636957526206970215e-02) (71, -5.44844120740890502930e-02) (72, -7.80004309490323066711e-03) (73, 1.10501289367675781250e-01) (74, 1.38070601969957351685e-02) (75, 1.32387116551399230957e-01) (76, 2.07254528999328613281e-01) (77, -6.93268179893493652344e-02) (78, 2.26140990853309631348e-01) (79, 7.67812654376029968262e-02) (80, 7.36806821078062057495e-03) (81, 1.21512718498706817627e-01) (65, -9.97712463140487670898e-02) (66, 3.15667867660522460938e-01) (67, 4.13762181997299194336e-01) (68, -1.21278136968612670898e-01) (69, 5.19420690834522247314e-02) (70, 8.21809247136116027832e-02) (71, -9.23687815666198730469e-02) (72, -1.80786531418561935425e-02) (73, 1.72950983047485351562e-01) (74, 2.44178213179111480713e-02) (75, 1.77565604448318481445e-01) (76, 3.40075045824050903320e-01) (77, -1.58229246735572814941e-01) (78, 4.11014407873153686523e-01) (79, 1.01861588656902313232e-01) (80, 8.48021451383829116821e-03) (81, 2.19181910157203674316e-01) (65, -4.74009923636913299561e-02) (66, 1.56120359897613525391e-01) (67, 2.13030785322189331055e-01) (68, -6.18438348174095153809e-02) (69, 3.38670499622821807861e-02) (70, 4.21439856290817260742e-02) (71, -4.67719063162803649902e-02) (72, -1.25410594046115875244e-02) (73, 9.50389131903648376465e-02) (74, 1.44029622897505760193e-02) (75, 1.02757327258586883545e-01) (76, 1.81934714317321777344e-01) (77, -6.78940191864967346191e-02) (78, 2.06251576542854309082e-01) (79, 6.08659274876117706299e-02) (80, 4.05237404629588127136e-03) (81, 1.10241159796714782715e-01) (65, 4.82089705765247344971e-02) (66, -1.55493050813674926758e-01) (67, -1.61168560385704040527e-01) (68, 9.45115759968757629395e-02) (69, 7.46751436963677406311e-03) (70, -1.56276077032089233398e-02) (71, 3.78072634339332580566e-02) (72, 1.24190887436270713806e-02) (73, -1.73868685960769653320e-02) (74, -1.04109179228544235229e-02) (75, 2.94986572116613388062e-02) (76, -8.20233523845672607422e-02) (77, 1.34268879890441894531e-01) (78, -2.10998535156250000000e-01) (79, 1.75444148480892181396e-02) (80, -3.21968854404985904694e-03) (81, -9.89504456520080566406e-02) (65, -3.22247389703989028931e-03) (66, -9.69825591892004013062e-03) (67, 8.39134212583303451538e-03) (68, 2.49862764030694961548e-02) (69, 1.64466444402933120728e-02) (70, 1.27458693459630012512e-02) (71, -1.57500209752470254898e-03) (72, -6.47619424853473901749e-04) (73, 3.31265516579151153564e-02) (74, 3.55226360261440277100e-03) (75, 5.50398565828800201416e-02) (76, 3.71902026236057281494e-02) (77, 3.70465368032455444336e-02) (78, -1.15862414240837097168e-02) (79, 3.64751107990741729736e-02) (80, 9.57336276769638061523e-04) (81, -2.70170363364741206169e-04) (65, -6.19660466909408569336e-02) (66, 1.93428903818130493164e-01) (67, 2.66309171915054321289e-01) (68, -6.35652616620063781738e-02) (69, 4.09792065620422363281e-02) (70, 5.74418790638446807861e-02) (71, -5.91966211795806884766e-02) (72, -1.33829340338706970215e-02) (73, 1.21848113834857940674e-01) (74, 1.62107869982719421387e-02) (75, 1.42617762088775634766e-01) (76, 2.31177553534507751465e-01) (77, -8.18799585103988647461e-02) (78, 2.52547085285186767578e-01) (79, 8.24019908905029296875e-02) (80, 7.77203822508454322815e-03) (81, 1.37482225894927978516e-01) (65, -8.92161764204502105713e-03) (66, 1.90629698336124420166e-02) (67, 2.98485364764928817749e-02) (68, 5.83271030336618423462e-04) (69, 7.39352684468030929565e-03) (70, 9.01472382247447967529e-03) (71, -8.01987294107675552368e-03) (72, -6.48920948151499032974e-04) (73, 1.75873357802629470825e-02) (74, 3.81807959638535976410e-03) (75, 2.70565487444400787354e-02) (76, 2.84399315714836120605e-02) (77, -6.77975965663790702820e-03) (78, 2.36435122787952423096e-02) (79, 1.32956495508551597595e-02) (80, 4.12825681269168853760e-03) (81, 1.43167991191148757935e-02) (65, -1.96480918675661087036e-02) (66, 4.92759086191654205322e-02) (67, 8.57769697904586791992e-02) (68, -1.44483963958919048309e-03) (69, 2.36133802682161331177e-02) (70, 2.60473433881998062134e-02) (71, -2.10803672671318054199e-02) (72, -3.72743816114962100983e-03) (73, 5.79201914370059967041e-02) (74, 7.06553878262639045715e-03) (75, 8.27153697609901428223e-02) (76, 9.38201472163200378418e-02) (77, 3.27705941163003444672e-03) (78, 6.62577003240585327148e-02) (79, 4.91770543158054351807e-02) (80, 2.88213184103369712830e-03) (81, 3.99049594998359680176e-02) (65, -7.34622264280915260315e-03) (66, 5.21332817152142524719e-03) (67, 2.82984878867864608765e-02) (68, 2.09958720952272415161e-02) (69, 1.79182458668947219849e-02) (70, 1.83238275349140167236e-02) (71, -8.21761786937713623047e-03) (72, 2.78302788501605391502e-04) (73, 4.35220338404178619385e-02) (74, 5.84028288722038269043e-03) (75, 7.18937963247299194336e-02) (76, 5.58091625571250915527e-02) (77, 3.43562960624694824219e-02) (78, 6.28803018480539321899e-03) (79, 4.37106005847454071045e-02) (80, 4.13594627752900123596e-03) (81, 9.62140504270792007446e-03) (65, 2.29400936514139175415e-02) (66, -9.90321487188339233398e-02) (67, -1.03624612092971801758e-01) (68, 6.19501285254955291748e-02) (69, 3.85609315708279609680e-03) (70, -8.53727385401725769043e-03) (71, 2.04460360109806060791e-02) (72, 1.03214997798204421997e-02) (73, -1.15818185731768608093e-02) (74, 9.13358351681381464005e-04) (75, 1.92346572875976562500e-02) (76, -5.71441538631916046143e-02) (77, 8.28281641006469726562e-02) (78, -1.28052785992622375488e-01) (79, 1.07753789052367210388e-02) (80, 3.01862601190805435181e-03) (81, -6.25186935067176818848e-02) (65, -5.03665767610073089600e-03) (66, -1.74495531246066093445e-03) (67, 1.42086157575249671936e-02) (68, 1.75760425627231597900e-02) (69, 1.43330246210098266602e-02) (70, 1.38143207877874374390e-02) (71, -6.35938020423054695129e-03) (72, 3.84088349528610706329e-03) (73, 3.01049072295427322388e-02) (74, 6.16339314728975296021e-03) (75, 5.38694672286510467529e-02) (76, 3.50894518196582794189e-02) (77, 2.85957846790552139282e-02) (78, 6.70450448524206876755e-04) (79, 3.24413403868675231934e-02) (80, 2.90931598283350467682e-03) (81, 3.43292206525802612305e-03) (65, -5.95476701855659484863e-02) (66, 2.00325995683670043945e-01) (67, 2.72398680448532104492e-01) (68, -6.99943974614143371582e-02) (69, 4.14792783558368682861e-02) (70, 5.98152428865432739258e-02) (71, -6.36132881045341491699e-02) (72, -1.18206506595015525818e-02) (73, 1.26870483160018920898e-01) (74, 1.68155003339052200317e-02) (75, 1.47640690207481384277e-01) (76, 2.40661472082138061523e-01) (77, -8.44580158591270446777e-02) (78, 2.64208436012268066406e-01) (79, 8.40222015976905822754e-02) (80, 5.71846449747681617737e-03) (81, 1.42030298709869384766e-01) (65, 2.18672445043921470642e-03) (66, -3.05235143750905990601e-02) (67, -9.97384451329708099365e-03) (68, 3.81199531257152557373e-02) (69, 1.87368895858526229858e-02) (70, 1.10284853726625442505e-02) (71, -7.31510226614773273468e-06) (72, 5.05467411130666732788e-03) (73, 3.06374840438365936279e-02) (74, 4.45384066551923751831e-03) (75, 6.40186592936515808105e-02) (76, 2.21693329513072967529e-02) (77, 5.56581653654575347900e-02) (78, -3.99845205247402191162e-02) (79, 3.84830757975578308105e-02) (80, 3.42979328706860542297e-03) (81, -1.42629668116569519043e-02) 
