FANN_FLO_2.1
num_layers=3
learning_rate=0.700000
connection_rate=1.000000
network_type=0
learning_momentum=0.000000
training_algorithm=2
train_error_function=1
train_stop_function=0
cascade_output_change_fraction=0.010000
quickprop_decay=-0.000100
quickprop_mu=1.750000
rprop_increase_factor=1.200000
rprop_decrease_factor=0.500000
rprop_delta_min=0.000000
rprop_delta_max=50.000000
rprop_delta_zero=0.100000
cascade_output_stagnation_epochs=12
cascade_candidate_change_fraction=0.010000
cascade_candidate_stagnation_epochs=12
cascade_max_out_epochs=150
cascade_min_out_epochs=50
cascade_max_cand_epochs=150
cascade_min_cand_epochs=50
cascade_num_candidate_groups=2
bit_fail_limit=3.49999994039535522461e-01
cascade_candidate_limit=1.00000000000000000000e+03
cascade_weight_multiplier=4.00000005960464477539e-01
cascade_activation_functions_count=10
cascade_activation_functions=3 5 7 8 10 11 14 15 16 17 
cascade_activation_steepnesses_count=4
cascade_activation_steepnesses=2.50000000000000000000e-01 5.00000000000000000000e-01 7.50000000000000000000e-01 1.00000000000000000000e+00 
layer_sizes=10 9 2 
scale_included=0
neurons (num_inputs, activation_function, activation_steepness)=(0, 0, 0.00000000000000000000e+00) (0, 0, 0.00000000000000000000e+00) (0, 0, 0.00000000000000000000e+00) (0, 0, 0.00000000000000000000e+00) (0, 0, 0.00000000000000000000e+00) (0, 0, 0.00000000000000000000e+00) (0, 0, 0.00000000000000000000e+00) (0, 0, 0.00000000000000000000e+00) (0, 0, 0.00000000000000000000e+00) (0, 0, 0.00000000000000000000e+00) (10, 3, 5.00000000000000000000e-01) (10, 3, 5.00000000000000000000e-01) (10, 3, 5.00000000000000000000e-01) (10, 3, 5.00000000000000000000e-01) (10, 3, 5.00000000000000000000e-01) (10, 3, 5.00000000000000000000e-01) (10, 3, 5.00000000000000000000e-01) (10, 3, 5.00000000000000000000e-01) (0, 3, 0.00000000000000000000e+00) (9, 3, 5.00000000000000000000e-01) (0, 3, 0.00000000000000000000e+00) 
connections (connected_to_neuron, weight)=(0, 4.37373161315917968750e+00) (1, 9.25054359436035156250e+00) (2, 1.96618022918701171875e+01) (3, -4.28493261337280273438e+00) (4, -1.10017366707324981689e-01) (5, 3.17400503158569335938e+00) (6, -1.96648674011230468750e+01) (7, -7.18473482131958007812e+00) (8, -6.71679687500000000000e+00) (9, 6.49069356918334960938e+00) (0, -1.77363414764404296875e+01) (1, 9.18348073959350585938e-01) (2, 2.95378265380859375000e+01) (3, -3.09982128143310546875e+01) (4, 1.56612455844879150391e+00) (5, 3.55815849304199218750e+01) (6, -2.90600967407226562500e+01) (7, -4.39541769027709960938e+00) (8, 1.45300321578979492188e+01) (9, 2.28915715217590332031e+00) (0, 5.70691490173339843750e+00) (1, 2.04074363708496093750e+01) (2, 2.59546051025390625000e+01) (3, -7.46965312957763671875e+00) (4, 9.82897520065307617188e-01) (5, 2.87140560150146484375e+00) (6, -2.06075420379638671875e+01) (7, -2.31197376251220703125e+01) (8, -4.84524917602539062500e+00) (9, 2.22969079017639160156e+00) (0, -2.84029078483581542969e+00) (1, -1.74281224608421325684e-01) (2, 3.75048756599426269531e+00) (3, -4.29126882553100585938e+00) (4, 3.11530262231826782227e-01) (5, 3.62996625900268554688e+00) (6, -3.74990677833557128906e+00) (7, 2.39412426948547363281e-01) (8, 3.07957172393798828125e+00) (9, 1.82570353150367736816e-01) (0, -1.84688968658447265625e+01) (1, -1.26868762969970703125e+01) (2, 1.79341208934783935547e+00) (3, -2.29626140594482421875e+01) (4, 2.17328071594238281250e+00) (5, 2.04440059661865234375e+01) (6, -1.05261623859405517578e+00) (7, 1.33713817596435546875e+01) (8, 1.92136840820312500000e+01) (9, 9.08893871307373046875e+00) (0, -6.20450198650360107422e-01) (1, 9.18335437774658203125e-01) (2, 2.13222026824951171875e+00) (3, 3.75691452026367187500e+01) (4, 1.12437438964843750000e+00) (5, 1.50000000000000000000e+03) (6, 1.50000000000000000000e+03) (7, 6.76191747188568115234e-01) (8, 1.50000000000000000000e+03) (9, 9.04582309722900390625e+00) (0, -6.40613222122192382812e+00) (1, -2.32161331176757812500e+00) (2, 1.16792440414428710938e+01) (3, -1.58191728591918945312e+01) (4, -5.89273929595947265625e-01) (5, 6.07433748245239257812e+00) (6, -5.28293657302856445312e+00) (7, 1.52481377124786376953e+00) (8, 1.09188461303710937500e+01) (9, 2.49581360816955566406e+00) (0, -1.68891067504882812500e+01) (1, -1.14356584548950195312e+01) (2, -6.45654726028442382812e+00) (3, -5.31044340133666992188e+00) (4, 9.13624763488769531250e-01) (5, 1.06060943603515625000e+01) (6, -1.22573280334472656250e+00) (7, 1.50694332122802734375e+01) (8, 1.50401363372802734375e+01) (9, 1.71538960933685302734e+00) (10, -4.61353588104248046875e+00) (11, -1.95893692970275878906e+00) (12, -2.42484307289123535156e+00) (13, 1.40717115402221679688e+01) (14, -4.30801439285278320312e+00) (15, 2.37424159049987792969e+00) (16, -2.81729698181152343750e+00) (17, -3.44167852401733398438e+00) (18, 5.80922460556030273438e+00) 
