FANN_FLO_2.1
num_layers=4
learning_rate=0.700000
connection_rate=1.000000
network_type=0
learning_momentum=0.000000
training_algorithm=2
train_error_function=1
train_stop_function=0
cascade_output_change_fraction=0.010000
quickprop_decay=-0.000100
quickprop_mu=1.750000
rprop_increase_factor=1.200000
rprop_decrease_factor=0.500000
rprop_delta_min=0.000000
rprop_delta_max=50.000000
rprop_delta_zero=0.100000
cascade_output_stagnation_epochs=12
cascade_candidate_change_fraction=0.010000
cascade_candidate_stagnation_epochs=12
cascade_max_out_epochs=150
cascade_min_out_epochs=50
cascade_max_cand_epochs=150
cascade_min_cand_epochs=50
cascade_num_candidate_groups=2
bit_fail_limit=3.49999994039535522461e-01
cascade_candidate_limit=1.00000000000000000000e+03
cascade_weight_multiplier=4.00000005960464477539e-01
cascade_activation_functions_count=10
cascade_activation_functions=3 5 7 8 10 11 14 15 16 17 
cascade_activation_steepnesses_count=4
cascade_activation_steepnesses=2.50000000000000000000e-01 5.00000000000000000000e-01 7.50000000000000000000e-01 1.00000000000000000000e+00 
layer_sizes=7 17 17 2 
scale_included=0
neurons (num_inputs, activation_function, activation_steepness)=(0, 0, 0.00000000000000000000e+00) (0, 0, 0.00000000000000000000e+00) (0, 0, 0.00000000000000000000e+00) (0, 0, 0.00000000000000000000e+00) (0, 0, 0.00000000000000000000e+00) (0, 0, 0.00000000000000000000e+00) (0, 0, 0.00000000000000000000e+00) (7, 3, 5.00000000000000000000e-01) (7, 3, 5.00000000000000000000e-01) (7, 3, 5.00000000000000000000e-01) (7, 3, 5.00000000000000000000e-01) (7, 3, 5.00000000000000000000e-01) (7, 3, 5.00000000000000000000e-01) (7, 3, 5.00000000000000000000e-01) (7, 3, 5.00000000000000000000e-01) (7, 3, 5.00000000000000000000e-01) (7, 3, 5.00000000000000000000e-01) (7, 3, 5.00000000000000000000e-01) (7, 3, 5.00000000000000000000e-01) (7, 3, 5.00000000000000000000e-01) (7, 3, 5.00000000000000000000e-01) (7, 3, 5.00000000000000000000e-01) (7, 3, 5.00000000000000000000e-01) (0, 3, 0.00000000000000000000e+00) (17, 3, 5.00000000000000000000e-01) (17, 3, 5.00000000000000000000e-01) (17, 3, 5.00000000000000000000e-01) (17, 3, 5.00000000000000000000e-01) (17, 3, 5.00000000000000000000e-01) (17, 3, 5.00000000000000000000e-01) (17, 3, 5.00000000000000000000e-01) (17, 3, 5.00000000000000000000e-01) (17, 3, 5.00000000000000000000e-01) (17, 3, 5.00000000000000000000e-01) (17, 3, 5.00000000000000000000e-01) (17, 3, 5.00000000000000000000e-01) (17, 3, 5.00000000000000000000e-01) (17, 3, 5.00000000000000000000e-01) (17, 3, 5.00000000000000000000e-01) (17, 3, 5.00000000000000000000e-01) (0, 3, 0.00000000000000000000e+00) (17, 0, 5.00000000000000000000e-01) (0, 0, 0.00000000000000000000e+00) 
connections (connected_to_neuron, weight)=(0, 2.41376042366027832031e-01) (1, -1.51865124702453613281e-01) (2, -5.06726455688476562500e+00) (3, -2.93341368436813354492e-01) (4, 7.68437907099723815918e-02) (5, 5.06296968460083007812e+00) (6, -3.91552162170410156250e+00) (0, -4.82137873768806457520e-02) (1, 1.52247059345245361328e+00) (2, 8.29601573944091796875e+00) (3, -2.18544960021972656250e-01) (4, -1.51533102989196777344e+00) (5, -8.24657630920410156250e+00) (6, -2.62772321701049804688e+00) (0, -8.86764049530029296875e+00) (1, 1.72686958312988281250e+00) (2, 9.53579992055892944336e-02) (3, -7.60721826553344726562e+00) (4, -5.73947668075561523438e+00) (5, -2.54423141479492187500e+00) (6, 5.96023142337799072266e-01) (0, 9.54293236136436462402e-02) (1, 1.62629723548889160156e+00) (2, 6.89293050765991210938e+00) (3, -1.06855183839797973633e-01) (4, -1.53867697715759277344e+00) (5, -6.88313007354736328125e+00) (6, -6.07219171524047851562e+00) (0, 1.11033077239990234375e+01) (1, 2.59682846069335937500e+00) (2, 6.31784439086914062500e-01) (3, -1.11491241455078125000e+01) (4, -2.56267023086547851562e+00) (5, -7.74777948856353759766e-01) (6, -2.46303105354309082031e+00) (0, -6.43778371810913085938e+00) (1, 7.42339992523193359375e+00) (2, -1.17442449554800987244e-02) (3, 4.28121805191040039062e+00) (4, -9.20719242095947265625e+00) (5, -2.96074342727661132812e+00) (6, -2.15371441841125488281e+00) (0, -4.30282115936279296875e+00) (1, 1.34259643554687500000e+01) (2, -1.99795589447021484375e+01) (3, 4.59783840179443359375e+00) (4, -1.66115512847900390625e+01) (5, 3.65918278694152832031e+00) (6, 2.25224208831787109375e+00) (0, 5.51353335380554199219e-01) (1, 5.10271549224853515625e+00) (2, 2.76641547679901123047e-02) (3, -1.14327192306518554688e+00) (4, -5.31252288818359375000e+00) (5, -9.40648987889289855957e-02) (6, 1.17906105518341064453e+00) (0, 2.14580941200256347656e+00) (1, -2.41910219192504882812e+00) (2, -1.52312612533569335938e+01) (3, 5.06988239288330078125e+00) (4, -1.08472938537597656250e+01) (5, -2.80265541076660156250e+01) (6, -1.71996593475341796875e+00) (0, -1.36892223358154296875e+00) (1, 1.15098009109497070312e+01) (2, -2.02720427513122558594e+00) (3, 1.80455160140991210938e+00) (4, -1.01302747726440429688e+01) (5, 2.29042220115661621094e+00) (6, -1.05348119735717773438e+01) (0, -1.00265967845916748047e+00) (1, 8.31681346893310546875e+00) (2, -1.88628995418548583984e+00) (3, 1.47674214839935302734e+00) (4, -7.48336172103881835938e+00) (5, 2.20291447639465332031e+00) (6, -3.41155910491943359375e+00) (0, -1.97438788414001464844e+00) (1, 3.65882539749145507812e+00) (2, 3.51738810539245605469e-01) (3, 1.60664832592010498047e+00) (4, -4.27246141433715820312e+00) (5, -7.56494522094726562500e-01) (6, -1.59324336051940917969e+00) (0, 7.50167274475097656250e+00) (1, 1.66077661514282226562e+00) (2, -4.93969857692718505859e-01) (3, -7.59400987625122070312e+00) (4, -1.66995680332183837891e+00) (5, 4.89923149347305297852e-01) (6, -5.95304012298583984375e+00) (0, 4.62296819686889648438e+00) (1, 5.35024046897888183594e-01) (2, 1.84053912758827209473e-01) (3, -4.73788738250732421875e+00) (4, -6.56086385250091552734e-01) (5, -2.80769407749176025391e-01) (6, 3.03954315185546875000e+00) (0, 6.93590581417083740234e-01) (1, 3.40096259117126464844e+00) (2, -2.28975564241409301758e-01) (3, -3.49042825400829315186e-02) (4, -3.27315163612365722656e+00) (5, 3.67930918931961059570e-01) (6, 1.04170250892639160156e+00) (0, -1.82845914363861083984e+00) (1, 4.21645069122314453125e+00) (2, -7.08635210990905761719e-01) (3, 1.24081313610076904297e+00) (4, -4.19809484481811523438e+00) (5, 6.09012603759765625000e-01) (6, 3.69413185119628906250e+00) (7, 1.82901394367218017578e+00) (8, 5.65629839897155761719e-01) (9, 1.32509934902191162109e+00) (10, 3.50852698087692260742e-01) (11, 6.46558403968811035156e-01) (12, -3.89206916093826293945e-01) (13, -1.61029845476150512695e-01) (14, -2.87281662225723266602e-01) (15, 8.44013273715972900391e-01) (16, 2.05650329589843750000e+00) (17, 3.50861430168151855469e-01) (18, 6.62169873714447021484e-01) (19, 1.20022928714752197266e+00) (20, -1.65420937538146972656e+00) (21, -8.49595963954925537109e-02) (22, -1.42024219036102294922e+00) (23, 4.44982022047042846680e-01) (7, 6.18325757980346679688e+00) (8, -4.51276868581771850586e-01) (9, -2.97608356475830078125e+01) (10, 8.64764213562011718750e+00) (11, 6.63861095905303955078e-01) (12, -2.20130062103271484375e+00) (13, -1.49306118488311767578e-01) (14, -2.66350746154785156250e+01) (15, -3.00000000000000000000e+01) (16, 3.65736818313598632812e+00) (17, 1.23814618587493896484e+00) (18, 1.42490129470825195312e+01) (19, 5.78266525268554687500e+00) (20, -2.48045849800109863281e+00) (21, -1.23906173706054687500e+01) (22, -3.83896875381469726562e+00) (23, -3.25651317834854125977e-01) (7, 5.98851728439331054688e+00) (8, 1.30120873451232910156e+00) (9, -1.54638233184814453125e+01) (10, 4.34695386886596679688e+00) (11, 1.47438538074493408203e+00) (12, 3.72514337301254272461e-01) (13, 1.11528284847736358643e-01) (14, -1.37598466873168945312e+00) (15, -3.83545470237731933594e+00) (16, 2.53905743360519409180e-01) (17, -4.34686064720153808594e-01) (18, -2.30625629425048828125e+00) (19, 4.61375141143798828125e+00) (20, 5.72102844715118408203e-01) (21, -1.79066741466522216797e+00) (22, -1.00390470027923583984e+00) (23, 6.85504078865051269531e-01) (7, 5.00452995300292968750e-01) (8, 7.38144636154174804688e-01) (9, 2.09453731775283813477e-01) (10, 6.19089555740356445312e+00) (11, 2.83007740974426269531e-01) (12, -8.26747238636016845703e-01) (13, 2.46706560254096984863e-01) (14, 3.28424423933029174805e-01) (15, -1.00271952152252197266e+00) (16, 1.90643119812011718750e+01) (17, 1.30802869796752929688e+00) (18, 1.39351582527160644531e+00) (19, 7.25688457489013671875e-01) (20, -2.83695316314697265625e+00) (21, 7.20435738563537597656e-01) (22, -1.31872370839118957520e-01) (23, 4.29799050092697143555e-01) (7, -1.51379632949829101562e+00) (8, 8.56097415089607238770e-02) (9, 5.32090485095977783203e-01) (10, 3.21830224990844726562e+00) (11, 2.75613874197006225586e-01) (12, -1.46057039499282836914e-01) (13, -5.10585308074951171875e-01) (14, 2.45445314794778823853e-02) (15, 3.64674806594848632812e-01) (16, -1.14203579723834991455e-01) (17, -2.88973867893218994141e-01) (18, 1.86158701777458190918e-01) (19, 1.63395643234252929688e+00) (20, -3.21622967720031738281e+00) (21, -2.08028435707092285156e-01) (22, -2.95750766992568969727e-01) (23, -1.29281282424926757812e-01) (7, 1.08640708923339843750e+01) (8, -4.66082692146301269531e-01) (9, -2.97608356475830078125e+01) (10, 5.29846000671386718750e+00) (11, 1.19919242858886718750e+01) (12, 2.05775680541992187500e+01) (13, 2.98387775421142578125e+01) (14, -3.00000000000000000000e+01) (15, -3.00000000000000000000e+01) (16, 1.72086849212646484375e+01) (17, 1.10357129573822021484e+00) (18, 7.83102655410766601562e+00) (19, 9.36677038669586181641e-01) (20, -3.00000000000000000000e+01) (21, -5.44279003143310546875e+00) (22, -3.00000000000000000000e+01) (23, -3.66884976625442504883e-01) (7, 1.29090487957000732422e+00) (8, -4.08100709319114685059e-02) (9, -1.14454016089439392090e-01) (10, 1.27469241619110107422e+00) (11, -2.97341972589492797852e-01) (12, -4.03203040361404418945e-01) (13, 1.79536446928977966309e-01) (14, -2.97142601013183593750e+00) (15, 3.20130795240402221680e-01) (16, -2.57317274808883666992e-01) (17, 1.88636124134063720703e+00) (18, 4.22420454025268554688e+00) (19, 1.71950674057006835938e+00) (20, -4.09333676099777221680e-01) (21, -3.12890315055847167969e+00) (22, -1.33609557151794433594e+00) (23, 6.31511151790618896484e-01) (7, 1.76969966888427734375e+01) (8, 1.52457887306809425354e-02) (9, -9.26162600517272949219e-01) (10, -2.27368652820587158203e-01) (11, 3.51570367813110351562e-01) (12, 6.35153427720069885254e-02) (13, -1.34931296110153198242e-01) (14, -8.70014965534210205078e-01) (15, -1.37459409236907958984e+00) (16, 1.07470560073852539062e+00) (17, -5.19474148750305175781e-01) (18, 2.86570739746093750000e+00) (19, 2.11063003540039062500e+01) (20, -4.64033037424087524414e-01) (21, -1.60858690738677978516e+00) (22, -5.35302281379699707031e-01) (23, 1.09377622604370117188e+00) (7, 2.74001336097717285156e+00) (8, 5.47102391719818115234e-01) (9, 1.27974450588226318359e-01) (10, 1.09549725055694580078e+00) (11, 1.74831703305244445801e-01) (12, -1.15625910460948944092e-01) (13, -1.66184708476066589355e-01) (14, 1.91248491406440734863e-01) (15, 4.02900755405426025391e-01) (16, 1.46005535125732421875e+00) (17, 3.83488357067108154297e-01) (18, 8.19850027561187744141e-01) (19, 1.39762139320373535156e+00) (20, -1.39016842842102050781e+00) (21, 2.82866328954696655273e-01) (22, -8.86803746223449707031e-01) (23, 2.73227632045745849609e-01) (7, 5.44347381591796875000e+00) (8, 2.54532647132873535156e+00) (9, -8.47972333431243896484e-01) (10, 2.73366332054138183594e+00) (11, -2.04769775271415710449e-01) (12, 1.36185586452484130859e+00) (13, 3.32454115152359008789e-01) (14, -1.61870217323303222656e+00) (15, -1.61258149147033691406e+00) (16, 8.60466241836547851562e-01) (17, -1.07101368904113769531e+00) (18, -7.31706142425537109375e-01) (19, -5.29687330126762390137e-02) (20, -4.07992303371429443359e-01) (21, -1.67408537864685058594e+00) (22, -4.22497093677520751953e-01) (23, 1.16936993598937988281e+00) (7, -2.56363058090209960938e+00) (8, 2.68522763252258300781e+00) (9, -2.36251735687255859375e+00) (10, 5.05697727203369140625e+00) (11, -1.46361351013183593750e+00) (12, -1.76392510533332824707e-01) (13, 5.12905381619930267334e-02) (14, -1.31066465377807617188e+00) (15, 1.07057189941406250000e+00) (16, 3.61852979660034179688e+00) (17, 1.26888740062713623047e+00) (18, 1.37417292594909667969e+00) (19, 1.18545556068420410156e+00) (20, 5.85173182189464569092e-02) (21, -2.86925315856933593750e+00) (22, -1.78729617595672607422e+00) (23, 9.95512530207633972168e-02) (7, 3.77911710739135742188e+00) (8, -2.86433361470699310303e-02) (9, -2.35079784393310546875e+01) (10, 3.20038819313049316406e+00) (11, 1.96839261054992675781e+00) (12, -2.96521434783935546875e+01) (13, -8.79060804843902587891e-01) (14, -2.04751658439636230469e+00) (15, -5.42620792984962463379e-02) (16, 2.22355866432189941406e+00) (17, -1.19963347911834716797e+00) (18, -2.24732470512390136719e+00) (19, 4.19212198257446289062e+00) (20, 3.72667729854583740234e-01) (21, -2.97340488433837890625e+00) (22, -6.65969848632812500000e-01) (23, 2.28215411305427551270e-01) (7, 4.51958513259887695312e+00) (8, 4.49621438980102539062e-01) (9, 5.26874959468841552734e-01) (10, 3.90143334865570068359e-01) (11, 1.02006149291992187500e+00) (12, -2.16181531548500061035e-01) (13, -1.53189033269882202148e-01) (14, -1.38844683766365051270e-01) (15, 1.34420955181121826172e+00) (16, 5.16632974147796630859e-01) (17, 3.74165028333663940430e-01) (18, 1.69667875766754150391e+00) (19, 1.46700704097747802734e+00) (20, -6.89069926738739013672e-01) (21, -4.81475330889225006104e-03) (22, -2.81676173210144042969e+00) (23, 2.19385638833045959473e-01) (7, -2.77899980545043945312e-01) (8, -2.03931793570518493652e-01) (9, -6.25379323959350585938e-01) (10, 5.27399003505706787109e-01) (11, 9.41042840480804443359e-01) (12, -3.11559617519378662109e-01) (13, 2.17143818736076354980e-01) (14, -1.86850324273109436035e-01) (15, 1.29702198505401611328e+00) (16, 1.38796639442443847656e+00) (17, 3.86275589466094970703e-01) (18, 9.94378983974456787109e-01) (19, 2.16952323913574218750e+00) (20, -3.27232313156127929688e+00) (21, -2.10427463054656982422e-01) (22, -4.86133515834808349609e-01) (23, -2.01935291290283203125e-01) (7, -4.96034890413284301758e-01) (8, -4.96860072016716003418e-02) (9, -3.28559577465057373047e-02) (10, -2.45062541961669921875e+00) (11, 6.57780528068542480469e-01) (12, 7.55894005298614501953e-01) (13, 3.74629408121109008789e-01) (14, -4.53620761632919311523e-01) (15, -1.20166015625000000000e+01) (16, -1.52563142776489257812e+00) (17, -9.46996435523033142090e-02) (18, -7.47238278388977050781e-01) (19, 3.31274437904357910156e+00) (20, -4.14535570144653320312e+00) (21, -2.24675253033638000488e-01) (22, -3.31374943256378173828e-01) (23, -3.25860828161239624023e-01) (7, 6.08615696430206298828e-01) (8, 7.43166327476501464844e-01) (9, 1.37069630622863769531e+00) (10, 6.20466947555541992188e-01) (11, 7.40755379199981689453e-01) (12, -3.61089080572128295898e-01) (13, 3.94850105047225952148e-01) (14, -4.44887131452560424805e-01) (15, 7.70546734333038330078e-01) (16, -5.98198056221008300781e-01) (17, 4.84971076250076293945e-01) (18, 4.01413768529891967773e-01) (19, 1.29122221469879150391e+00) (20, -1.20089042186737060547e+00) (21, -6.49624913930892944336e-02) (22, -1.82413852214813232422e+00) (23, -1.72160193324089050293e-01) (24, 6.18813514709472656250e-01) (25, 2.20523586273193359375e+01) (26, 2.13761135935783386230e-01) (27, 6.26898467540740966797e-01) (28, 1.15803444385528564453e+00) (29, 3.37118893861770629883e-01) (30, 2.38920712471008300781e+00) (31, 4.28720742464065551758e-01) (32, 9.58102941513061523438e-01) (33, 3.99505525827407836914e-01) (34, 3.25020015239715576172e-01) (35, 3.41705173254013061523e-01) (36, 6.35267078876495361328e-01) (37, 9.28742110729217529297e-01) (38, 1.81580293178558349609e+00) (39, 5.86422801017761230469e-01) (40, -6.69953882694244384766e-01) 
