FANN_FLO_2.1
num_layers=4
learning_rate=0.700000
connection_rate=1.000000
network_type=0
learning_momentum=0.000000
training_algorithm=2
train_error_function=1
train_stop_function=0
cascade_output_change_fraction=0.010000
quickprop_decay=-0.000100
quickprop_mu=1.750000
rprop_increase_factor=1.200000
rprop_decrease_factor=0.500000
rprop_delta_min=0.000000
rprop_delta_max=50.000000
rprop_delta_zero=0.100000
cascade_output_stagnation_epochs=12
cascade_candidate_change_fraction=0.010000
cascade_candidate_stagnation_epochs=12
cascade_max_out_epochs=150
cascade_min_out_epochs=50
cascade_max_cand_epochs=150
cascade_min_cand_epochs=50
cascade_num_candidate_groups=2
bit_fail_limit=3.49999994039535522461e-01
cascade_candidate_limit=1.00000000000000000000e+03
cascade_weight_multiplier=4.00000005960464477539e-01
cascade_activation_functions_count=10
cascade_activation_functions=3 5 7 8 10 11 14 15 16 17 
cascade_activation_steepnesses_count=4
cascade_activation_steepnesses=2.50000000000000000000e-01 5.00000000000000000000e-01 7.50000000000000000000e-01 1.00000000000000000000e+00 
layer_sizes=7 9 5 2 
scale_included=0
neurons (num_inputs, activation_function, activation_steepness)=(0, 0, 0.00000000000000000000e+00) (0, 0, 0.00000000000000000000e+00) (0, 0, 0.00000000000000000000e+00) (0, 0, 0.00000000000000000000e+00) (0, 0, 0.00000000000000000000e+00) (0, 0, 0.00000000000000000000e+00) (0, 0, 0.00000000000000000000e+00) (7, 3, 5.00000000000000000000e-01) (7, 3, 5.00000000000000000000e-01) (7, 3, 5.00000000000000000000e-01) (7, 3, 5.00000000000000000000e-01) (7, 3, 5.00000000000000000000e-01) (7, 3, 5.00000000000000000000e-01) (7, 3, 5.00000000000000000000e-01) (7, 3, 5.00000000000000000000e-01) (0, 3, 0.00000000000000000000e+00) (9, 3, 5.00000000000000000000e-01) (9, 3, 5.00000000000000000000e-01) (9, 3, 5.00000000000000000000e-01) (9, 3, 5.00000000000000000000e-01) (0, 3, 0.00000000000000000000e+00) (5, 0, 5.00000000000000000000e-01) (0, 0, 0.00000000000000000000e+00) 
connections (connected_to_neuron, weight)=(0, 1.28574028611183166504e-01) (1, 4.99316263198852539062e+00) (2, 1.58345520496368408203e+00) (3, -8.48018079996109008789e-02) (4, -4.85588741302490234375e+00) (5, -1.53739118576049804688e+00) (6, -4.52259063720703125000e+00) (0, 2.02618390321731567383e-01) (1, -1.04650354385375976562e+00) (2, 1.19843549728393554688e+01) (3, -1.39433547854423522949e-01) (4, 1.08302080631256103516e+00) (5, -1.15831775665283203125e+01) (6, -9.92702960968017578125e+00) (0, 7.89646863937377929688e+00) (1, -1.32249414920806884766e-01) (2, 3.85934501886367797852e-01) (3, -7.91920471191406250000e+00) (4, 1.30698919296264648438e-01) (5, -4.29920464754104614258e-01) (6, -5.77918815612792968750e+00) (0, 1.14734685048460960388e-02) (1, -7.45269155502319335938e+00) (2, 2.59340238571166992188e+00) (3, 4.34685461223125457764e-02) (4, 7.78530168533325195312e+00) (5, -2.81489276885986328125e+00) (6, -6.91090106964111328125e+00) (0, -6.22482061386108398438e+00) (1, 3.89457307755947113037e-02) (2, -1.12098358571529388428e-01) (3, 6.27658605575561523438e+00) (4, -4.61260862648487091064e-02) (5, 8.50218906998634338379e-02) (6, -4.71983528137207031250e+00) (0, 5.03409542143344879150e-02) (1, -1.14996814727783203125e+00) (2, 5.55744028091430664062e+00) (3, -6.17640204727649688721e-02) (4, 1.03062772750854492188e+00) (5, -5.50054550170898437500e+00) (6, -2.84664559364318847656e+00) (0, 3.04149836301803588867e-01) (1, 2.31095242500305175781e+00) (2, -4.01420927047729492188e+00) (3, -3.22262346744537353516e-01) (4, -2.31842970848083496094e+00) (5, 3.98577570915222167969e+00) (6, -3.93465805053710937500e+00) (0, 1.88077926635742187500e-01) (1, -3.41268396377563476562e+00) (2, -2.62016129493713378906e+00) (3, -1.58382371068000793457e-01) (4, 3.40590453147888183594e+00) (5, 2.68699002265930175781e+00) (6, -3.93563103675842285156e+00) (7, 1.55356264114379882812e+01) (8, -2.01750576496124267578e-01) (9, 2.81262803077697753906e+00) (10, 1.73579864501953125000e+01) (11, 3.03312993049621582031e+00) (12, 3.52528166770935058594e+00) (13, 1.19754734039306640625e+01) (14, 1.49619398117065429688e+01) (15, -2.14031171798706054688e+00) (7, 2.25973916053771972656e+00) (8, -3.93141776323318481445e-01) (9, 3.00000000000000000000e+01) (10, 7.48550236225128173828e-01) (11, 2.08465595245361328125e+01) (12, 1.55999433994293212891e+00) (13, 2.13871431350708007812e+00) (14, 2.44392037391662597656e+00) (15, -1.38010346889495849609e+00) (7, 4.41812229156494140625e+00) (8, -1.42359089851379394531e+00) (9, 3.15422344207763671875e+00) (10, 2.20457887649536132812e+00) (11, 3.46744966506958007812e+00) (12, 1.08523893356323242188e+00) (13, 3.75565242767333984375e+00) (14, 4.53501462936401367188e+00) (15, -3.12625432014465332031e+00) (7, 1.70907270908355712891e+00) (8, 2.30711436271667480469e+00) (9, 9.52387034893035888672e-01) (10, 7.59502291679382324219e-01) (11, 2.14177703857421875000e+00) (12, 2.39208221435546875000e+00) (13, 3.87184214591979980469e+00) (14, 3.65100264549255371094e+00) (15, -3.71432113647460937500e+00) (16, 7.97053813934326171875e-01) (17, 5.58419287204742431641e-01) (18, 1.85997927188873291016e+00) (19, 1.89250242710113525391e+00) (20, -4.50624257326126098633e-01) 
